<?xml version="1.0"?>
<opencv_storage>
<cascade>
  <stageType>BOOST</stageType>
  <featureType>HAAR</featureType>
  <height>72</height>
  <width>128</width>
  <stageParams>
    <boostType>DAB</boostType>
    <minHitRate>9.9500000476837158e-01</minHitRate>
    <maxFalseAlarm>5.0000000000000000e-01</maxFalseAlarm>
    <weightTrimRate>9.4999999999999996e-01</weightTrimRate>
    <maxDepth>1</maxDepth>
    <maxWeakCount>100</maxWeakCount></stageParams>
  <featureParams>
    <maxCatCount>0</maxCatCount>
    <featSize>1</featSize>
    <mode>BASIC</mode></featureParams>
  <stageNum>8</stageNum>
  <stages>
    <!-- stage 0 -->
    <_>
      <maxWeakCount>4</maxWeakCount>
      <stageThreshold>-1.6088957786560059e+00</stageThreshold>
      <weakClassifiers>
        <_>
          <internalNodes>
            0 -1 23 -1.1074906587600708e-01</internalNodes>
          <leafValues>
            -1.9048085212707520e+00 1.9048085212707520e+00</leafValues></_>
        <_>
          <internalNodes>
            0 -1 26 1.3112660497426987e-02</internalNodes>
          <leafValues>
            9.1294211149215698e-01 -9.1294211149215698e-01</leafValues></_>
        <_>
          <internalNodes>
            0 -1 18 -1.8903255462646484e-01</internalNodes>
          <leafValues>
            -5.8291691541671753e-01 5.8291691541671753e-01</leafValues></_>
        <_>
          <internalNodes>
            0 -1 1 1.8166825175285339e-03</internalNodes>
          <leafValues>
            -1.1999464035034180e+00 1.1999464035034180e+00</leafValues></_></weakClassifiers></_>
    <!-- stage 1 -->
    <_>
      <maxWeakCount>15</maxWeakCount>
      <stageThreshold>-1.3276399374008179e+00</stageThreshold>
      <weakClassifiers>
        <_>
          <internalNodes>
            0 -1 19 3.0763747170567513e-02</internalNodes>
          <leafValues>
            1.1574528217315674e+00 -1.1574528217315674e+00</leafValues></_>
        <_>
          <internalNodes>
            0 -1 17 -1.8116188049316406e-01</internalNodes>
          <leafValues>
            -9.5634597539901733e-01 9.5634597539901733e-01</leafValues></_>
        <_>
          <internalNodes>
            0 -1 22 -1.2817593291401863e-02</internalNodes>
          <leafValues>
            8.1670188903808594e-01 -8.1670188903808594e-01</leafValues></_>
        <_>
          <internalNodes>
            0 -1 51 3.8959013763815165e-03</internalNodes>
          <leafValues>
            5.1005846261978149e-01 -5.1005846261978149e-01</leafValues></_>
        <_>
          <internalNodes>
            0 -1 0 -5.9811249375343323e-03</internalNodes>
          <leafValues>
            7.9733872413635254e-01 -7.9733872413635254e-01</leafValues></_>
        <_>
          <internalNodes>
            0 -1 21 -1.2087489664554596e-01</internalNodes>
          <leafValues>
            -6.1632513999938965e-01 6.1632513999938965e-01</leafValues></_>
        <_>
          <internalNodes>
            0 -1 6 4.4965855777263641e-03</internalNodes>
          <leafValues>
            -7.5429737567901611e-01 7.5429737567901611e-01</leafValues></_>
        <_>
          <internalNodes>
            0 -1 13 4.3697401881217957e-02</internalNodes>
          <leafValues>
            6.6407591104507446e-01 -6.6407591104507446e-01</leafValues></_>
        <_>
          <internalNodes>
            0 -1 63 -2.2625625133514404e-03</internalNodes>
          <leafValues>
            7.1186178922653198e-01 -7.1186178922653198e-01</leafValues></_>
        <_>
          <internalNodes>
            0 -1 42 -1.4190245419740677e-02</internalNodes>
          <leafValues>
            -6.7626780271530151e-01 6.7626780271530151e-01</leafValues></_>
        <_>
          <internalNodes>
            0 -1 38 8.2548800855875015e-04</internalNodes>
          <leafValues>
            -2.4682322144508362e-01 -2.4682322144508362e-01</leafValues></_>
        <_>
          <internalNodes>
            0 -1 38 8.2548800855875015e-04</internalNodes>
          <leafValues>
            5.0579094886779785e-01 -5.0579094886779785e-01</leafValues></_>
        <_>
          <internalNodes>
            0 -1 43 -1.8249303684569895e-04</internalNodes>
          <leafValues>
            6.2975394725799561e-01 -6.2975394725799561e-01</leafValues></_>
        <_>
          <internalNodes>
            0 -1 56 2.9705963097512722e-03</internalNodes>
          <leafValues>
            6.5301299095153809e-01 -6.5301299095153809e-01</leafValues></_>
        <_>
          <internalNodes>
            0 -1 53 -1.0151966707780957e-03</internalNodes>
          <leafValues>
            -5.3286451101303101e-01 5.3286451101303101e-01</leafValues></_></weakClassifiers></_>
    <!-- stage 2 -->
    <_>
      <maxWeakCount>10</maxWeakCount>
      <stageThreshold>-1.2327829599380493e+00</stageThreshold>
      <weakClassifiers>
        <_>
          <internalNodes>
            0 -1 9 2.7626462280750275e-02</internalNodes>
          <leafValues>
            1.0279679298400879e+00 -1.0279679298400879e+00</leafValues></_>
        <_>
          <internalNodes>
            0 -1 14 -1.4281587302684784e-01</internalNodes>
          <leafValues>
            -7.5086563825607300e-01 7.5086563825607300e-01</leafValues></_>
        <_>
          <internalNodes>
            0 -1 5 1.2117912992835045e-03</internalNodes>
          <leafValues>
            -8.0365109443664551e-01 8.0365109443664551e-01</leafValues></_>
        <_>
          <internalNodes>
            0 -1 24 1.5022403560578823e-02</internalNodes>
          <leafValues>
            7.2207123041152954e-01 -7.2207123041152954e-01</leafValues></_>
        <_>
          <internalNodes>
            0 -1 4 -5.4489318281412125e-03</internalNodes>
          <leafValues>
            7.0847243070602417e-01 -7.0847243070602417e-01</leafValues></_>
        <_>
          <internalNodes>
            0 -1 54 1.6711615025997162e-03</internalNodes>
          <leafValues>
            6.2694031000137329e-01 -6.2694031000137329e-01</leafValues></_>
        <_>
          <internalNodes>
            0 -1 61 -1.0311411693692207e-02</internalNodes>
          <leafValues>
            6.7647624015808105e-01 -6.7647624015808105e-01</leafValues></_>
        <_>
          <internalNodes>
            0 -1 29 6.0591851361095905e-03</internalNodes>
          <leafValues>
            6.3091456890106201e-01 -6.3091456890106201e-01</leafValues></_>
        <_>
          <internalNodes>
            0 -1 44 -5.6820805184543133e-04</internalNodes>
          <leafValues>
            6.8156194686889648e-01 -6.8156194686889648e-01</leafValues></_>
        <_>
          <internalNodes>
            0 -1 30 -1.5616832301020622e-02</internalNodes>
          <leafValues>
            -6.3423115015029907e-01 6.3423115015029907e-01</leafValues></_></weakClassifiers></_>
    <!-- stage 3 -->
    <_>
      <maxWeakCount>13</maxWeakCount>
      <stageThreshold>-1.5903811454772949e+00</stageThreshold>
      <weakClassifiers>
        <_>
          <internalNodes>
            0 -1 33 8.0214992165565491e-02</internalNodes>
          <leafValues>
            8.9327335357666016e-01 -8.9327335357666016e-01</leafValues></_>
        <_>
          <internalNodes>
            0 -1 37 4.5895744115114212e-03</internalNodes>
          <leafValues>
            -8.4140276908874512e-01 8.4140276908874512e-01</leafValues></_>
        <_>
          <internalNodes>
            0 -1 40 7.1292405482381582e-04</internalNodes>
          <leafValues>
            7.6841932535171509e-01 -7.6841932535171509e-01</leafValues></_>
        <_>
          <internalNodes>
            0 -1 59 -5.8976572472602129e-04</internalNodes>
          <leafValues>
            -7.2454184293746948e-01 7.2454184293746948e-01</leafValues></_>
        <_>
          <internalNodes>
            0 -1 41 -7.7905773650854826e-04</internalNodes>
          <leafValues>
            5.0717502832412720e-01 -5.0717502832412720e-01</leafValues></_>
        <_>
          <internalNodes>
            0 -1 32 -9.1072879731655121e-03</internalNodes>
          <leafValues>
            -7.6958900690078735e-01 7.6958900690078735e-01</leafValues></_>
        <_>
          <internalNodes>
            0 -1 11 -1.5791928162798285e-03</internalNodes>
          <leafValues>
            6.1454713344573975e-01 -6.1454713344573975e-01</leafValues></_>
        <_>
          <internalNodes>
            0 -1 50 -3.4428993239998817e-04</internalNodes>
          <leafValues>
            -7.9380822181701660e-01 7.9380822181701660e-01</leafValues></_>
        <_>
          <internalNodes>
            0 -1 45 5.0335312262177467e-03</internalNodes>
          <leafValues>
            -6.5971881151199341e-01 6.5971881151199341e-01</leafValues></_>
        <_>
          <internalNodes>
            0 -1 3 -7.8391726128757000e-04</internalNodes>
          <leafValues>
            7.1825236082077026e-01 -7.1825236082077026e-01</leafValues></_>
        <_>
          <internalNodes>
            0 -1 34 1.1411624727770686e-03</internalNodes>
          <leafValues>
            8.0322861671447754e-01 -8.0322861671447754e-01</leafValues></_>
        <_>
          <internalNodes>
            0 -1 46 -4.1258619166910648e-03</internalNodes>
          <leafValues>
            7.1674042940139771e-01 -7.1674042940139771e-01</leafValues></_>
        <_>
          <internalNodes>
            0 -1 36 9.9752761889249086e-04</internalNodes>
          <leafValues>
            6.9778859615325928e-01 -6.9778859615325928e-01</leafValues></_></weakClassifiers></_>
    <!-- stage 4 -->
    <_>
      <maxWeakCount>11</maxWeakCount>
      <stageThreshold>-2.1177296638488770e+00</stageThreshold>
      <weakClassifiers>
        <_>
          <internalNodes>
            0 -1 2 4.6481429599225521e-03</internalNodes>
          <leafValues>
            -5.3781658411026001e-01 5.3781658411026001e-01</leafValues></_>
        <_>
          <internalNodes>
            0 -1 10 3.3566363155841827e-02</internalNodes>
          <leafValues>
            1.1200206279754639e+00 -1.1200206279754639e+00</leafValues></_>
        <_>
          <internalNodes>
            0 -1 48 -3.6556622944772243e-05</internalNodes>
          <leafValues>
            8.6029458045959473e-01 -8.6029458045959473e-01</leafValues></_>
        <_>
          <internalNodes>
            0 -1 47 3.1511636916548014e-04</internalNodes>
          <leafValues>
            4.1604846715927124e-01 4.1604846715927124e-01</leafValues></_>
        <_>
          <internalNodes>
            0 -1 47 3.1511636916548014e-04</internalNodes>
          <leafValues>
            -6.9716334342956543e-01 6.9716334342956543e-01</leafValues></_>
        <_>
          <internalNodes>
            0 -1 12 -9.1843231348320842e-04</internalNodes>
          <leafValues>
            9.1445738077163696e-01 -9.1445738077163696e-01</leafValues></_>
        <_>
          <internalNodes>
            0 -1 27 -2.5568521022796631e-01</internalNodes>
          <leafValues>
            -1.0689176321029663e+00 1.0689176321029663e+00</leafValues></_>
        <_>
          <internalNodes>
            0 -1 60 1.2353601732684183e-06</internalNodes>
          <leafValues>
            9.2542123794555664e-01 -9.2542123794555664e-01</leafValues></_>
        <_>
          <internalNodes>
            0 -1 25 3.3417873055441305e-05</internalNodes>
          <leafValues>
            8.7800252437591553e-01 -8.7800252437591553e-01</leafValues></_>
        <_>
          <internalNodes>
            0 -1 62 -1.3188349548727274e-03</internalNodes>
          <leafValues>
            7.1865051984786987e-01 -7.1865051984786987e-01</leafValues></_>
        <_>
          <internalNodes>
            0 -1 57 1.9407487707212567e-04</internalNodes>
          <leafValues>
            1.0417526960372925e+00 -1.0417526960372925e+00</leafValues></_></weakClassifiers></_>
    <!-- stage 5 -->
    <_>
      <maxWeakCount>7</maxWeakCount>
      <stageThreshold>-1.6013799905776978e+00</stageThreshold>
      <weakClassifiers>
        <_>
          <internalNodes>
            0 -1 8 -9.7132362425327301e-03</internalNodes>
          <leafValues>
            1.2963342666625977e+00 -1.2963342666625977e+00</leafValues></_>
        <_>
          <internalNodes>
            0 -1 16 -1.6417084261775017e-03</internalNodes>
          <leafValues>
            -1.4001442193984985e+00 1.4001442193984985e+00</leafValues></_>
        <_>
          <internalNodes>
            0 -1 39 -7.5896323323831894e-06</internalNodes>
          <leafValues>
            -1.1821160316467285e+00 1.1821160316467285e+00</leafValues></_>
        <_>
          <internalNodes>
            0 -1 28 1.9112019240856171e-01</internalNodes>
          <leafValues>
            1.2179682254791260e+00 -1.2179682254791260e+00</leafValues></_>
        <_>
          <internalNodes>
            0 -1 55 -4.5490836782846600e-05</internalNodes>
          <leafValues>
            -1.4590182304382324e+00 1.4590182304382324e+00</leafValues></_>
        <_>
          <internalNodes>
            0 -1 49 1.7932705304701813e-05</internalNodes>
          <leafValues>
            1.2307597398757935e+00 -1.2307597398757935e+00</leafValues></_>
        <_>
          <internalNodes>
            0 -1 31 -1.3154669431969523e-05</internalNodes>
          <leafValues>
            -1.2875047922134399e+00 1.2875047922134399e+00</leafValues></_></weakClassifiers></_>
    <!-- stage 6 -->
    <_>
      <maxWeakCount>4</maxWeakCount>
      <stageThreshold>-6.4194428920745850e-01</stageThreshold>
      <weakClassifiers>
        <_>
          <internalNodes>
            0 -1 52 -6.5223418176174164e-02</internalNodes>
          <leafValues>
            -1.5642092227935791e+00 1.5642092227935791e+00</leafValues></_>
        <_>
          <internalNodes>
            0 -1 35 1.6807943582534790e-02</internalNodes>
          <leafValues>
            1.9765331745147705e+00 -1.9765331745147705e+00</leafValues></_>
        <_>
          <internalNodes>
            0 -1 20 -1.6371272504329681e-03</internalNodes>
          <leafValues>
            1.8761178255081177e+00 -1.8761178255081177e+00</leafValues></_>
        <_>
          <internalNodes>
            0 -1 58 -1.0208557359874249e-03</internalNodes>
          <leafValues>
            -1.6464973688125610e+00 1.6464973688125610e+00</leafValues></_></weakClassifiers></_>
    <!-- stage 7 -->
    <_>
      <maxWeakCount>2</maxWeakCount>
      <stageThreshold>-8.2192093133926392e-02</stageThreshold>
      <weakClassifiers>
        <_>
          <internalNodes>
            0 -1 7 -3.2073363661766052e-02</internalNodes>
          <leafValues>
            -5.2505269050598145e+00 5.2505269050598145e+00</leafValues></_>
        <_>
          <internalNodes>
            0 -1 15 4.2347317934036255e-01</internalNodes>
          <leafValues>
            5.3327188491821289e+00 -5.3327188491821289e+00</leafValues></_></weakClassifiers></_></stages>
  <features>
    <_>
      <rects>
        <_>
          0 0 1 48 -1.</_>
        <_>
          0 24 1 24 2.</_></rects>
      <tilted>0</tilted></_>
    <_>
      <rects>
        <_>
          0 0 4 71 -1.</_>
        <_>
          2 0 2 71 2.</_></rects>
      <tilted>0</tilted></_>
    <_>
      <rects>
        <_>
          0 1 12 50 -1.</_>
        <_>
          0 1 6 25 2.</_>
        <_>
          6 26 6 25 2.</_></rects>
      <tilted>0</tilted></_>
    <_>
      <rects>
        <_>
          0 1 12 16 -1.</_>
        <_>
          0 9 12 8 2.</_></rects>
      <tilted>0</tilted></_>
    <_>
      <rects>
        <_>
          0 2 1 63 -1.</_>
        <_>
          0 23 1 21 3.</_></rects>
      <tilted>0</tilted></_>
    <_>
      <rects>
        <_>
          0 3 4 56 -1.</_>
        <_>
          0 3 2 28 2.</_>
        <_>
          2 31 2 28 2.</_></rects>
      <tilted>0</tilted></_>
    <_>
      <rects>
        <_>
          0 16 10 50 -1.</_>
        <_>
          5 16 5 50 2.</_></rects>
      <tilted>0</tilted></_>
    <_>
      <rects>
        <_>
          0 18 5 54 -1.</_>
        <_>
          0 45 5 27 2.</_></rects>
      <tilted>0</tilted></_>
    <_>
      <rects>
        <_>
          1 0 42 28 -1.</_>
        <_>
          1 14 42 14 2.</_></rects>
      <tilted>0</tilted></_>
    <_>
      <rects>
        <_>
          1 24 124 32 -1.</_>
        <_>
          1 40 124 16 2.</_></rects>
      <tilted>0</tilted></_>
    <_>
      <rects>
        <_>
          1 25 127 24 -1.</_>
        <_>
          1 37 127 12 2.</_></rects>
      <tilted>0</tilted></_>
    <_>
      <rects>
        <_>
          1 33 8 28 -1.</_>
        <_>
          1 33 4 14 2.</_>
        <_>
          5 47 4 14 2.</_></rects>
      <tilted>0</tilted></_>
    <_>
      <rects>
        <_>
          2 0 4 26 -1.</_>
        <_>
          2 13 4 13 2.</_></rects>
      <tilted>0</tilted></_>
    <_>
      <rects>
        <_>
          2 24 124 26 -1.</_>
        <_>
          2 37 124 13 2.</_></rects>
      <tilted>0</tilted></_>
    <_>
      <rects>
        <_>
          4 14 115 57 -1.</_>
        <_>
          4 33 115 19 3.</_></rects>
      <tilted>0</tilted></_>
    <_>
      <rects>
        <_>
          5 0 123 72 -1.</_>
        <_>
          5 24 123 24 3.</_></rects>
      <tilted>0</tilted></_>
    <_>
      <rects>
        <_>
          5 36 20 6 -1.</_>
        <_>
          5 38 20 2 3.</_></rects>
      <tilted>0</tilted></_>
    <_>
      <rects>
        <_>
          6 9 116 63 -1.</_>
        <_>
          6 30 116 21 3.</_></rects>
      <tilted>0</tilted></_>
    <_>
      <rects>
        <_>
          6 11 73 40 -1.</_>
        <_>
          6 31 73 20 2.</_></rects>
      <tilted>0</tilted></_>
    <_>
      <rects>
        <_>
          6 19 94 48 -1.</_>
        <_>
          6 43 94 24 2.</_></rects>
      <tilted>0</tilted></_>
    <_>
      <rects>
        <_>
          7 0 72 10 -1.</_>
        <_>
          7 5 72 5 2.</_></rects>
      <tilted>0</tilted></_>
    <_>
      <rects>
        <_>
          10 17 58 34 -1.</_>
        <_>
          10 34 58 17 2.</_></rects>
      <tilted>0</tilted></_>
    <_>
      <rects>
        <_>
          16 41 93 20 -1.</_>
        <_>
          47 41 31 20 3.</_></rects>
      <tilted>0</tilted></_>
    <_>
      <rects>
        <_>
          18 10 85 48 -1.</_>
        <_>
          18 26 85 16 3.</_></rects>
      <tilted>0</tilted></_>
    <_>
      <rects>
        <_>
          19 2 24 53 -1.</_>
        <_>
          31 2 12 53 2.</_></rects>
      <tilted>0</tilted></_>
    <_>
      <rects>
        <_>
          19 42 11 3 -1.</_>
        <_>
          19 43 11 1 3.</_></rects>
      <tilted>0</tilted></_>
    <_>
      <rects>
        <_>
          20 27 54 44 -1.</_>
        <_>
          20 49 54 22 2.</_></rects>
      <tilted>0</tilted></_>
    <_>
      <rects>
        <_>
          22 3 105 69 -1.</_>
        <_>
          22 26 105 23 3.</_></rects>
      <tilted>0</tilted></_>
    <_>
      <rects>
        <_>
          23 3 84 57 -1.</_>
        <_>
          23 22 84 19 3.</_></rects>
      <tilted>0</tilted></_>
    <_>
      <rects>
        <_>
          23 25 99 6 -1.</_>
        <_>
          23 28 99 3 2.</_></rects>
      <tilted>0</tilted></_>
    <_>
      <rects>
        <_>
          24 25 32 14 -1.</_>
        <_>
          24 32 32 7 2.</_></rects>
      <tilted>0</tilted></_>
    <_>
      <rects>
        <_>
          26 33 6 1 -1.</_>
        <_>
          28 33 2 1 3.</_></rects>
      <tilted>0</tilted></_>
    <_>
      <rects>
        <_>
          28 25 66 15 -1.</_>
        <_>
          28 30 66 5 3.</_></rects>
      <tilted>0</tilted></_>
    <_>
      <rects>
        <_>
          31 18 73 52 -1.</_>
        <_>
          31 44 73 26 2.</_></rects>
      <tilted>0</tilted></_>
    <_>
      <rects>
        <_>
          31 20 9 28 -1.</_>
        <_>
          34 20 3 28 3.</_></rects>
      <tilted>0</tilted></_>
    <_>
      <rects>
        <_>
          33 33 89 15 -1.</_>
        <_>
          33 38 89 5 3.</_></rects>
      <tilted>0</tilted></_>
    <_>
      <rects>
        <_>
          35 27 9 20 -1.</_>
        <_>
          38 27 3 20 3.</_></rects>
      <tilted>0</tilted></_>
    <_>
      <rects>
        <_>
          40 0 74 10 -1.</_>
        <_>
          40 0 37 5 2.</_>
        <_>
          77 5 37 5 2.</_></rects>
      <tilted>0</tilted></_>
    <_>
      <rects>
        <_>
          40 14 6 23 -1.</_>
        <_>
          42 14 2 23 3.</_></rects>
      <tilted>0</tilted></_>
    <_>
      <rects>
        <_>
          42 54 8 6 -1.</_>
        <_>
          42 54 4 3 2.</_>
        <_>
          46 57 4 3 2.</_></rects>
      <tilted>0</tilted></_>
    <_>
      <rects>
        <_>
          51 19 18 7 -1.</_>
        <_>
          60 19 9 7 2.</_></rects>
      <tilted>0</tilted></_>
    <_>
      <rects>
        <_>
          55 0 22 4 -1.</_>
        <_>
          55 0 11 2 2.</_>
        <_>
          66 2 11 2 2.</_></rects>
      <tilted>0</tilted></_>
    <_>
      <rects>
        <_>
          57 8 6 38 -1.</_>
        <_>
          57 27 6 19 2.</_></rects>
      <tilted>0</tilted></_>
    <_>
      <rects>
        <_>
          59 44 6 2 -1.</_>
        <_>
          59 44 3 1 2.</_>
        <_>
          62 45 3 1 2.</_></rects>
      <tilted>0</tilted></_>
    <_>
      <rects>
        <_>
          59 45 12 6 -1.</_>
        <_>
          59 45 6 3 2.</_>
        <_>
          65 48 6 3 2.</_></rects>
      <tilted>0</tilted></_>
    <_>
      <rects>
        <_>
          61 32 26 14 -1.</_>
        <_>
          61 32 13 7 2.</_>
        <_>
          74 39 13 7 2.</_></rects>
      <tilted>0</tilted></_>
    <_>
      <rects>
        <_>
          61 57 48 14 -1.</_>
        <_>
          61 57 24 7 2.</_>
        <_>
          85 64 24 7 2.</_></rects>
      <tilted>0</tilted></_>
    <_>
      <rects>
        <_>
          62 26 4 24 -1.</_>
        <_>
          62 26 2 12 2.</_>
        <_>
          64 38 2 12 2.</_></rects>
      <tilted>0</tilted></_>
    <_>
      <rects>
        <_>
          63 26 6 23 -1.</_>
        <_>
          65 26 2 23 3.</_></rects>
      <tilted>0</tilted></_>
    <_>
      <rects>
        <_>
          66 3 2 4 -1.</_>
        <_>
          66 5 2 2 2.</_></rects>
      <tilted>0</tilted></_>
    <_>
      <rects>
        <_>
          66 9 6 15 -1.</_>
        <_>
          68 9 2 15 3.</_></rects>
      <tilted>0</tilted></_>
    <_>
      <rects>
        <_>
          68 12 18 31 -1.</_>
        <_>
          77 12 9 31 2.</_></rects>
      <tilted>0</tilted></_>
    <_>
      <rects>
        <_>
          72 22 20 46 -1.</_>
        <_>
          72 45 20 23 2.</_></rects>
      <tilted>0</tilted></_>
    <_>
      <rects>
        <_>
          76 25 12 17 -1.</_>
        <_>
          80 25 4 17 3.</_></rects>
      <tilted>0</tilted></_>
    <_>
      <rects>
        <_>
          77 21 12 16 -1.</_>
        <_>
          81 21 4 16 3.</_></rects>
      <tilted>0</tilted></_>
    <_>
      <rects>
        <_>
          77 49 4 8 -1.</_>
        <_>
          79 49 2 8 2.</_></rects>
      <tilted>0</tilted></_>
    <_>
      <rects>
        <_>
          79 30 31 9 -1.</_>
        <_>
          79 33 31 3 3.</_></rects>
      <tilted>0</tilted></_>
    <_>
      <rects>
        <_>
          96 0 4 45 -1.</_>
        <_>
          98 0 2 45 2.</_></rects>
      <tilted>0</tilted></_>
    <_>
      <rects>
        <_>
          106 32 21 6 -1.</_>
        <_>
          113 32 7 6 3.</_></rects>
      <tilted>0</tilted></_>
    <_>
      <rects>
        <_>
          112 21 12 28 -1.</_>
        <_>
          116 21 4 28 3.</_></rects>
      <tilted>0</tilted></_>
    <_>
      <rects>
        <_>
          114 43 12 3 -1.</_>
        <_>
          118 43 4 3 3.</_></rects>
      <tilted>0</tilted></_>
    <_>
      <rects>
        <_>
          117 2 10 70 -1.</_>
        <_>
          122 2 5 70 2.</_></rects>
      <tilted>0</tilted></_>
    <_>
      <rects>
        <_>
          124 4 4 65 -1.</_>
        <_>
          126 4 2 65 2.</_></rects>
      <tilted>0</tilted></_>
    <_>
      <rects>
        <_>
          127 6 1 26 -1.</_>
        <_>
          127 19 1 13 2.</_></rects>
      <tilted>0</tilted></_></features></cascade>
</opencv_storage>
