<?xml version="1.0"?>
<opencv_storage>
<cascade>
  <stageType>BOOST</stageType>
  <featureType>HAAR</featureType>
  <height>40</height>
  <width>80</width>
  <stageParams>
    <boostType>GAB</boostType>
    <minHitRate>9.9500000476837158e-01</minHitRate>
    <maxFalseAlarm>5.0000000000000000e-01</maxFalseAlarm>
    <weightTrimRate>9.4999999999999996e-01</weightTrimRate>
    <maxDepth>1</maxDepth>
    <maxWeakCount>100</maxWeakCount></stageParams>
  <featureParams>
    <maxCatCount>0</maxCatCount>
    <featSize>1</featSize>
    <mode>BASIC</mode></featureParams>
  <stageNum>8</stageNum>
  <stages>
    <!-- stage 0 -->
    <_>
      <maxWeakCount>13</maxWeakCount>
      <stageThreshold>-8.1577986478805542e-01</stageThreshold>
      <weakClassifiers>
        <_>
          <internalNodes>
            0 -1 136 -6.7121312022209167e-03</internalNodes>
          <leafValues>
            5.5121952295303345e-01 -3.1666666269302368e-01</leafValues></_>
        <_>
          <internalNodes>
            0 -1 84 4.3133745202794671e-04</internalNodes>
          <leafValues>
            -1.6365724802017212e-01 7.3984992504119873e-01</leafValues></_>
        <_>
          <internalNodes>
            0 -1 87 -3.7662358954548836e-04</internalNodes>
          <leafValues>
            6.8416631221771240e-01 -2.0731700956821442e-01</leafValues></_>
        <_>
          <internalNodes>
            0 -1 118 2.1388224558904767e-04</internalNodes>
          <leafValues>
            -1.7375195026397705e-01 6.0270345211029053e-01</leafValues></_>
        <_>
          <internalNodes>
            0 -1 108 -3.2722169999033213e-04</internalNodes>
          <leafValues>
            5.5563652515411377e-01 -2.6626145839691162e-01</leafValues></_>
        <_>
          <internalNodes>
            0 -1 149 4.5784545363858342e-04</internalNodes>
          <leafValues>
            -1.6411375999450684e-01 6.5475767850875854e-01</leafValues></_>
        <_>
          <internalNodes>
            0 -1 121 1.0676993988454342e-03</internalNodes>
          <leafValues>
            -1.2825338542461395e-01 7.1796298027038574e-01</leafValues></_>
        <_>
          <internalNodes>
            0 -1 83 4.0496047586202621e-02</internalNodes>
          <leafValues>
            -1.2705866992473602e-01 7.4509602785110474e-01</leafValues></_>
        <_>
          <internalNodes>
            0 -1 161 1.7508538439869881e-04</internalNodes>
          <leafValues>
            -1.8882413208484650e-01 5.6213736534118652e-01</leafValues></_>
        <_>
          <internalNodes>
            0 -1 135 3.9495143573731184e-04</internalNodes>
          <leafValues>
            -1.1383984982967377e-01 7.2210663557052612e-01</leafValues></_>
        <_>
          <internalNodes>
            0 -1 97 3.2278202706947923e-04</internalNodes>
          <leafValues>
            -1.6629695892333984e-01 5.6042146682739258e-01</leafValues></_>
        <_>
          <internalNodes>
            0 -1 15 1.5858405968174338e-03</internalNodes>
          <leafValues>
            -1.5961344540119171e-01 6.2512356042861938e-01</leafValues></_>
        <_>
          <internalNodes>
            0 -1 184 -9.8830591887235641e-03</internalNodes>
          <leafValues>
            4.9584811925888062e-01 -1.6754223406314850e-01</leafValues></_></weakClassifiers></_>
    <!-- stage 1 -->
    <_>
      <maxWeakCount>15</maxWeakCount>
      <stageThreshold>-1.0608533620834351e+00</stageThreshold>
      <weakClassifiers>
        <_>
          <internalNodes>
            0 -1 0 -2.4957069754600525e-01</internalNodes>
          <leafValues>
            -5.8620691299438477e-01 4.2657342553138733e-01</leafValues></_>
        <_>
          <internalNodes>
            0 -1 18 2.2446599602699280e-01</internalNodes>
          <leafValues>
            1.4189185202121735e-01 -7.6784080266952515e-01</leafValues></_>
        <_>
          <internalNodes>
            0 -1 14 4.3578464537858963e-03</internalNodes>
          <leafValues>
            -2.9118633270263672e-01 3.6825188994407654e-01</leafValues></_>
        <_>
          <internalNodes>
            0 -1 142 1.7654689145274460e-04</internalNodes>
          <leafValues>
            -1.7099724709987640e-01 6.1642646789550781e-01</leafValues></_>
        <_>
          <internalNodes>
            0 -1 148 -6.0264406783971936e-05</internalNodes>
          <leafValues>
            5.4159313440322876e-01 -2.2927097976207733e-01</leafValues></_>
        <_>
          <internalNodes>
            0 -1 168 -6.1691808514297009e-04</internalNodes>
          <leafValues>
            4.9284708499908447e-01 -1.7240025103092194e-01</leafValues></_>
        <_>
          <internalNodes>
            0 -1 74 3.3612854778766632e-02</internalNodes>
          <leafValues>
            -1.3418400287628174e-01 5.3587770462036133e-01</leafValues></_>
        <_>
          <internalNodes>
            0 -1 157 -9.2391775979194790e-05</internalNodes>
          <leafValues>
            5.9277367591857910e-01 -1.6290390491485596e-01</leafValues></_>
        <_>
          <internalNodes>
            0 -1 105 -1.7473657499067485e-04</internalNodes>
          <leafValues>
            6.4500391483306885e-01 -8.6458876729011536e-02</leafValues></_>
        <_>
          <internalNodes>
            0 -1 154 -7.2852514684200287e-02</internalNodes>
          <leafValues>
            6.7856252193450928e-01 -7.9221926629543304e-02</leafValues></_>
        <_>
          <internalNodes>
            0 -1 91 9.5359515398740768e-03</internalNodes>
          <leafValues>
            -1.8938216567039490e-01 5.4166698455810547e-01</leafValues></_>
        <_>
          <internalNodes>
            0 -1 207 -1.1775665916502476e-03</internalNodes>
          <leafValues>
            -4.9155703186988831e-01 1.9610922038555145e-01</leafValues></_>
        <_>
          <internalNodes>
            0 -1 158 -3.5883305827155709e-04</internalNodes>
          <leafValues>
            5.2578479051589966e-01 -1.9267709553241730e-01</leafValues></_>
        <_>
          <internalNodes>
            0 -1 173 -2.8901867568492889e-02</internalNodes>
          <leafValues>
            6.4487260580062866e-01 -8.7567076086997986e-02</leafValues></_>
        <_>
          <internalNodes>
            0 -1 58 5.3149758605286479e-04</internalNodes>
          <leafValues>
            -9.7189374268054962e-02 7.4851804971694946e-01</leafValues></_></weakClassifiers></_>
    <!-- stage 2 -->
    <_>
      <maxWeakCount>20</maxWeakCount>
      <stageThreshold>-1.0281933546066284e+00</stageThreshold>
      <weakClassifiers>
        <_>
          <internalNodes>
            0 -1 76 1.0178664233535528e-03</internalNodes>
          <leafValues>
            8.2894735038280487e-02 7.5348836183547974e-01</leafValues></_>
        <_>
          <internalNodes>
            0 -1 75 1.0246573947370052e-03</internalNodes>
          <leafValues>
            -1.2726832926273346e-01 5.6355184316635132e-01</leafValues></_>
        <_>
          <internalNodes>
            0 -1 111 9.0944091789424419e-04</internalNodes>
          <leafValues>
            -1.4829011261463165e-01 5.6456041336059570e-01</leafValues></_>
        <_>
          <internalNodes>
            0 -1 94 -8.2412653136998415e-04</internalNodes>
          <leafValues>
            4.8122274875640869e-01 -2.0517794787883759e-01</leafValues></_>
        <_>
          <internalNodes>
            0 -1 100 -5.4477038793265820e-03</internalNodes>
          <leafValues>
            7.2811239957809448e-01 -7.8112997114658356e-02</leafValues></_>
        <_>
          <internalNodes>
            0 -1 62 1.5063730534166098e-03</internalNodes>
          <leafValues>
            -1.0469591617584229e-01 6.5412831306457520e-01</leafValues></_>
        <_>
          <internalNodes>
            0 -1 52 2.3196317255496979e-02</internalNodes>
          <leafValues>
            -2.1087719500064850e-01 3.5739669203758240e-01</leafValues></_>
        <_>
          <internalNodes>
            0 -1 23 -7.9975312110036612e-04</internalNodes>
          <leafValues>
            4.0766933560371399e-01 -1.8148887157440186e-01</leafValues></_>
        <_>
          <internalNodes>
            0 -1 133 3.9990674704313278e-03</internalNodes>
          <leafValues>
            -9.7943201661109924e-02 6.7637979984283447e-01</leafValues></_>
        <_>
          <internalNodes>
            0 -1 125 2.2159540094435215e-03</internalNodes>
          <leafValues>
            -1.6229245066642761e-01 3.9135006070137024e-01</leafValues></_>
        <_>
          <internalNodes>
            0 -1 17 -5.6935014436021447e-04</internalNodes>
          <leafValues>
            -3.9812022447586060e-01 1.7872634530067444e-01</leafValues></_>
        <_>
          <internalNodes>
            0 -1 50 7.6238316250964999e-04</internalNodes>
          <leafValues>
            -1.3374109566211700e-01 4.6435090899467468e-01</leafValues></_>
        <_>
          <internalNodes>
            0 -1 180 -1.0255360603332520e-01</internalNodes>
          <leafValues>
            -6.5659511089324951e-01 1.1025322228670120e-01</leafValues></_>
        <_>
          <internalNodes>
            0 -1 81 -2.1715842187404633e-02</internalNodes>
          <leafValues>
            6.4614838361740112e-01 -1.0849680751562119e-01</leafValues></_>
        <_>
          <internalNodes>
            0 -1 127 1.3602962717413902e-03</internalNodes>
          <leafValues>
            -1.1723171919584274e-01 5.4726672172546387e-01</leafValues></_>
        <_>
          <internalNodes>
            0 -1 11 3.0333167314529419e-01</internalNodes>
          <leafValues>
            -1.7960883677005768e-01 4.1980251669883728e-01</leafValues></_>
        <_>
          <internalNodes>
            0 -1 182 3.6108404397964478e-02</internalNodes>
          <leafValues>
            -1.3210962712764740e-01 5.6382584571838379e-01</leafValues></_>
        <_>
          <internalNodes>
            0 -1 47 2.1190615370869637e-03</internalNodes>
          <leafValues>
            -9.1835983097553253e-02 5.9396272897720337e-01</leafValues></_>
        <_>
          <internalNodes>
            0 -1 53 -1.3544438406825066e-03</internalNodes>
          <leafValues>
            5.1014345884323120e-01 -1.5872102975845337e-01</leafValues></_>
        <_>
          <internalNodes>
            0 -1 12 9.6315387054346502e-05</internalNodes>
          <leafValues>
            1.5502832829952240e-01 -4.8074835538864136e-01</leafValues></_></weakClassifiers></_>
    <!-- stage 3 -->
    <_>
      <maxWeakCount>25</maxWeakCount>
      <stageThreshold>-8.4642904996871948e-01</stageThreshold>
      <weakClassifiers>
        <_>
          <internalNodes>
            0 -1 93 -1.5741452574729919e-02</internalNodes>
          <leafValues>
            4.8186528682708740e-01 -1.3636364042758942e-01</leafValues></_>
        <_>
          <internalNodes>
            0 -1 202 7.3608302045613527e-05</internalNodes>
          <leafValues>
            1.4797517657279968e-01 -4.6232876181602478e-01</leafValues></_>
        <_>
          <internalNodes>
            0 -1 22 -5.3172819316387177e-02</internalNodes>
          <leafValues>
            5.9006798267364502e-01 -1.1070451140403748e-01</leafValues></_>
        <_>
          <internalNodes>
            0 -1 176 3.3497270196676254e-02</internalNodes>
          <leafValues>
            -1.5543553233146667e-01 4.7084963321685791e-01</leafValues></_>
        <_>
          <internalNodes>
            0 -1 31 2.4831444025039673e-02</internalNodes>
          <leafValues>
            -1.4177730679512024e-01 4.5439445972442627e-01</leafValues></_>
        <_>
          <internalNodes>
            0 -1 106 -1.5697393100708723e-03</internalNodes>
          <leafValues>
            6.9014370441436768e-01 -4.7854647040367126e-02</leafValues></_>
        <_>
          <internalNodes>
            0 -1 59 -1.3616041978821158e-03</internalNodes>
          <leafValues>
            4.9049621820449829e-01 -1.2035039812326431e-01</leafValues></_>
        <_>
          <internalNodes>
            0 -1 107 2.0631870720535517e-03</internalNodes>
          <leafValues>
            -1.3114404678344727e-01 4.8163729906082153e-01</leafValues></_>
        <_>
          <internalNodes>
            0 -1 203 -5.3024617955088615e-04</internalNodes>
          <leafValues>
            -5.9594810009002686e-01 1.1249475926160812e-01</leafValues></_>
        <_>
          <internalNodes>
            0 -1 178 -1.2714385986328125e-02</internalNodes>
          <leafValues>
            3.6526146531105042e-01 -1.6513763368129730e-01</leafValues></_>
        <_>
          <internalNodes>
            0 -1 112 -1.0172562673687935e-02</internalNodes>
          <leafValues>
            5.3427332639694214e-01 -8.5247077047824860e-02</leafValues></_>
        <_>
          <internalNodes>
            0 -1 208 1.2641318608075380e-04</internalNodes>
          <leafValues>
            1.3624235987663269e-01 -4.0152421593666077e-01</leafValues></_>
        <_>
          <internalNodes>
            0 -1 155 4.2044199653901160e-04</internalNodes>
          <leafValues>
            -1.4533732831478119e-01 3.5797455906867981e-01</leafValues></_>
        <_>
          <internalNodes>
            0 -1 54 9.7548067569732666e-03</internalNodes>
          <leafValues>
            -9.9363029003143311e-02 5.8461624383926392e-01</leafValues></_>
        <_>
          <internalNodes>
            0 -1 46 -3.2444179058074951e-02</internalNodes>
          <leafValues>
            5.9537488222122192e-01 -7.6251126825809479e-02</leafValues></_>
        <_>
          <internalNodes>
            0 -1 102 1.1833035387098789e-03</internalNodes>
          <leafValues>
            -1.0221180319786072e-01 4.6236157417297363e-01</leafValues></_>
        <_>
          <internalNodes>
            0 -1 101 -5.8511318638920784e-04</internalNodes>
          <leafValues>
            4.0699997544288635e-01 -1.3399900496006012e-01</leafValues></_>
        <_>
          <internalNodes>
            0 -1 6 2.9560700058937073e-03</internalNodes>
          <leafValues>
            1.1907435208559036e-01 -4.6844702959060669e-01</leafValues></_>
        <_>
          <internalNodes>
            0 -1 55 -6.3522080890834332e-03</internalNodes>
          <leafValues>
            5.7274442911148071e-01 -1.0151703655719757e-01</leafValues></_>
        <_>
          <internalNodes>
            0 -1 19 4.2079802369698882e-05</internalNodes>
          <leafValues>
            1.4650550484657288e-01 -3.8061177730560303e-01</leafValues></_>
        <_>
          <internalNodes>
            0 -1 140 8.5563783068209887e-04</internalNodes>
          <leafValues>
            -1.4635021984577179e-01 4.0089401602745056e-01</leafValues></_>
        <_>
          <internalNodes>
            0 -1 137 5.8689049910753965e-04</internalNodes>
          <leafValues>
            -1.1723127216100693e-01 4.4094967842102051e-01</leafValues></_>
        <_>
          <internalNodes>
            0 -1 7 -1.6138917999342084e-04</internalNodes>
          <leafValues>
            -4.3856543302536011e-01 1.3689859211444855e-01</leafValues></_>
        <_>
          <internalNodes>
            0 -1 172 4.1998452506959438e-03</internalNodes>
          <leafValues>
            -7.8946769237518311e-02 7.7377277612686157e-01</leafValues></_>
        <_>
          <internalNodes>
            0 -1 164 1.0023305192589760e-02</internalNodes>
          <leafValues>
            -1.0912104696035385e-01 3.8914969563484192e-01</leafValues></_></weakClassifiers></_>
    <!-- stage 4 -->
    <_>
      <maxWeakCount>32</maxWeakCount>
      <stageThreshold>-9.0107280015945435e-01</stageThreshold>
      <weakClassifiers>
        <_>
          <internalNodes>
            0 -1 129 -1.1745617538690567e-01</internalNodes>
          <leafValues>
            5.7650274038314819e-01 2.2988505661487579e-02</leafValues></_>
        <_>
          <internalNodes>
            0 -1 199 3.0478091503027827e-05</internalNodes>
          <leafValues>
            1.6913223266601562e-01 -3.3702081441879272e-01</leafValues></_>
        <_>
          <internalNodes>
            0 -1 34 -2.6442361995577812e-02</internalNodes>
          <leafValues>
            4.5157232880592346e-01 -1.1310342699289322e-01</leafValues></_>
        <_>
          <internalNodes>
            0 -1 3 2.7884799987077713e-02</internalNodes>
          <leafValues>
            -2.1041566133499146e-01 3.1168308854103088e-01</leafValues></_>
        <_>
          <internalNodes>
            0 -1 119 3.1506130471825600e-04</internalNodes>
          <leafValues>
            -7.7315099537372589e-02 5.4777771234512329e-01</leafValues></_>
        <_>
          <internalNodes>
            0 -1 119 -1.4475005446001887e-04</internalNodes>
          <leafValues>
            3.5735657811164856e-01 -1.5479022264480591e-01</leafValues></_>
        <_>
          <internalNodes>
            0 -1 181 2.6002997532486916e-02</internalNodes>
          <leafValues>
            -8.6774893105030060e-02 4.8385921120643616e-01</leafValues></_>
        <_>
          <internalNodes>
            0 -1 123 -1.8563844263553619e-02</internalNodes>
          <leafValues>
            5.6423801183700562e-01 -8.9979171752929688e-02</leafValues></_>
        <_>
          <internalNodes>
            0 -1 78 1.6239283606410027e-02</internalNodes>
          <leafValues>
            -1.1201713979244232e-01 4.7787100076675415e-01</leafValues></_>
        <_>
          <internalNodes>
            0 -1 211 -4.3037685099989176e-04</internalNodes>
          <leafValues>
            -3.8013124465942383e-01 1.5319606661796570e-01</leafValues></_>
        <_>
          <internalNodes>
            0 -1 113 -9.5731549663469195e-04</internalNodes>
          <leafValues>
            6.3334244489669800e-01 -9.9912501871585846e-02</leafValues></_>
        <_>
          <internalNodes>
            0 -1 116 8.3375745452940464e-04</internalNodes>
          <leafValues>
            1.9730046391487122e-01 -2.2751450538635254e-01</leafValues></_>
        <_>
          <internalNodes>
            0 -1 166 1.7515001818537712e-03</internalNodes>
          <leafValues>
            -9.1728463768959045e-02 4.8035097122192383e-01</leafValues></_>
        <_>
          <internalNodes>
            0 -1 193 1.8118309089913964e-03</internalNodes>
          <leafValues>
            1.0582181066274643e-01 -4.8205599188804626e-01</leafValues></_>
        <_>
          <internalNodes>
            0 -1 5 2.3130465298891068e-02</internalNodes>
          <leafValues>
            -1.2356957793235779e-01 3.7298399209976196e-01</leafValues></_>
        <_>
          <internalNodes>
            0 -1 32 -1.8487472087144852e-02</internalNodes>
          <leafValues>
            4.8387953639030457e-01 -9.9517956376075745e-02</leafValues></_>
        <_>
          <internalNodes>
            0 -1 43 -2.6020366698503494e-02</internalNodes>
          <leafValues>
            4.0505799651145935e-01 -1.1402726918458939e-01</leafValues></_>
        <_>
          <internalNodes>
            0 -1 72 7.2875642217695713e-03</internalNodes>
          <leafValues>
            -7.9015918076038361e-02 5.6474822759628296e-01</leafValues></_>
        <_>
          <internalNodes>
            0 -1 186 -4.1436357423663139e-03</internalNodes>
          <leafValues>
            3.9738154411315918e-01 -1.1289936304092407e-01</leafValues></_>
        <_>
          <internalNodes>
            0 -1 126 1.0124783730134368e-03</internalNodes>
          <leafValues>
            -1.1534246802330017e-01 4.0084129571914673e-01</leafValues></_>
        <_>
          <internalNodes>
            0 -1 204 1.5488280914723873e-03</internalNodes>
          <leafValues>
            9.4241864979267120e-02 -5.0757312774658203e-01</leafValues></_>
        <_>
          <internalNodes>
            0 -1 151 -6.8742572329938412e-04</internalNodes>
          <leafValues>
            3.7995594739913940e-01 -1.2587407231330872e-01</leafValues></_>
        <_>
          <internalNodes>
            0 -1 183 -2.2830611094832420e-02</internalNodes>
          <leafValues>
            3.7395891547203064e-01 -1.2616404891014099e-01</leafValues></_>
        <_>
          <internalNodes>
            0 -1 49 1.4241165481507778e-03</internalNodes>
          <leafValues>
            -9.4903312623500824e-02 4.1927331686019897e-01</leafValues></_>
        <_>
          <internalNodes>
            0 -1 209 2.5439343880861998e-04</internalNodes>
          <leafValues>
            1.2491621822118759e-01 -4.1038525104522705e-01</leafValues></_>
        <_>
          <internalNodes>
            0 -1 115 3.5141847911290824e-04</internalNodes>
          <leafValues>
            -9.2785649001598358e-02 5.5473411083221436e-01</leafValues></_>
        <_>
          <internalNodes>
            0 -1 146 -2.3421230725944042e-03</internalNodes>
          <leafValues>
            -2.3220704495906830e-01 1.8747560679912567e-01</leafValues></_>
        <_>
          <internalNodes>
            0 -1 25 -1.9391365349292755e-02</internalNodes>
          <leafValues>
            3.5050207376480103e-01 -1.2021822482347488e-01</leafValues></_>
        <_>
          <internalNodes>
            0 -1 28 2.3470956832170486e-02</internalNodes>
          <leafValues>
            -1.3951396942138672e-01 3.3718159794807434e-01</leafValues></_>
        <_>
          <internalNodes>
            0 -1 206 -2.5517365429550409e-04</internalNodes>
          <leafValues>
            -6.6907244920730591e-01 6.7032977938652039e-02</leafValues></_>
        <_>
          <internalNodes>
            0 -1 124 -1.8648877739906311e-02</internalNodes>
          <leafValues>
            3.3830398321151733e-01 -1.3673159480094910e-01</leafValues></_>
        <_>
          <internalNodes>
            0 -1 144 2.6846985565498471e-04</internalNodes>
          <leafValues>
            -8.9976072311401367e-02 5.1392048597335815e-01</leafValues></_></weakClassifiers></_>
    <!-- stage 5 -->
    <_>
      <maxWeakCount>34</maxWeakCount>
      <stageThreshold>-7.3730832338333130e-01</stageThreshold>
      <weakClassifiers>
        <_>
          <internalNodes>
            0 -1 114 -1.6317700967192650e-02</internalNodes>
          <leafValues>
            3.9266198873519897e-01 -7.9222723841667175e-02</leafValues></_>
        <_>
          <internalNodes>
            0 -1 41 8.3247460424900055e-03</internalNodes>
          <leafValues>
            -1.1510709673166275e-01 4.5518201589584351e-01</leafValues></_>
        <_>
          <internalNodes>
            0 -1 110 -1.0502369841560721e-03</internalNodes>
          <leafValues>
            4.4306394457817078e-01 -1.0058605670928955e-01</leafValues></_>
        <_>
          <internalNodes>
            0 -1 57 1.0094315744936466e-02</internalNodes>
          <leafValues>
            -1.0178856551647186e-01 5.4055649042129517e-01</leafValues></_>
        <_>
          <internalNodes>
            0 -1 35 -3.2761238515377045e-02</internalNodes>
          <leafValues>
            5.7231789827346802e-01 -8.8003054261207581e-02</leafValues></_>
        <_>
          <internalNodes>
            0 -1 44 4.6314867213368416e-03</internalNodes>
          <leafValues>
            -1.6429653763771057e-01 2.8919744491577148e-01</leafValues></_>
        <_>
          <internalNodes>
            0 -1 132 1.7586018890142441e-02</internalNodes>
          <leafValues>
            -9.2004008591175079e-02 5.1446372270584106e-01</leafValues></_>
        <_>
          <internalNodes>
            0 -1 65 7.8450143337249756e-03</internalNodes>
          <leafValues>
            -1.1504293233156204e-01 4.4507193565368652e-01</leafValues></_>
        <_>
          <internalNodes>
            0 -1 99 7.5311923865228891e-04</internalNodes>
          <leafValues>
            -1.3920770585536957e-01 3.3386984467506409e-01</leafValues></_>
        <_>
          <internalNodes>
            0 -1 63 -1.4823714271187782e-02</internalNodes>
          <leafValues>
            4.5623478293418884e-01 -9.9663898348808289e-02</leafValues></_>
        <_>
          <internalNodes>
            0 -1 82 -2.2552120499312878e-03</internalNodes>
          <leafValues>
            4.0634989738464355e-01 -1.1113789677619934e-01</leafValues></_>
        <_>
          <internalNodes>
            0 -1 61 -1.9094818271696568e-03</internalNodes>
          <leafValues>
            4.7891977429389954e-01 -9.6431173384189606e-02</leafValues></_>
        <_>
          <internalNodes>
            0 -1 26 3.3422067645005882e-04</internalNodes>
          <leafValues>
            1.2332024425268173e-01 -4.4370514154434204e-01</leafValues></_>
        <_>
          <internalNodes>
            0 -1 145 -1.5581923071295023e-04</internalNodes>
          <leafValues>
            3.0278399586677551e-01 -1.5218542516231537e-01</leafValues></_>
        <_>
          <internalNodes>
            0 -1 13 4.8723826184868813e-03</internalNodes>
          <leafValues>
            8.4566272795200348e-02 -6.5716147422790527e-01</leafValues></_>
        <_>
          <internalNodes>
            0 -1 205 1.9579703803174198e-05</internalNodes>
          <leafValues>
            9.5476187765598297e-02 -3.8878315687179565e-01</leafValues></_>
        <_>
          <internalNodes>
            0 -1 98 2.2438121959567070e-04</internalNodes>
          <leafValues>
            -1.1681008338928223e-01 3.6650049686431885e-01</leafValues></_>
        <_>
          <internalNodes>
            0 -1 128 1.2298073619604111e-02</internalNodes>
          <leafValues>
            -1.0393338650465012e-01 3.8721519708633423e-01</leafValues></_>
        <_>
          <internalNodes>
            0 -1 171 -3.0107260681688786e-04</internalNodes>
          <leafValues>
            2.8018289804458618e-01 -1.6481988131999969e-01</leafValues></_>
        <_>
          <internalNodes>
            0 -1 33 1.5139752998948097e-02</internalNodes>
          <leafValues>
            -1.1667013913393021e-01 3.9061653614044189e-01</leafValues></_>
        <_>
          <internalNodes>
            0 -1 66 -4.3749501928687096e-03</internalNodes>
          <leafValues>
            4.6642091870307922e-01 -9.0004839003086090e-02</leafValues></_>
        <_>
          <internalNodes>
            0 -1 170 1.0702363215386868e-03</internalNodes>
          <leafValues>
            -7.5995102524757385e-02 5.6607109308242798e-01</leafValues></_>
        <_>
          <internalNodes>
            0 -1 24 -4.7389023005962372e-02</internalNodes>
          <leafValues>
            4.5075720548629761e-01 -9.3804202973842621e-02</leafValues></_>
        <_>
          <internalNodes>
            0 -1 134 3.7629509461112320e-04</internalNodes>
          <leafValues>
            -1.2724149227142334e-01 3.2523912191390991e-01</leafValues></_>
        <_>
          <internalNodes>
            0 -1 30 -2.3358850739896297e-04</internalNodes>
          <leafValues>
            -4.5105698704719543e-01 1.0043171793222427e-01</leafValues></_>
        <_>
          <internalNodes>
            0 -1 131 2.4391027167439461e-02</internalNodes>
          <leafValues>
            -1.6293811798095703e-01 2.6638504862785339e-01</leafValues></_>
        <_>
          <internalNodes>
            0 -1 73 -1.1366899125277996e-03</internalNodes>
          <leafValues>
            3.5151976346969604e-01 -1.1509861797094345e-01</leafValues></_>
        <_>
          <internalNodes>
            0 -1 88 8.0106471432372928e-04</internalNodes>
          <leafValues>
            -1.4555017650127411e-01 3.1041491031646729e-01</leafValues></_>
        <_>
          <internalNodes>
            0 -1 177 -1.4355572871863842e-02</internalNodes>
          <leafValues>
            5.3329020738601685e-01 -8.0586604773998260e-02</leafValues></_>
        <_>
          <internalNodes>
            0 -1 179 3.6437474191188812e-02</internalNodes>
          <leafValues>
            -1.1887812614440918e-01 3.9525374770164490e-01</leafValues></_>
        <_>
          <internalNodes>
            0 -1 68 -5.0338353961706161e-02</internalNodes>
          <leafValues>
            5.7607346773147583e-01 -7.3086723685264587e-02</leafValues></_>
        <_>
          <internalNodes>
            0 -1 175 -7.4457405135035515e-03</internalNodes>
          <leafValues>
            2.4852305650711060e-01 -1.8480435013771057e-01</leafValues></_>
        <_>
          <internalNodes>
            0 -1 138 6.4741738606244326e-04</internalNodes>
          <leafValues>
            -9.7388826310634613e-02 4.1860884428024292e-01</leafValues></_>
        <_>
          <internalNodes>
            0 -1 147 1.5723676187917590e-04</internalNodes>
          <leafValues>
            -1.1118867248296738e-01 3.6994990706443787e-01</leafValues></_></weakClassifiers></_>
    <!-- stage 6 -->
    <_>
      <maxWeakCount>34</maxWeakCount>
      <stageThreshold>-7.9573732614517212e-01</stageThreshold>
      <weakClassifiers>
        <_>
          <internalNodes>
            0 -1 4 -1.6324624419212341e-01</internalNodes>
          <leafValues>
            -4.3842363357543945e-01 3.0852890014648438e-01</leafValues></_>
        <_>
          <internalNodes>
            0 -1 69 3.2156474888324738e-02</internalNodes>
          <leafValues>
            -1.7895473539829254e-01 3.0568754673004150e-01</leafValues></_>
        <_>
          <internalNodes>
            0 -1 198 -1.4517467934638262e-04</internalNodes>
          <leafValues>
            -4.2074829339981079e-01 1.4188407361507416e-01</leafValues></_>
        <_>
          <internalNodes>
            0 -1 1 1.5297362208366394e-01</internalNodes>
          <leafValues>
            8.6704067885875702e-02 -3.8725224137306213e-01</leafValues></_>
        <_>
          <internalNodes>
            0 -1 27 -2.7106748893857002e-04</internalNodes>
          <leafValues>
            -4.0515935420989990e-01 9.2811942100524902e-02</leafValues></_>
        <_>
          <internalNodes>
            0 -1 104 2.9480480588972569e-03</internalNodes>
          <leafValues>
            -7.7264398336410522e-02 5.5664205551147461e-01</leafValues></_>
        <_>
          <internalNodes>
            0 -1 130 1.3868641108274460e-03</internalNodes>
          <leafValues>
            -1.1523047834634781e-01 4.3993860483169556e-01</leafValues></_>
        <_>
          <internalNodes>
            0 -1 67 3.8065202534198761e-03</internalNodes>
          <leafValues>
            -1.1184033006429672e-01 3.8869678974151611e-01</leafValues></_>
        <_>
          <internalNodes>
            0 -1 77 -2.8897575102746487e-03</internalNodes>
          <leafValues>
            -5.6476694345474243e-01 6.7635901272296906e-02</leafValues></_>
        <_>
          <internalNodes>
            0 -1 150 -4.1621649870648980e-04</internalNodes>
          <leafValues>
            3.2921832799911499e-01 -1.1718209832906723e-01</leafValues></_>
        <_>
          <internalNodes>
            0 -1 90 -2.7408752590417862e-02</internalNodes>
          <leafValues>
            4.6449077129364014e-01 -9.1642208397388458e-02</leafValues></_>
        <_>
          <internalNodes>
            0 -1 85 -4.4825291261076927e-03</internalNodes>
          <leafValues>
            -4.4597765803337097e-01 9.8366148769855499e-02</leafValues></_>
        <_>
          <internalNodes>
            0 -1 79 7.7709730248898268e-04</internalNodes>
          <leafValues>
            -1.3060969114303589e-01 3.1871250271797180e-01</leafValues></_>
        <_>
          <internalNodes>
            0 -1 40 -2.9707282781600952e-02</internalNodes>
          <leafValues>
            3.7000590562820435e-01 -1.0538543015718460e-01</leafValues></_>
        <_>
          <internalNodes>
            0 -1 51 1.5527087263762951e-02</internalNodes>
          <leafValues>
            -1.0060663521289825e-01 4.7406938672065735e-01</leafValues></_>
        <_>
          <internalNodes>
            0 -1 196 -9.3102045357227325e-03</internalNodes>
          <leafValues>
            -4.0660595893859863e-01 1.1257563531398773e-01</leafValues></_>
        <_>
          <internalNodes>
            0 -1 39 4.0157377952709794e-05</internalNodes>
          <leafValues>
            1.0821833461523056e-01 -3.4057110548019409e-01</leafValues></_>
        <_>
          <internalNodes>
            0 -1 29 2.5665755383670330e-03</internalNodes>
          <leafValues>
            -7.8870803117752075e-02 5.0423711538314819e-01</leafValues></_>
        <_>
          <internalNodes>
            0 -1 156 -3.0199793400242925e-04</internalNodes>
          <leafValues>
            4.7535318136215210e-01 -7.6386563479900360e-02</leafValues></_>
        <_>
          <internalNodes>
            0 -1 162 -1.2579837348312140e-03</internalNodes>
          <leafValues>
            4.0886369347572327e-01 -8.9742787182331085e-02</leafValues></_>
        <_>
          <internalNodes>
            0 -1 56 -1.6216933727264404e-03</internalNodes>
          <leafValues>
            5.0986433029174805e-01 -6.9529570639133453e-02</leafValues></_>
        <_>
          <internalNodes>
            0 -1 109 -3.1028746161609888e-03</internalNodes>
          <leafValues>
            -5.6280636787414551e-01 7.8660003840923309e-02</leafValues></_>
        <_>
          <internalNodes>
            0 -1 71 5.8287172578275204e-04</internalNodes>
          <leafValues>
            -5.2953008562326431e-02 8.0346560478210449e-01</leafValues></_>
        <_>
          <internalNodes>
            0 -1 195 -4.9694051267579198e-04</internalNodes>
          <leafValues>
            -5.1292061805725098e-01 8.1434093415737152e-02</leafValues></_>
        <_>
          <internalNodes>
            0 -1 190 -1.7254361882805824e-03</internalNodes>
          <leafValues>
            4.1091871261596680e-01 -1.0242183506488800e-01</leafValues></_>
        <_>
          <internalNodes>
            0 -1 159 -1.6108010895550251e-03</internalNodes>
          <leafValues>
            3.0416202545166016e-01 -1.2384591996669769e-01</leafValues></_>
        <_>
          <internalNodes>
            0 -1 197 2.3299206077354029e-05</internalNodes>
          <leafValues>
            1.6250422596931458e-01 -2.3348425328731537e-01</leafValues></_>
        <_>
          <internalNodes>
            0 -1 139 -6.8577574566006660e-03</internalNodes>
          <leafValues>
            3.4782648086547852e-01 -1.1909344792366028e-01</leafValues></_>
        <_>
          <internalNodes>
            0 -1 92 2.0357405301183462e-03</internalNodes>
          <leafValues>
            -1.3279511034488678e-01 3.0597910284996033e-01</leafValues></_>
        <_>
          <internalNodes>
            0 -1 153 1.0042919777333736e-02</internalNodes>
          <leafValues>
            7.1275815367698669e-02 -6.5691751241683960e-01</leafValues></_>
        <_>
          <internalNodes>
            0 -1 185 -2.5565887335687876e-04</internalNodes>
          <leafValues>
            3.2213822007179260e-01 -1.3075920939445496e-01</leafValues></_>
        <_>
          <internalNodes>
            0 -1 194 7.2769857069943100e-05</internalNodes>
          <leafValues>
            1.1425772309303284e-01 -4.0977859497070312e-01</leafValues></_>
        <_>
          <internalNodes>
            0 -1 45 -1.5644221566617489e-03</internalNodes>
          <leafValues>
            6.9894671440124512e-01 -6.0155853629112244e-02</leafValues></_>
        <_>
          <internalNodes>
            0 -1 187 -4.3039723095716909e-05</internalNodes>
          <leafValues>
            -3.0875742435455322e-01 1.3351787626743317e-01</leafValues></_></weakClassifiers></_>
    <!-- stage 7 -->
    <_>
      <maxWeakCount>41</maxWeakCount>
      <stageThreshold>-7.7193027734756470e-01</stageThreshold>
      <weakClassifiers>
        <_>
          <internalNodes>
            0 -1 169 2.9723526677116752e-04</internalNodes>
          <leafValues>
            3.2435739040374756e-01 -2.5316455960273743e-01</leafValues></_>
        <_>
          <internalNodes>
            0 -1 36 2.3224024102091789e-02</internalNodes>
          <leafValues>
            -2.2252951562404633e-01 1.8465553224086761e-01</leafValues></_>
        <_>
          <internalNodes>
            0 -1 152 3.8890165742486715e-03</internalNodes>
          <leafValues>
            -8.1395804882049561e-02 5.0396156311035156e-01</leafValues></_>
        <_>
          <internalNodes>
            0 -1 89 -1.9898327067494392e-02</internalNodes>
          <leafValues>
            7.1099805831909180e-01 -7.3088206350803375e-02</leafValues></_>
        <_>
          <internalNodes>
            0 -1 21 8.4482349455356598e-02</internalNodes>
          <leafValues>
            -6.4187139272689819e-02 6.0320806503295898e-01</leafValues></_>
        <_>
          <internalNodes>
            0 -1 16 -7.6356873614713550e-04</internalNodes>
          <leafValues>
            -3.2656747102737427e-01 1.3436213135719299e-01</leafValues></_>
        <_>
          <internalNodes>
            0 -1 60 1.9135042093694210e-03</internalNodes>
          <leafValues>
            -7.3549777269363403e-02 6.5095061063766479e-01</leafValues></_>
        <_>
          <internalNodes>
            0 -1 200 1.5604402869939804e-04</internalNodes>
          <leafValues>
            1.0808787494897842e-01 -3.5272046923637390e-01</leafValues></_>
        <_>
          <internalNodes>
            0 -1 20 2.5615423917770386e-01</internalNodes>
          <leafValues>
            3.3915463835000992e-02 -6.5870702266693115e-01</leafValues></_>
        <_>
          <internalNodes>
            0 -1 141 5.8980379253625870e-04</internalNodes>
          <leafValues>
            -1.0727419704198837e-01 3.2969707250595093e-01</leafValues></_>
        <_>
          <internalNodes>
            0 -1 143 -9.1656763106584549e-04</internalNodes>
          <leafValues>
            4.6455413103103638e-01 -5.8920390903949738e-02</leafValues></_>
        <_>
          <internalNodes>
            0 -1 42 3.3026553690433502e-02</internalNodes>
          <leafValues>
            -1.9346274435520172e-01 1.9332696497440338e-01</leafValues></_>
        <_>
          <internalNodes>
            0 -1 48 -4.9195520579814911e-02</internalNodes>
          <leafValues>
            6.0966962575912476e-01 -6.7633435130119324e-02</leafValues></_>
        <_>
          <internalNodes>
            0 -1 70 -7.2027859278023243e-04</internalNodes>
          <leafValues>
            3.3262082934379578e-01 -9.9653415381908417e-02</leafValues></_>
        <_>
          <internalNodes>
            0 -1 80 2.1873326972126961e-02</internalNodes>
          <leafValues>
            -9.1847538948059082e-02 3.6843064427375793e-01</leafValues></_>
        <_>
          <internalNodes>
            0 -1 167 -2.3264915216714144e-03</internalNodes>
          <leafValues>
            1.9628739356994629e-01 -1.8263536691665649e-01</leafValues></_>
        <_>
          <internalNodes>
            0 -1 86 1.5229471027851105e-02</internalNodes>
          <leafValues>
            -5.0487648695707321e-02 6.5792649984359741e-01</leafValues></_>
        <_>
          <internalNodes>
            0 -1 174 6.4357355237007141e-02</internalNodes>
          <leafValues>
            -5.8398537337779999e-02 5.6447458267211914e-01</leafValues></_>
        <_>
          <internalNodes>
            0 -1 191 1.2778633390553296e-04</internalNodes>
          <leafValues>
            8.1857725977897644e-02 -4.5847639441490173e-01</leafValues></_>
        <_>
          <internalNodes>
            0 -1 96 -3.8680076249875128e-04</internalNodes>
          <leafValues>
            5.2911955118179321e-01 -7.5325317680835724e-02</leafValues></_>
        <_>
          <internalNodes>
            0 -1 188 -4.1513824835419655e-03</internalNodes>
          <leafValues>
            3.7352800369262695e-01 -9.0607769787311554e-02</leafValues></_>
        <_>
          <internalNodes>
            0 -1 122 1.8717832863330841e-02</internalNodes>
          <leafValues>
            -6.2011305242776871e-02 5.4681104421615601e-01</leafValues></_>
        <_>
          <internalNodes>
            0 -1 103 -2.5568984448909760e-02</internalNodes>
          <leafValues>
            2.7137842774391174e-01 -1.3039727509021759e-01</leafValues></_>
        <_>
          <internalNodes>
            0 -1 189 2.2416063584387302e-03</internalNodes>
          <leafValues>
            -1.0107050091028214e-01 3.4843835234642029e-01</leafValues></_>
        <_>
          <internalNodes>
            0 -1 192 -3.9352409658022225e-05</internalNodes>
          <leafValues>
            -3.2986384630203247e-01 1.0732898116111755e-01</leafValues></_>
        <_>
          <internalNodes>
            0 -1 38 -1.9808108918368816e-03</internalNodes>
          <leafValues>
            3.4142085909843445e-01 -1.0443375259637833e-01</leafValues></_>
        <_>
          <internalNodes>
            0 -1 165 -7.9047356848604977e-05</internalNodes>
          <leafValues>
            -3.7439337372779846e-01 9.2551372945308685e-02</leafValues></_>
        <_>
          <internalNodes>
            0 -1 163 -7.1952777216210961e-04</internalNodes>
          <leafValues>
            5.9336864948272705e-01 -6.8529553711414337e-02</leafValues></_>
        <_>
          <internalNodes>
            0 -1 95 -1.4558366965502501e-03</internalNodes>
          <leafValues>
            2.8183630108833313e-01 -1.2338656932115555e-01</leafValues></_>
        <_>
          <internalNodes>
            0 -1 2 7.6031386852264404e-02</internalNodes>
          <leafValues>
            -1.2001977115869522e-01 3.1207758188247681e-01</leafValues></_>
        <_>
          <internalNodes>
            0 -1 37 -6.6853500902652740e-03</internalNodes>
          <leafValues>
            2.8829896450042725e-01 -1.3487613201141357e-01</leafValues></_>
        <_>
          <internalNodes>
            0 -1 8 2.2403853945434093e-03</internalNodes>
          <leafValues>
            -1.0063117742538452e-01 3.6852532625198364e-01</leafValues></_>
        <_>
          <internalNodes>
            0 -1 64 8.2278398622293025e-05</internalNodes>
          <leafValues>
            -1.7764063179492950e-01 2.0898085832595825e-01</leafValues></_>
        <_>
          <internalNodes>
            0 -1 210 -2.7912664227187634e-03</internalNodes>
          <leafValues>
            -4.1848438978195190e-01 8.6275056004524231e-02</leafValues></_>
        <_>
          <internalNodes>
            0 -1 160 -4.4190880726091564e-04</internalNodes>
          <leafValues>
            5.9543997049331665e-01 -6.0438927263021469e-02</leafValues></_>
        <_>
          <internalNodes>
            0 -1 10 -1.8250083667226136e-04</internalNodes>
          <leafValues>
            -3.2891380786895752e-01 1.1096791923046112e-01</leafValues></_>
        <_>
          <internalNodes>
            0 -1 117 4.0200370131060481e-04</internalNodes>
          <leafValues>
            -7.6853096485137939e-02 4.7899389266967773e-01</leafValues></_>
        <_>
          <internalNodes>
            0 -1 9 7.0363993290811777e-04</internalNodes>
          <leafValues>
            9.1140560805797577e-02 -4.2440980672836304e-01</leafValues></_>
        <_>
          <internalNodes>
            0 -1 75 1.3464330695569515e-03</internalNodes>
          <leafValues>
            -1.1592521518468857e-01 3.1257849931716919e-01</leafValues></_>
        <_>
          <internalNodes>
            0 -1 120 -7.0710363797843456e-04</internalNodes>
          <leafValues>
            4.9619776010513306e-01 -7.2067908942699432e-02</leafValues></_>
        <_>
          <internalNodes>
            0 -1 201 -2.7765540289692581e-04</internalNodes>
          <leafValues>
            -5.6319594383239746e-01 7.1203984320163727e-02</leafValues></_></weakClassifiers></_></stages>
  <features>
    <_>
      <rects>
        <_>
          0 0 76 40 -1.</_>
        <_>
          38 0 38 40 2.</_></rects>
      <tilted>0</tilted></_>
    <_>
      <rects>
        <_>
          0 2 80 38 -1.</_>
        <_>
          40 2 40 38 2.</_></rects>
      <tilted>0</tilted></_>
    <_>
      <rects>
        <_>
          0 7 26 28 -1.</_>
        <_>
          13 7 13 28 2.</_></rects>
      <tilted>0</tilted></_>
    <_>
      <rects>
        <_>
          0 14 34 9 -1.</_>
        <_>
          17 14 17 9 2.</_></rects>
      <tilted>0</tilted></_>
    <_>
      <rects>
        <_>
          0 15 78 19 -1.</_>
        <_>
          39 15 39 19 2.</_></rects>
      <tilted>0</tilted></_>
    <_>
      <rects>
        <_>
          0 17 18 16 -1.</_>
        <_>
          9 17 9 16 2.</_></rects>
      <tilted>0</tilted></_>
    <_>
      <rects>
        <_>
          0 23 3 14 -1.</_>
        <_>
          0 30 3 7 2.</_></rects>
      <tilted>0</tilted></_>
    <_>
      <rects>
        <_>
          0 27 1 4 -1.</_>
        <_>
          0 29 1 2 2.</_></rects>
      <tilted>0</tilted></_>
    <_>
      <rects>
        <_>
          0 27 53 3 -1.</_>
        <_>
          0 28 53 1 3.</_></rects>
      <tilted>0</tilted></_>
    <_>
      <rects>
        <_>
          0 30 1 10 -1.</_>
        <_>
          0 35 1 5 2.</_></rects>
      <tilted>0</tilted></_>
    <_>
      <rects>
        <_>
          1 0 8 1 -1.</_>
        <_>
          5 0 4 1 2.</_></rects>
      <tilted>0</tilted></_>
    <_>
      <rects>
        <_>
          1 7 78 33 -1.</_>
        <_>
          27 7 26 33 3.</_></rects>
      <tilted>0</tilted></_>
    <_>
      <rects>
        <_>
          1 8 4 2 -1.</_>
        <_>
          1 9 4 1 2.</_></rects>
      <tilted>0</tilted></_>
    <_>
      <rects>
        <_>
          1 9 6 23 -1.</_>
        <_>
          3 9 2 23 3.</_></rects>
      <tilted>0</tilted></_>
    <_>
      <rects>
        <_>
          1 16 50 1 -1.</_>
        <_>
          26 16 25 1 2.</_></rects>
      <tilted>0</tilted></_>
    <_>
      <rects>
        <_>
          1 27 47 3 -1.</_>
        <_>
          1 28 47 1 3.</_></rects>
      <tilted>0</tilted></_>
    <_>
      <rects>
        <_>
          2 0 5 6 -1.</_>
        <_>
          2 3 5 3 2.</_></rects>
      <tilted>0</tilted></_>
    <_>
      <rects>
        <_>
          2 0 10 4 -1.</_>
        <_>
          7 0 5 4 2.</_></rects>
      <tilted>0</tilted></_>
    <_>
      <rects>
        <_>
          2 0 78 29 -1.</_>
        <_>
          41 0 39 29 2.</_></rects>
      <tilted>0</tilted></_>
    <_>
      <rects>
        <_>
          2 3 1 2 -1.</_>
        <_>
          2 4 1 1 2.</_></rects>
      <tilted>0</tilted></_>
    <_>
      <rects>
        <_>
          3 1 55 34 -1.</_>
        <_>
          3 18 55 17 2.</_></rects>
      <tilted>0</tilted></_>
    <_>
      <rects>
        <_>
          3 8 27 27 -1.</_>
        <_>
          12 8 9 27 3.</_></rects>
      <tilted>0</tilted></_>
    <_>
      <rects>
        <_>
          3 12 30 15 -1.</_>
        <_>
          13 12 10 15 3.</_></rects>
      <tilted>0</tilted></_>
    <_>
      <rects>
        <_>
          3 16 42 3 -1.</_>
        <_>
          3 17 42 1 3.</_></rects>
      <tilted>0</tilted></_>
    <_>
      <rects>
        <_>
          4 0 24 34 -1.</_>
        <_>
          12 0 8 34 3.</_></rects>
      <tilted>0</tilted></_>
    <_>
      <rects>
        <_>
          4 19 27 8 -1.</_>
        <_>
          13 19 9 8 3.</_></rects>
      <tilted>0</tilted></_>
    <_>
      <rects>
        <_>
          5 0 12 2 -1.</_>
        <_>
          5 0 6 1 2.</_>
        <_>
          11 1 6 1 2.</_></rects>
      <tilted>0</tilted></_>
    <_>
      <rects>
        <_>
          5 1 4 4 -1.</_>
        <_>
          5 1 2 2 2.</_>
        <_>
          7 3 2 2 2.</_></rects>
      <tilted>0</tilted></_>
    <_>
      <rects>
        <_>
          5 6 27 23 -1.</_>
        <_>
          14 6 9 23 3.</_></rects>
      <tilted>0</tilted></_>
    <_>
      <rects>
        <_>
          5 27 49 3 -1.</_>
        <_>
          5 28 49 1 3.</_></rects>
      <tilted>0</tilted></_>
    <_>
      <rects>
        <_>
          6 3 6 1 -1.</_>
        <_>
          9 3 3 1 2.</_></rects>
      <tilted>0</tilted></_>
    <_>
      <rects>
        <_>
          6 9 18 15 -1.</_>
        <_>
          15 9 9 15 2.</_></rects>
      <tilted>0</tilted></_>
    <_>
      <rects>
        <_>
          6 12 15 24 -1.</_>
        <_>
          11 12 5 24 3.</_></rects>
      <tilted>0</tilted></_>
    <_>
      <rects>
        <_>
          6 12 18 15 -1.</_>
        <_>
          12 12 6 15 3.</_></rects>
      <tilted>0</tilted></_>
    <_>
      <rects>
        <_>
          6 14 20 21 -1.</_>
        <_>
          16 14 10 21 2.</_></rects>
      <tilted>0</tilted></_>
    <_>
      <rects>
        <_>
          6 16 21 14 -1.</_>
        <_>
          13 16 7 14 3.</_></rects>
      <tilted>0</tilted></_>
    <_>
      <rects>
        <_>
          7 11 38 14 -1.</_>
        <_>
          26 11 19 14 2.</_></rects>
      <tilted>0</tilted></_>
    <_>
      <rects>
        <_>
          7 15 21 6 -1.</_>
        <_>
          14 15 7 6 3.</_></rects>
      <tilted>0</tilted></_>
    <_>
      <rects>
        <_>
          8 27 59 3 -1.</_>
        <_>
          8 28 59 1 3.</_></rects>
      <tilted>0</tilted></_>
    <_>
      <rects>
        <_>
          9 3 2 4 -1.</_>
        <_>
          9 3 1 2 2.</_>
        <_>
          10 5 1 2 2.</_></rects>
      <tilted>0</tilted></_>
    <_>
      <rects>
        <_>
          9 33 69 6 -1.</_>
        <_>
          32 33 23 6 3.</_></rects>
      <tilted>0</tilted></_>
    <_>
      <rects>
        <_>
          10 32 29 8 -1.</_>
        <_>
          10 36 29 4 2.</_></rects>
      <tilted>0</tilted></_>
    <_>
      <rects>
        <_>
          11 0 57 16 -1.</_>
        <_>
          11 8 57 8 2.</_></rects>
      <tilted>0</tilted></_>
    <_>
      <rects>
        <_>
          11 11 24 14 -1.</_>
        <_>
          19 11 8 14 3.</_></rects>
      <tilted>0</tilted></_>
    <_>
      <rects>
        <_>
          12 0 3 32 -1.</_>
        <_>
          12 16 3 16 2.</_></rects>
      <tilted>0</tilted></_>
    <_>
      <rects>
        <_>
          12 13 3 12 -1.</_>
        <_>
          13 13 1 12 3.</_></rects>
      <tilted>0</tilted></_>
    <_>
      <rects>
        <_>
          12 14 24 11 -1.</_>
        <_>
          20 14 8 11 3.</_></rects>
      <tilted>0</tilted></_>
    <_>
      <rects>
        <_>
          12 22 47 3 -1.</_>
        <_>
          12 23 47 1 3.</_></rects>
      <tilted>0</tilted></_>
    <_>
      <rects>
        <_>
          13 0 54 12 -1.</_>
        <_>
          13 6 54 6 2.</_></rects>
      <tilted>0</tilted></_>
    <_>
      <rects>
        <_>
          13 38 36 2 -1.</_>
        <_>
          13 38 18 1 2.</_>
        <_>
          31 39 18 1 2.</_></rects>
      <tilted>0</tilted></_>
    <_>
      <rects>
        <_>
          14 33 47 3 -1.</_>
        <_>
          14 34 47 1 3.</_></rects>
      <tilted>0</tilted></_>
    <_>
      <rects>
        <_>
          15 0 19 12 -1.</_>
        <_>
          15 4 19 4 3.</_></rects>
      <tilted>0</tilted></_>
    <_>
      <rects>
        <_>
          15 0 50 12 -1.</_>
        <_>
          15 6 50 6 2.</_></rects>
      <tilted>0</tilted></_>
    <_>
      <rects>
        <_>
          15 22 61 3 -1.</_>
        <_>
          15 23 61 1 3.</_></rects>
      <tilted>0</tilted></_>
    <_>
      <rects>
        <_>
          16 0 45 4 -1.</_>
        <_>
          16 2 45 2 2.</_></rects>
      <tilted>0</tilted></_>
    <_>
      <rects>
        <_>
          16 35 36 4 -1.</_>
        <_>
          16 35 18 2 2.</_>
        <_>
          34 37 18 2 2.</_></rects>
      <tilted>0</tilted></_>
    <_>
      <rects>
        <_>
          18 4 3 32 -1.</_>
        <_>
          19 4 1 32 3.</_></rects>
      <tilted>0</tilted></_>
    <_>
      <rects>
        <_>
          19 0 42 4 -1.</_>
        <_>
          19 2 42 2 2.</_></rects>
      <tilted>0</tilted></_>
    <_>
      <rects>
        <_>
          19 13 3 4 -1.</_>
        <_>
          20 13 1 4 3.</_></rects>
      <tilted>0</tilted></_>
    <_>
      <rects>
        <_>
          19 16 30 2 -1.</_>
        <_>
          19 16 15 1 2.</_>
        <_>
          34 17 15 1 2.</_></rects>
      <tilted>0</tilted></_>
    <_>
      <rects>
        <_>
          19 36 13 2 -1.</_>
        <_>
          19 37 13 1 2.</_></rects>
      <tilted>0</tilted></_>
    <_>
      <rects>
        <_>
          20 24 29 3 -1.</_>
        <_>
          20 25 29 1 3.</_></rects>
      <tilted>0</tilted></_>
    <_>
      <rects>
        <_>
          21 16 22 3 -1.</_>
        <_>
          21 17 22 1 3.</_></rects>
      <tilted>0</tilted></_>
    <_>
      <rects>
        <_>
          22 0 25 12 -1.</_>
        <_>
          22 4 25 4 3.</_></rects>
      <tilted>0</tilted></_>
    <_>
      <rects>
        <_>
          22 1 46 3 -1.</_>
        <_>
          22 2 46 1 3.</_></rects>
      <tilted>0</tilted></_>
    <_>
      <rects>
        <_>
          22 34 38 6 -1.</_>
        <_>
          22 34 19 3 2.</_>
        <_>
          41 37 19 3 2.</_></rects>
      <tilted>0</tilted></_>
    <_>
      <rects>
        <_>
          23 0 32 4 -1.</_>
        <_>
          23 0 16 2 2.</_>
        <_>
          39 2 16 2 2.</_></rects>
      <tilted>0</tilted></_>
    <_>
      <rects>
        <_>
          23 0 40 4 -1.</_>
        <_>
          23 0 20 2 2.</_>
        <_>
          43 2 20 2 2.</_></rects>
      <tilted>0</tilted></_>
    <_>
      <rects>
        <_>
          23 0 44 14 -1.</_>
        <_>
          23 7 44 7 2.</_></rects>
      <tilted>0</tilted></_>
    <_>
      <rects>
        <_>
          24 0 24 18 -1.</_>
        <_>
          24 9 24 9 2.</_></rects>
      <tilted>0</tilted></_>
    <_>
      <rects>
        <_>
          24 12 18 3 -1.</_>
        <_>
          24 13 18 1 3.</_></rects>
      <tilted>0</tilted></_>
    <_>
      <rects>
        <_>
          24 29 2 2 -1.</_>
        <_>
          24 30 2 1 2.</_></rects>
      <tilted>0</tilted></_>
    <_>
      <rects>
        <_>
          25 0 9 9 -1.</_>
        <_>
          25 3 9 3 3.</_></rects>
      <tilted>0</tilted></_>
    <_>
      <rects>
        <_>
          25 20 26 3 -1.</_>
        <_>
          25 21 26 1 3.</_></rects>
      <tilted>0</tilted></_>
    <_>
      <rects>
        <_>
          26 4 23 21 -1.</_>
        <_>
          26 11 23 7 3.</_></rects>
      <tilted>0</tilted></_>
    <_>
      <rects>
        <_>
          26 12 26 3 -1.</_>
        <_>
          26 13 26 1 3.</_></rects>
      <tilted>0</tilted></_>
    <_>
      <rects>
        <_>
          26 13 22 3 -1.</_>
        <_>
          26 14 22 1 3.</_></rects>
      <tilted>0</tilted></_>
    <_>
      <rects>
        <_>
          27 1 4 15 -1.</_>
        <_>
          29 1 2 15 2.</_></rects>
      <tilted>0</tilted></_>
    <_>
      <rects>
        <_>
          27 1 26 12 -1.</_>
        <_>
          27 5 26 4 3.</_></rects>
      <tilted>0</tilted></_>
    <_>
      <rects>
        <_>
          27 2 3 31 -1.</_>
        <_>
          28 2 1 31 3.</_></rects>
      <tilted>0</tilted></_>
    <_>
      <rects>
        <_>
          27 22 19 18 -1.</_>
        <_>
          27 28 19 6 3.</_></rects>
      <tilted>0</tilted></_>
    <_>
      <rects>
        <_>
          27 25 16 15 -1.</_>
        <_>
          27 30 16 5 3.</_></rects>
      <tilted>0</tilted></_>
    <_>
      <rects>
        <_>
          27 36 26 4 -1.</_>
        <_>
          27 36 13 2 2.</_>
        <_>
          40 38 13 2 2.</_></rects>
      <tilted>0</tilted></_>
    <_>
      <rects>
        <_>
          28 0 38 12 -1.</_>
        <_>
          28 6 38 6 2.</_></rects>
      <tilted>0</tilted></_>
    <_>
      <rects>
        <_>
          28 19 10 3 -1.</_>
        <_>
          28 20 10 1 3.</_></rects>
      <tilted>0</tilted></_>
    <_>
      <rects>
        <_>
          28 25 6 14 -1.</_>
        <_>
          31 25 3 14 2.</_></rects>
      <tilted>0</tilted></_>
    <_>
      <rects>
        <_>
          28 31 17 9 -1.</_>
        <_>
          28 34 17 3 3.</_></rects>
      <tilted>0</tilted></_>
    <_>
      <rects>
        <_>
          29 19 8 3 -1.</_>
        <_>
          29 20 8 1 3.</_></rects>
      <tilted>0</tilted></_>
    <_>
      <rects>
        <_>
          29 20 23 3 -1.</_>
        <_>
          29 21 23 1 3.</_></rects>
      <tilted>0</tilted></_>
    <_>
      <rects>
        <_>
          29 24 20 9 -1.</_>
        <_>
          29 27 20 3 3.</_></rects>
      <tilted>0</tilted></_>
    <_>
      <rects>
        <_>
          29 24 23 15 -1.</_>
        <_>
          29 29 23 5 3.</_></rects>
      <tilted>0</tilted></_>
    <_>
      <rects>
        <_>
          30 0 16 12 -1.</_>
        <_>
          30 4 16 4 3.</_></rects>
      <tilted>0</tilted></_>
    <_>
      <rects>
        <_>
          30 0 23 6 -1.</_>
        <_>
          30 2 23 2 3.</_></rects>
      <tilted>0</tilted></_>
    <_>
      <rects>
        <_>
          30 14 50 6 -1.</_>
        <_>
          55 14 25 6 2.</_></rects>
      <tilted>0</tilted></_>
    <_>
      <rects>
        <_>
          30 25 23 3 -1.</_>
        <_>
          30 26 23 1 3.</_></rects>
      <tilted>0</tilted></_>
    <_>
      <rects>
        <_>
          31 12 12 6 -1.</_>
        <_>
          31 12 6 3 2.</_>
        <_>
          37 15 6 3 2.</_></rects>
      <tilted>0</tilted></_>
    <_>
      <rects>
        <_>
          31 15 1 3 -1.</_>
        <_>
          31 16 1 1 3.</_></rects>
      <tilted>0</tilted></_>
    <_>
      <rects>
        <_>
          31 15 3 8 -1.</_>
        <_>
          32 15 1 8 3.</_></rects>
      <tilted>0</tilted></_>
    <_>
      <rects>
        <_>
          31 20 2 6 -1.</_>
        <_>
          31 20 1 3 2.</_>
        <_>
          32 23 1 3 2.</_></rects>
      <tilted>0</tilted></_>
    <_>
      <rects>
        <_>
          31 24 23 3 -1.</_>
        <_>
          31 25 23 1 3.</_></rects>
      <tilted>0</tilted></_>
    <_>
      <rects>
        <_>
          31 34 18 6 -1.</_>
        <_>
          31 36 18 2 3.</_></rects>
      <tilted>0</tilted></_>
    <_>
      <rects>
        <_>
          32 18 9 3 -1.</_>
        <_>
          32 19 9 1 3.</_></rects>
      <tilted>0</tilted></_>
    <_>
      <rects>
        <_>
          32 18 20 3 -1.</_>
        <_>
          32 19 20 1 3.</_></rects>
      <tilted>0</tilted></_>
    <_>
      <rects>
        <_>
          32 19 15 20 -1.</_>
        <_>
          32 29 15 10 2.</_></rects>
      <tilted>0</tilted></_>
    <_>
      <rects>
        <_>
          32 19 33 3 -1.</_>
        <_>
          32 20 33 1 3.</_></rects>
      <tilted>0</tilted></_>
    <_>
      <rects>
        <_>
          32 20 1 3 -1.</_>
        <_>
          32 21 1 1 3.</_></rects>
      <tilted>0</tilted></_>
    <_>
      <rects>
        <_>
          32 20 14 3 -1.</_>
        <_>
          32 21 14 1 3.</_></rects>
      <tilted>0</tilted></_>
    <_>
      <rects>
        <_>
          32 20 23 3 -1.</_>
        <_>
          32 21 23 1 3.</_></rects>
      <tilted>0</tilted></_>
    <_>
      <rects>
        <_>
          32 23 9 3 -1.</_>
        <_>
          32 24 9 1 3.</_></rects>
      <tilted>0</tilted></_>
    <_>
      <rects>
        <_>
          32 31 6 6 -1.</_>
        <_>
          35 31 3 6 2.</_></rects>
      <tilted>0</tilted></_>
    <_>
      <rects>
        <_>
          32 36 18 3 -1.</_>
        <_>
          32 37 18 1 3.</_></rects>
      <tilted>0</tilted></_>
    <_>
      <rects>
        <_>
          33 25 17 3 -1.</_>
        <_>
          33 26 17 1 3.</_></rects>
      <tilted>0</tilted></_>
    <_>
      <rects>
        <_>
          33 31 20 9 -1.</_>
        <_>
          33 34 20 3 3.</_></rects>
      <tilted>0</tilted></_>
    <_>
      <rects>
        <_>
          33 32 3 3 -1.</_>
        <_>
          33 33 3 1 3.</_></rects>
      <tilted>0</tilted></_>
    <_>
      <rects>
        <_>
          34 11 36 17 -1.</_>
        <_>
          52 11 18 17 2.</_></rects>
      <tilted>0</tilted></_>
    <_>
      <rects>
        <_>
          34 15 1 3 -1.</_>
        <_>
          34 16 1 1 3.</_></rects>
      <tilted>0</tilted></_>
    <_>
      <rects>
        <_>
          34 16 28 16 -1.</_>
        <_>
          34 24 28 8 2.</_></rects>
      <tilted>0</tilted></_>
    <_>
      <rects>
        <_>
          34 21 1 3 -1.</_>
        <_>
          34 22 1 1 3.</_></rects>
      <tilted>0</tilted></_>
    <_>
      <rects>
        <_>
          34 23 5 3 -1.</_>
        <_>
          34 24 5 1 3.</_></rects>
      <tilted>0</tilted></_>
    <_>
      <rects>
        <_>
          34 24 1 3 -1.</_>
        <_>
          34 25 1 1 3.</_></rects>
      <tilted>0</tilted></_>
    <_>
      <rects>
        <_>
          34 37 3 3 -1.</_>
        <_>
          34 38 3 1 3.</_></rects>
      <tilted>0</tilted></_>
    <_>
      <rects>
        <_>
          34 38 22 2 -1.</_>
        <_>
          34 39 22 1 2.</_></rects>
      <tilted>0</tilted></_>
    <_>
      <rects>
        <_>
          35 0 8 15 -1.</_>
        <_>
          35 5 8 5 3.</_></rects>
      <tilted>0</tilted></_>
    <_>
      <rects>
        <_>
          35 0 15 12 -1.</_>
        <_>
          35 4 15 4 3.</_></rects>
      <tilted>0</tilted></_>
    <_>
      <rects>
        <_>
          35 0 28 15 -1.</_>
        <_>
          35 5 28 5 3.</_></rects>
      <tilted>0</tilted></_>
    <_>
      <rects>
        <_>
          35 14 27 6 -1.</_>
        <_>
          35 16 27 2 3.</_></rects>
      <tilted>0</tilted></_>
    <_>
      <rects>
        <_>
          35 22 16 3 -1.</_>
        <_>
          35 23 16 1 3.</_></rects>
      <tilted>0</tilted></_>
    <_>
      <rects>
        <_>
          35 29 30 3 -1.</_>
        <_>
          35 30 30 1 3.</_></rects>
      <tilted>0</tilted></_>
    <_>
      <rects>
        <_>
          36 1 19 12 -1.</_>
        <_>
          36 5 19 4 3.</_></rects>
      <tilted>0</tilted></_>
    <_>
      <rects>
        <_>
          36 5 44 24 -1.</_>
        <_>
          58 5 22 24 2.</_></rects>
      <tilted>0</tilted></_>
    <_>
      <rects>
        <_>
          36 18 17 3 -1.</_>
        <_>
          36 19 17 1 3.</_></rects>
      <tilted>0</tilted></_>
    <_>
      <rects>
        <_>
          36 20 32 20 -1.</_>
        <_>
          36 20 16 10 2.</_>
        <_>
          52 30 16 10 2.</_></rects>
      <tilted>0</tilted></_>
    <_>
      <rects>
        <_>
          36 27 30 12 -1.</_>
        <_>
          36 31 30 4 3.</_></rects>
      <tilted>0</tilted></_>
    <_>
      <rects>
        <_>
          37 0 17 6 -1.</_>
        <_>
          37 2 17 2 3.</_></rects>
      <tilted>0</tilted></_>
    <_>
      <rects>
        <_>
          37 17 5 3 -1.</_>
        <_>
          37 18 5 1 3.</_></rects>
      <tilted>0</tilted></_>
    <_>
      <rects>
        <_>
          37 32 5 3 -1.</_>
        <_>
          37 33 5 1 3.</_></rects>
      <tilted>0</tilted></_>
    <_>
      <rects>
        <_>
          38 1 30 27 -1.</_>
        <_>
          53 1 15 27 2.</_></rects>
      <tilted>0</tilted></_>
    <_>
      <rects>
        <_>
          38 18 3 8 -1.</_>
        <_>
          39 18 1 8 3.</_></rects>
      <tilted>0</tilted></_>
    <_>
      <rects>
        <_>
          38 29 3 9 -1.</_>
        <_>
          39 29 1 9 3.</_></rects>
      <tilted>0</tilted></_>
    <_>
      <rects>
        <_>
          39 0 26 9 -1.</_>
        <_>
          39 3 26 3 3.</_></rects>
      <tilted>0</tilted></_>
    <_>
      <rects>
        <_>
          39 16 3 17 -1.</_>
        <_>
          40 16 1 17 3.</_></rects>
      <tilted>0</tilted></_>
    <_>
      <rects>
        <_>
          39 18 3 8 -1.</_>
        <_>
          40 18 1 8 3.</_></rects>
      <tilted>0</tilted></_>
    <_>
      <rects>
        <_>
          39 18 4 2 -1.</_>
        <_>
          39 18 2 1 2.</_>
        <_>
          41 19 2 1 2.</_></rects>
      <tilted>0</tilted></_>
    <_>
      <rects>
        <_>
          39 19 3 9 -1.</_>
        <_>
          40 19 1 9 3.</_></rects>
      <tilted>0</tilted></_>
    <_>
      <rects>
        <_>
          39 20 1 3 -1.</_>
        <_>
          39 21 1 1 3.</_></rects>
      <tilted>0</tilted></_>
    <_>
      <rects>
        <_>
          39 22 3 3 -1.</_>
        <_>
          40 22 1 3 3.</_></rects>
      <tilted>0</tilted></_>
    <_>
      <rects>
        <_>
          40 13 15 26 -1.</_>
        <_>
          45 13 5 26 3.</_></rects>
      <tilted>0</tilted></_>
    <_>
      <rects>
        <_>
          40 18 1 3 -1.</_>
        <_>
          40 19 1 1 3.</_></rects>
      <tilted>0</tilted></_>
    <_>
      <rects>
        <_>
          40 18 2 2 -1.</_>
        <_>
          40 18 1 1 2.</_>
        <_>
          41 19 1 1 2.</_></rects>
      <tilted>0</tilted></_>
    <_>
      <rects>
        <_>
          40 19 8 3 -1.</_>
        <_>
          40 20 8 1 3.</_></rects>
      <tilted>0</tilted></_>
    <_>
      <rects>
        <_>
          40 21 3 7 -1.</_>
        <_>
          41 21 1 7 3.</_></rects>
      <tilted>0</tilted></_>
    <_>
      <rects>
        <_>
          40 22 9 3 -1.</_>
        <_>
          40 23 9 1 3.</_></rects>
      <tilted>0</tilted></_>
    <_>
      <rects>
        <_>
          40 36 15 4 -1.</_>
        <_>
          40 38 15 2 2.</_></rects>
      <tilted>0</tilted></_>
    <_>
      <rects>
        <_>
          41 1 12 10 -1.</_>
        <_>
          45 1 4 10 3.</_></rects>
      <tilted>0</tilted></_>
    <_>
      <rects>
        <_>
          41 11 33 22 -1.</_>
        <_>
          52 11 11 22 3.</_></rects>
      <tilted>0</tilted></_>
    <_>
      <rects>
        <_>
          41 17 3 11 -1.</_>
        <_>
          42 17 1 11 3.</_></rects>
      <tilted>0</tilted></_>
    <_>
      <rects>
        <_>
          42 14 1 3 -1.</_>
        <_>
          42 15 1 1 3.</_></rects>
      <tilted>0</tilted></_>
    <_>
      <rects>
        <_>
          42 19 2 2 -1.</_>
        <_>
          42 19 1 1 2.</_>
        <_>
          43 20 1 1 2.</_></rects>
      <tilted>0</tilted></_>
    <_>
      <rects>
        <_>
          42 23 3 7 -1.</_>
        <_>
          43 23 1 7 3.</_></rects>
      <tilted>0</tilted></_>
    <_>
      <rects>
        <_>
          43 20 8 8 -1.</_>
        <_>
          43 20 4 4 2.</_>
        <_>
          47 24 4 4 2.</_></rects>
      <tilted>0</tilted></_>
    <_>
      <rects>
        <_>
          44 17 1 3 -1.</_>
        <_>
          44 18 1 1 3.</_></rects>
      <tilted>0</tilted></_>
    <_>
      <rects>
        <_>
          44 17 3 4 -1.</_>
        <_>
          45 17 1 4 3.</_></rects>
      <tilted>0</tilted></_>
    <_>
      <rects>
        <_>
          44 27 15 3 -1.</_>
        <_>
          44 28 15 1 3.</_></rects>
      <tilted>0</tilted></_>
    <_>
      <rects>
        <_>
          45 0 3 3 -1.</_>
        <_>
          45 1 3 1 3.</_></rects>
      <tilted>0</tilted></_>
    <_>
      <rects>
        <_>
          46 1 2 36 -1.</_>
        <_>
          46 13 2 12 3.</_></rects>
      <tilted>0</tilted></_>
    <_>
      <rects>
        <_>
          46 4 2 1 -1.</_>
        <_>
          47 4 1 1 2.</_></rects>
      <tilted>0</tilted></_>
    <_>
      <rects>
        <_>
          46 29 20 3 -1.</_>
        <_>
          46 30 20 1 3.</_></rects>
      <tilted>0</tilted></_>
    <_>
      <rects>
        <_>
          47 19 22 2 -1.</_>
        <_>
          58 19 11 2 2.</_></rects>
      <tilted>0</tilted></_>
    <_>
      <rects>
        <_>
          47 27 18 3 -1.</_>
        <_>
          47 28 18 1 3.</_></rects>
      <tilted>0</tilted></_>
    <_>
      <rects>
        <_>
          48 0 6 1 -1.</_>
        <_>
          51 0 3 1 2.</_></rects>
      <tilted>0</tilted></_>
    <_>
      <rects>
        <_>
          48 25 12 2 -1.</_>
        <_>
          48 25 6 1 2.</_>
        <_>
          54 26 6 1 2.</_></rects>
      <tilted>0</tilted></_>
    <_>
      <rects>
        <_>
          49 4 2 9 -1.</_>
        <_>
          49 7 2 3 3.</_></rects>
      <tilted>0</tilted></_>
    <_>
      <rects>
        <_>
          49 28 8 4 -1.</_>
        <_>
          49 30 8 2 2.</_></rects>
      <tilted>0</tilted></_>
    <_>
      <rects>
        <_>
          50 9 28 6 -1.</_>
        <_>
          64 9 14 6 2.</_></rects>
      <tilted>0</tilted></_>
    <_>
      <rects>
        <_>
          50 11 24 25 -1.</_>
        <_>
          62 11 12 25 2.</_></rects>
      <tilted>0</tilted></_>
    <_>
      <rects>
        <_>
          50 16 24 5 -1.</_>
        <_>
          62 16 12 5 2.</_></rects>
      <tilted>0</tilted></_>
    <_>
      <rects>
        <_>
          54 9 24 29 -1.</_>
        <_>
          62 9 8 29 3.</_></rects>
      <tilted>0</tilted></_>
    <_>
      <rects>
        <_>
          54 12 24 3 -1.</_>
        <_>
          66 12 12 3 2.</_></rects>
      <tilted>0</tilted></_>
    <_>
      <rects>
        <_>
          55 12 18 11 -1.</_>
        <_>
          61 12 6 11 3.</_></rects>
      <tilted>0</tilted></_>
    <_>
      <rects>
        <_>
          56 1 24 32 -1.</_>
        <_>
          64 1 8 32 3.</_></rects>
      <tilted>0</tilted></_>
    <_>
      <rects>
        <_>
          56 3 23 36 -1.</_>
        <_>
          56 21 23 18 2.</_></rects>
      <tilted>0</tilted></_>
    <_>
      <rects>
        <_>
          56 13 18 17 -1.</_>
        <_>
          65 13 9 17 2.</_></rects>
      <tilted>0</tilted></_>
    <_>
      <rects>
        <_>
          58 2 18 27 -1.</_>
        <_>
          67 2 9 27 2.</_></rects>
      <tilted>0</tilted></_>
    <_>
      <rects>
        <_>
          58 24 20 14 -1.</_>
        <_>
          68 24 10 14 2.</_></rects>
      <tilted>0</tilted></_>
    <_>
      <rects>
        <_>
          58 30 22 9 -1.</_>
        <_>
          69 30 11 9 2.</_></rects>
      <tilted>0</tilted></_>
    <_>
      <rects>
        <_>
          62 10 3 8 -1.</_>
        <_>
          63 10 1 8 3.</_></rects>
      <tilted>0</tilted></_>
    <_>
      <rects>
        <_>
          62 12 9 15 -1.</_>
        <_>
          65 12 3 15 3.</_></rects>
      <tilted>0</tilted></_>
    <_>
      <rects>
        <_>
          62 15 1 2 -1.</_>
        <_>
          62 16 1 1 2.</_></rects>
      <tilted>0</tilted></_>
    <_>
      <rects>
        <_>
          63 6 9 14 -1.</_>
        <_>
          66 6 3 14 3.</_></rects>
      <tilted>0</tilted></_>
    <_>
      <rects>
        <_>
          64 14 9 7 -1.</_>
        <_>
          67 14 3 7 3.</_></rects>
      <tilted>0</tilted></_>
    <_>
      <rects>
        <_>
          66 13 6 8 -1.</_>
        <_>
          68 13 2 8 3.</_></rects>
      <tilted>0</tilted></_>
    <_>
      <rects>
        <_>
          67 3 1 3 -1.</_>
        <_>
          67 4 1 1 3.</_></rects>
      <tilted>0</tilted></_>
    <_>
      <rects>
        <_>
          69 3 1 3 -1.</_>
        <_>
          69 4 1 1 3.</_></rects>
      <tilted>0</tilted></_>
    <_>
      <rects>
        <_>
          71 0 6 12 -1.</_>
        <_>
          71 0 3 6 2.</_>
        <_>
          74 6 3 6 2.</_></rects>
      <tilted>0</tilted></_>
    <_>
      <rects>
        <_>
          71 2 3 2 -1.</_>
        <_>
          72 2 1 2 3.</_></rects>
      <tilted>0</tilted></_>
    <_>
      <rects>
        <_>
          71 9 9 2 -1.</_>
        <_>
          71 10 9 1 2.</_></rects>
      <tilted>0</tilted></_>
    <_>
      <rects>
        <_>
          71 19 9 18 -1.</_>
        <_>
          71 25 9 6 3.</_></rects>
      <tilted>0</tilted></_>
    <_>
      <rects>
        <_>
          71 25 8 4 -1.</_>
        <_>
          75 25 4 4 2.</_></rects>
      <tilted>0</tilted></_>
    <_>
      <rects>
        <_>
          73 0 1 4 -1.</_>
        <_>
          73 2 1 2 2.</_></rects>
      <tilted>0</tilted></_>
    <_>
      <rects>
        <_>
          74 0 3 2 -1.</_>
        <_>
          75 0 1 2 3.</_></rects>
      <tilted>0</tilted></_>
    <_>
      <rects>
        <_>
          74 0 6 1 -1.</_>
        <_>
          77 0 3 1 2.</_></rects>
      <tilted>0</tilted></_>
    <_>
      <rects>
        <_>
          74 4 2 3 -1.</_>
        <_>
          74 5 2 1 3.</_></rects>
      <tilted>0</tilted></_>
    <_>
      <rects>
        <_>
          76 0 2 2 -1.</_>
        <_>
          77 0 1 2 2.</_></rects>
      <tilted>0</tilted></_>
    <_>
      <rects>
        <_>
          76 12 2 4 -1.</_>
        <_>
          76 14 2 2 2.</_></rects>
      <tilted>0</tilted></_>
    <_>
      <rects>
        <_>
          76 26 4 12 -1.</_>
        <_>
          76 26 2 6 2.</_>
        <_>
          78 32 2 6 2.</_></rects>
      <tilted>0</tilted></_>
    <_>
      <rects>
        <_>
          77 9 2 2 -1.</_>
        <_>
          77 9 1 1 2.</_>
        <_>
          78 10 1 1 2.</_></rects>
      <tilted>0</tilted></_>
    <_>
      <rects>
        <_>
          78 1 2 2 -1.</_>
        <_>
          78 2 2 1 2.</_></rects>
      <tilted>0</tilted></_>
    <_>
      <rects>
        <_>
          78 3 1 24 -1.</_>
        <_>
          78 11 1 8 3.</_></rects>
      <tilted>0</tilted></_>
    <_>
      <rects>
        <_>
          78 7 2 6 -1.</_>
        <_>
          79 7 1 6 2.</_></rects>
      <tilted>0</tilted></_>
    <_>
      <rects>
        <_>
          78 24 2 11 -1.</_>
        <_>
          79 24 1 11 2.</_></rects>
      <tilted>0</tilted></_>
    <_>
      <rects>
        <_>
          79 3 1 32 -1.</_>
        <_>
          79 19 1 16 2.</_></rects>
      <tilted>0</tilted></_>
    <_>
      <rects>
        <_>
          79 5 1 9 -1.</_>
        <_>
          79 8 1 3 3.</_></rects>
      <tilted>0</tilted></_></features></cascade>
</opencv_storage>
