<?xml version="1.0"?>
<opencv_storage>
<cascade>
  <stageType>BOOST</stageType>
  <featureType>HAAR</featureType>
  <height>72</height>
  <width>127</width>
  <stageParams>
    <boostType>RAB</boostType>
    <minHitRate>9.9900001287460327e-01</minHitRate>
    <maxFalseAlarm>5.0000000000000000e-01</maxFalseAlarm>
    <weightTrimRate>9.4999999999999996e-01</weightTrimRate>
    <maxDepth>1</maxDepth>
    <maxWeakCount>100</maxWeakCount></stageParams>
  <featureParams>
    <maxCatCount>0</maxCatCount>
    <featSize>1</featSize>
    <mode>BASIC</mode></featureParams>
  <stageNum>12</stageNum>
  <stages>
    <!-- stage 0 -->
    <_>
      <maxWeakCount>8</maxWeakCount>
      <stageThreshold>-2.0733122825622559e+00</stageThreshold>
      <weakClassifiers>
        <_>
          <internalNodes>
            0 -1 30 -1.2195470742881298e-02</internalNodes>
          <leafValues>
            -1.0199379920959473e+00 1.0511629581451416e+00</leafValues></_>
        <_>
          <internalNodes>
            0 -1 65 2.1771174215245992e-04</internalNodes>
          <leafValues>
            -2.7894535660743713e-01 1.4456394910812378e+00</leafValues></_>
        <_>
          <internalNodes>
            0 -1 63 9.3633076176047325e-04</internalNodes>
          <leafValues>
            2.0849950611591339e-01 -1.4723941087722778e+00</leafValues></_>
        <_>
          <internalNodes>
            0 -1 16 -1.5217314660549164e-01</internalNodes>
          <leafValues>
            -2.0288758277893066e+00 2.9840204119682312e-01</leafValues></_>
        <_>
          <internalNodes>
            0 -1 86 -3.2156356610357761e-04</internalNodes>
          <leafValues>
            -6.8344974517822266e-01 3.4974092245101929e-01</leafValues></_>
        <_>
          <internalNodes>
            0 -1 32 1.6208363231271505e-03</internalNodes>
          <leafValues>
            1.4076952636241913e-01 -1.1237599849700928e+00</leafValues></_>
        <_>
          <internalNodes>
            0 -1 47 1.3160558417439461e-02</internalNodes>
          <leafValues>
            1.9792990386486053e-01 -9.7046071290969849e-01</leafValues></_>
        <_>
          <internalNodes>
            0 -1 85 -2.1539413137361407e-04</internalNodes>
          <leafValues>
            -4.8756939172744751e-01 3.5750696063041687e-01</leafValues></_></weakClassifiers></_>
    <!-- stage 1 -->
    <_>
      <maxWeakCount>9</maxWeakCount>
      <stageThreshold>-1.7121694087982178e+00</stageThreshold>
      <weakClassifiers>
        <_>
          <internalNodes>
            0 -1 69 4.3059379095211625e-05</internalNodes>
          <leafValues>
            -5.2148050069808960e-01 2.5445692539215088e+00</leafValues></_>
        <_>
          <internalNodes>
            0 -1 21 -9.0068012475967407e-02</internalNodes>
          <leafValues>
            -6.6308152675628662e-01 4.9697551131248474e-01</leafValues></_>
        <_>
          <internalNodes>
            0 -1 20 1.2193720787763596e-02</internalNodes>
          <leafValues>
            4.2081412672996521e-01 -7.9909551143646240e-01</leafValues></_>
        <_>
          <internalNodes>
            0 -1 9 -1.3315589725971222e-01</internalNodes>
          <leafValues>
            -7.5932359695434570e-01 3.1060555577278137e-01</leafValues></_>
        <_>
          <internalNodes>
            0 -1 34 -1.3820829335600138e-03</internalNodes>
          <leafValues>
            -6.8553805351257324e-01 2.7059692144393921e-01</leafValues></_>
        <_>
          <internalNodes>
            0 -1 78 2.0686835050582886e-03</internalNodes>
          <leafValues>
            1.4685988426208496e-01 -1.0601923465728760e+00</leafValues></_>
        <_>
          <internalNodes>
            0 -1 43 -8.5578057914972305e-03</internalNodes>
          <leafValues>
            -7.9707348346710205e-01 2.2295378148555756e-01</leafValues></_>
        <_>
          <internalNodes>
            0 -1 52 3.1839055009186268e-03</internalNodes>
          <leafValues>
            2.0664837956428528e-01 -9.8168933391571045e-01</leafValues></_>
        <_>
          <internalNodes>
            0 -1 74 -4.6022650785744190e-03</internalNodes>
          <leafValues>
            -1.5514886379241943e+00 1.5218080580234528e-01</leafValues></_></weakClassifiers></_>
    <!-- stage 2 -->
    <_>
      <maxWeakCount>11</maxWeakCount>
      <stageThreshold>-1.8004269599914551e+00</stageThreshold>
      <weakClassifiers>
        <_>
          <internalNodes>
            0 -1 56 -4.0008997893892229e-04</internalNodes>
          <leafValues>
            2.3464379310607910e+00 -5.2909642457962036e-01</leafValues></_>
        <_>
          <internalNodes>
            0 -1 53 -5.0238817930221558e-02</internalNodes>
          <leafValues>
            -8.6437493562698364e-01 4.2423611879348755e-01</leafValues></_>
        <_>
          <internalNodes>
            0 -1 61 -6.6641741432249546e-04</internalNodes>
          <leafValues>
            -3.6466288566589355e-01 5.1857781410217285e-01</leafValues></_>
        <_>
          <internalNodes>
            0 -1 15 -2.4230714887380600e-02</internalNodes>
          <leafValues>
            -5.7364928722381592e-01 3.0403625965118408e-01</leafValues></_>
        <_>
          <internalNodes>
            0 -1 24 5.3319651633501053e-03</internalNodes>
          <leafValues>
            3.4207013249397278e-01 -7.3486500978469849e-01</leafValues></_>
        <_>
          <internalNodes>
            0 -1 8 -8.2442291080951691e-02</internalNodes>
          <leafValues>
            -8.9700478315353394e-01 1.4595164358615875e-01</leafValues></_>
        <_>
          <internalNodes>
            0 -1 77 1.3210483593866229e-03</internalNodes>
          <leafValues>
            3.9903756976127625e-01 -5.7120531797409058e-01</leafValues></_>
        <_>
          <internalNodes>
            0 -1 87 -7.8952696640044451e-05</internalNodes>
          <leafValues>
            -5.5831164121627808e-01 3.1424903869628906e-01</leafValues></_>
        <_>
          <internalNodes>
            0 -1 48 -4.6836146793793887e-05</internalNodes>
          <leafValues>
            -5.1153475046157837e-01 3.5083734989166260e-01</leafValues></_>
        <_>
          <internalNodes>
            0 -1 68 -1.3397126458585262e-03</internalNodes>
          <leafValues>
            6.7919069528579712e-01 -2.6345461606979370e-01</leafValues></_>
        <_>
          <internalNodes>
            0 -1 19 1.9926473498344421e-02</internalNodes>
          <leafValues>
            3.2596671581268311e-01 -6.4903813600540161e-01</leafValues></_></weakClassifiers></_>
    <!-- stage 3 -->
    <_>
      <maxWeakCount>12</maxWeakCount>
      <stageThreshold>-1.7317274808883667e+00</stageThreshold>
      <weakClassifiers>
        <_>
          <internalNodes>
            0 -1 28 5.7957889512181282e-03</internalNodes>
          <leafValues>
            -5.4326379299163818e-01 1.9689203500747681e+00</leafValues></_>
        <_>
          <internalNodes>
            0 -1 33 -3.9047658443450928e-02</internalNodes>
          <leafValues>
            -5.4748892784118652e-01 4.9225887656211853e-01</leafValues></_>
        <_>
          <internalNodes>
            0 -1 23 7.1402085013687611e-03</internalNodes>
          <leafValues>
            2.4994297325611115e-01 -8.9151543378829956e-01</leafValues></_>
        <_>
          <internalNodes>
            0 -1 97 -5.8277855714550242e-06</internalNodes>
          <leafValues>
            -5.2545911073684692e-01 2.6894748210906982e-01</leafValues></_>
        <_>
          <internalNodes>
            0 -1 14 -1.0798020521178842e-03</internalNodes>
          <leafValues>
            7.2170597314834595e-01 -2.2712963819503784e-01</leafValues></_>
        <_>
          <internalNodes>
            0 -1 42 5.2977218292653561e-03</internalNodes>
          <leafValues>
            -1.8345741927623749e-01 9.7831028699874878e-01</leafValues></_>
        <_>
          <internalNodes>
            0 -1 40 1.0180741810472682e-05</internalNodes>
          <leafValues>
            3.2901528477668762e-01 -6.7684549093246460e-01</leafValues></_>
        <_>
          <internalNodes>
            0 -1 3 5.4811425507068634e-03</internalNodes>
          <leafValues>
            -3.4119039773941040e-01 5.9133183956146240e-01</leafValues></_>
        <_>
          <internalNodes>
            0 -1 72 8.0970413982868195e-03</internalNodes>
          <leafValues>
            2.7538692951202393e-01 -1.1314852237701416e+00</leafValues></_>
        <_>
          <internalNodes>
            0 -1 25 6.9243775214999914e-04</internalNodes>
          <leafValues>
            3.8778048753738403e-01 -5.7059061527252197e-01</leafValues></_>
        <_>
          <internalNodes>
            0 -1 54 2.7164374478161335e-03</internalNodes>
          <leafValues>
            -2.6683768630027771e-01 9.3606579303741455e-01</leafValues></_>
        <_>
          <internalNodes>
            0 -1 60 4.9828756600618362e-03</internalNodes>
          <leafValues>
            4.1992023587226868e-01 -7.6630848646163940e-01</leafValues></_></weakClassifiers></_>
    <!-- stage 4 -->
    <_>
      <maxWeakCount>13</maxWeakCount>
      <stageThreshold>-1.4698772430419922e+00</stageThreshold>
      <weakClassifiers>
        <_>
          <internalNodes>
            0 -1 13 -4.2597614228725433e-03</internalNodes>
          <leafValues>
            5.7564578056335449e+00 -5.4681235551834106e-01</leafValues></_>
        <_>
          <internalNodes>
            0 -1 41 9.7358715720474720e-04</internalNodes>
          <leafValues>
            2.9844194650650024e-01 -6.4371597766876221e-01</leafValues></_>
        <_>
          <internalNodes>
            0 -1 62 -6.0700415633618832e-03</internalNodes>
          <leafValues>
            -8.8468736410140991e-01 2.5385794043540955e-01</leafValues></_>
        <_>
          <internalNodes>
            0 -1 57 -6.6880295053124428e-03</internalNodes>
          <leafValues>
            9.0962767601013184e-01 -2.6127207279205322e-01</leafValues></_>
        <_>
          <internalNodes>
            0 -1 38 3.8164129946380854e-03</internalNodes>
          <leafValues>
            -2.5624847412109375e-01 1.1750535964965820e+00</leafValues></_>
        <_>
          <internalNodes>
            0 -1 49 -4.2606829083524644e-05</internalNodes>
          <leafValues>
            -4.0554919838905334e-01 6.0710597038269043e-01</leafValues></_>
        <_>
          <internalNodes>
            0 -1 73 -8.4470484580378979e-05</internalNodes>
          <leafValues>
            4.5985150337219238e-01 -5.2183711528778076e-01</leafValues></_>
        <_>
          <internalNodes>
            0 -1 90 5.9992260503349826e-05</internalNodes>
          <leafValues>
            3.7441581487655640e-01 -6.8546503782272339e-01</leafValues></_>
        <_>
          <internalNodes>
            0 -1 66 -4.7395047731697559e-03</internalNodes>
          <leafValues>
            2.0808513164520264e+00 -2.1585382521152496e-01</leafValues></_>
        <_>
          <internalNodes>
            0 -1 80 -8.8457175297662616e-04</internalNodes>
          <leafValues>
            -6.1141741275787354e-01 4.0448445081710815e-01</leafValues></_>
        <_>
          <internalNodes>
            0 -1 58 2.7834505308419466e-03</internalNodes>
          <leafValues>
            -3.4588545560836792e-01 9.1847932338714600e-01</leafValues></_>
        <_>
          <internalNodes>
            0 -1 94 -8.6373405065387487e-04</internalNodes>
          <leafValues>
            -6.9782555103302002e-01 4.0531033277511597e-01</leafValues></_>
        <_>
          <internalNodes>
            0 -1 37 -2.0573571964632720e-04</internalNodes>
          <leafValues>
            -6.1218357086181641e-01 4.8441988229751587e-01</leafValues></_></weakClassifiers></_>
    <!-- stage 5 -->
    <_>
      <maxWeakCount>10</maxWeakCount>
      <stageThreshold>-2.8392555713653564e+00</stageThreshold>
      <weakClassifiers>
        <_>
          <internalNodes>
            0 -1 59 6.9238292053341866e-04</internalNodes>
          <leafValues>
            -7.4361014366149902e-01 5.7564578056335449e+00</leafValues></_>
        <_>
          <internalNodes>
            0 -1 96 1.0387526572230854e-06</internalNodes>
          <leafValues>
            9.0078532695770264e-01 -4.9940592050552368e-01</leafValues></_>
        <_>
          <internalNodes>
            0 -1 12 -1.2589015532284975e-03</internalNodes>
          <leafValues>
            -7.8874897956848145e-01 6.6705536842346191e-01</leafValues></_>
        <_>
          <internalNodes>
            0 -1 27 6.1914171965327114e-05</internalNodes>
          <leafValues>
            9.0808171033859253e-01 -7.1076238155364990e-01</leafValues></_>
        <_>
          <internalNodes>
            0 -1 98 -7.6321737196849426e-07</internalNodes>
          <leafValues>
            1.4083530902862549e+00 -6.3370525836944580e-01</leafValues></_>
        <_>
          <internalNodes>
            0 -1 7 1.6386218703701161e-05</internalNodes>
          <leafValues>
            5.7564578056335449e+00 -6.1804139614105225e-01</leafValues></_>
        <_>
          <internalNodes>
            0 -1 83 7.2843267116695642e-04</internalNodes>
          <leafValues>
            1.6254109144210815e+00 -2.1791474819183350e+00</leafValues></_>
        <_>
          <internalNodes>
            0 -1 84 3.1833368120715022e-04</internalNodes>
          <leafValues>
            -1.5638879537582397e+00 5.7564578056335449e+00</leafValues></_>
        <_>
          <internalNodes>
            0 -1 6 1.1302730068564415e-02</internalNodes>
          <leafValues>
            5.7564578056335449e+00 -5.7564578056335449e+00</leafValues></_>
        <_>
          <internalNodes>
            0 -1 5 5.4119052365422249e-03</internalNodes>
          <leafValues>
            -5.7564578056335449e+00 5.7564578056335449e+00</leafValues></_></weakClassifiers></_>
    <!-- stage 6 -->
    <_>
      <maxWeakCount>100</maxWeakCount>
      <stageThreshold>-8.0870218276977539e+00</stageThreshold>
      <weakClassifiers>
        <_>
          <internalNodes>
            0 -1 81 -1.3350032531889156e-05</internalNodes>
          <leafValues>
            -9.2258012294769287e-01 5.7564578056335449e+00</leafValues></_>
        <_>
          <internalNodes>
            0 -1 95 4.0354134398512542e-05</internalNodes>
          <leafValues>
            9.9246108531951904e-01 -5.9801721572875977e-01</leafValues></_>
        <_>
          <internalNodes>
            0 -1 71 7.6096085831522942e-04</internalNodes>
          <leafValues>
            7.6630979776382446e-01 -7.9406070709228516e-01</leafValues></_>
        <_>
          <internalNodes>
            0 -1 92 2.4202311760745943e-04</internalNodes>
          <leafValues>
            8.7833642959594727e-01 -9.3848645687103271e-01</leafValues></_>
        <_>
          <internalNodes>
            0 -1 88 -4.3095638829981908e-05</internalNodes>
          <leafValues>
            -7.0024454593658447e-01 5.7564578056335449e+00</leafValues></_>
        <_>
          <internalNodes>
            0 -1 4 3.2974363421089947e-04</internalNodes>
          <leafValues>
            5.7564578056335449e+00 -5.7564578056335449e+00</leafValues></_>
        <_>
          <internalNodes>
            0 -1 2 -3.3635960426181555e-04</internalNodes>
          <leafValues>
            5.7564578056335449e+00 -5.7564578056335449e+00</leafValues></_>
        <_>
          <internalNodes>
            0 -1 1 -2.4215221856138669e-05</internalNodes>
          <leafValues>
            -5.7564578056335449e+00 5.7564578056335449e+00</leafValues></_>
        <_>
          <internalNodes>
            0 -1 0 -1.8481479855836369e-05</internalNodes>
          <leafValues>
            5.7564578056335449e+00 -5.7564578056335449e+00</leafValues></_>
        <_>
          <internalNodes>
            0 -1 0 -2.2823391191195697e-05</internalNodes>
          <leafValues>
            -5.7564578056335449e+00 5.7564578056335449e+00</leafValues></_>
        <_>
          <internalNodes>
            0 -1 0 -1.8481479855836369e-05</internalNodes>
          <leafValues>
            5.7564578056335449e+00 -5.7564578056335449e+00</leafValues></_>
        <_>
          <internalNodes>
            0 -1 0 -2.2823391191195697e-05</internalNodes>
          <leafValues>
            -5.7564578056335449e+00 5.7564578056335449e+00</leafValues></_>
        <_>
          <internalNodes>
            0 -1 0 -1.8481479855836369e-05</internalNodes>
          <leafValues>
            5.7564578056335449e+00 -5.7564578056335449e+00</leafValues></_>
        <_>
          <internalNodes>
            0 -1 0 -2.2823391191195697e-05</internalNodes>
          <leafValues>
            -5.7564578056335449e+00 5.7564578056335449e+00</leafValues></_>
        <_>
          <internalNodes>
            0 -1 0 -1.8481479855836369e-05</internalNodes>
          <leafValues>
            5.7564578056335449e+00 -5.7564578056335449e+00</leafValues></_>
        <_>
          <internalNodes>
            0 -1 0 -2.2823391191195697e-05</internalNodes>
          <leafValues>
            -5.7564578056335449e+00 5.7564578056335449e+00</leafValues></_>
        <_>
          <internalNodes>
            0 -1 0 -1.8481479855836369e-05</internalNodes>
          <leafValues>
            5.7564578056335449e+00 -5.7564578056335449e+00</leafValues></_>
        <_>
          <internalNodes>
            0 -1 0 -2.2823391191195697e-05</internalNodes>
          <leafValues>
            -5.7564578056335449e+00 5.7564578056335449e+00</leafValues></_>
        <_>
          <internalNodes>
            0 -1 0 -1.8481479855836369e-05</internalNodes>
          <leafValues>
            5.7564578056335449e+00 -5.7564578056335449e+00</leafValues></_>
        <_>
          <internalNodes>
            0 -1 0 -2.2823391191195697e-05</internalNodes>
          <leafValues>
            -5.7564578056335449e+00 5.7564578056335449e+00</leafValues></_>
        <_>
          <internalNodes>
            0 -1 0 -1.8481479855836369e-05</internalNodes>
          <leafValues>
            5.7564578056335449e+00 -5.7564578056335449e+00</leafValues></_>
        <_>
          <internalNodes>
            0 -1 0 -2.2823391191195697e-05</internalNodes>
          <leafValues>
            -5.7564578056335449e+00 5.7564578056335449e+00</leafValues></_>
        <_>
          <internalNodes>
            0 -1 0 -1.8481479855836369e-05</internalNodes>
          <leafValues>
            5.7564578056335449e+00 -5.7564578056335449e+00</leafValues></_>
        <_>
          <internalNodes>
            0 -1 0 -2.2823391191195697e-05</internalNodes>
          <leafValues>
            -5.7564578056335449e+00 5.7564578056335449e+00</leafValues></_>
        <_>
          <internalNodes>
            0 -1 0 -1.8481479855836369e-05</internalNodes>
          <leafValues>
            5.7564578056335449e+00 -5.7564578056335449e+00</leafValues></_>
        <_>
          <internalNodes>
            0 -1 0 -2.2823391191195697e-05</internalNodes>
          <leafValues>
            -5.7564578056335449e+00 5.7564578056335449e+00</leafValues></_>
        <_>
          <internalNodes>
            0 -1 0 -1.8481479855836369e-05</internalNodes>
          <leafValues>
            5.7564578056335449e+00 -5.7564578056335449e+00</leafValues></_>
        <_>
          <internalNodes>
            0 -1 0 -2.2823391191195697e-05</internalNodes>
          <leafValues>
            -5.7564578056335449e+00 5.7564578056335449e+00</leafValues></_>
        <_>
          <internalNodes>
            0 -1 0 -1.8481479855836369e-05</internalNodes>
          <leafValues>
            5.7564578056335449e+00 -5.7564578056335449e+00</leafValues></_>
        <_>
          <internalNodes>
            0 -1 0 -2.2823391191195697e-05</internalNodes>
          <leafValues>
            -5.7564578056335449e+00 5.7564578056335449e+00</leafValues></_>
        <_>
          <internalNodes>
            0 -1 0 -1.8481479855836369e-05</internalNodes>
          <leafValues>
            5.7564578056335449e+00 -5.7564578056335449e+00</leafValues></_>
        <_>
          <internalNodes>
            0 -1 0 -2.2823391191195697e-05</internalNodes>
          <leafValues>
            -5.7564578056335449e+00 5.7564578056335449e+00</leafValues></_>
        <_>
          <internalNodes>
            0 -1 0 -1.8481479855836369e-05</internalNodes>
          <leafValues>
            5.7564578056335449e+00 -5.7564578056335449e+00</leafValues></_>
        <_>
          <internalNodes>
            0 -1 0 -2.2823391191195697e-05</internalNodes>
          <leafValues>
            -5.7564578056335449e+00 5.7564578056335449e+00</leafValues></_>
        <_>
          <internalNodes>
            0 -1 0 -1.8481479855836369e-05</internalNodes>
          <leafValues>
            5.7564578056335449e+00 -5.7564578056335449e+00</leafValues></_>
        <_>
          <internalNodes>
            0 -1 0 -2.2823391191195697e-05</internalNodes>
          <leafValues>
            -5.7564578056335449e+00 5.7564578056335449e+00</leafValues></_>
        <_>
          <internalNodes>
            0 -1 0 -1.8481479855836369e-05</internalNodes>
          <leafValues>
            5.7564578056335449e+00 -5.7564578056335449e+00</leafValues></_>
        <_>
          <internalNodes>
            0 -1 0 -2.2823391191195697e-05</internalNodes>
          <leafValues>
            -5.7564578056335449e+00 5.7564578056335449e+00</leafValues></_>
        <_>
          <internalNodes>
            0 -1 0 -1.8481479855836369e-05</internalNodes>
          <leafValues>
            5.7564578056335449e+00 -5.7564578056335449e+00</leafValues></_>
        <_>
          <internalNodes>
            0 -1 0 -2.2823391191195697e-05</internalNodes>
          <leafValues>
            -5.7564578056335449e+00 5.7564578056335449e+00</leafValues></_>
        <_>
          <internalNodes>
            0 -1 0 -1.8481479855836369e-05</internalNodes>
          <leafValues>
            5.7564578056335449e+00 -5.7564578056335449e+00</leafValues></_>
        <_>
          <internalNodes>
            0 -1 0 -2.2823391191195697e-05</internalNodes>
          <leafValues>
            -5.7564578056335449e+00 5.7564578056335449e+00</leafValues></_>
        <_>
          <internalNodes>
            0 -1 0 -1.8481479855836369e-05</internalNodes>
          <leafValues>
            5.7564578056335449e+00 -5.7564578056335449e+00</leafValues></_>
        <_>
          <internalNodes>
            0 -1 0 -2.2823391191195697e-05</internalNodes>
          <leafValues>
            -5.7564578056335449e+00 5.7564578056335449e+00</leafValues></_>
        <_>
          <internalNodes>
            0 -1 0 -1.8481479855836369e-05</internalNodes>
          <leafValues>
            5.7564578056335449e+00 -5.7564578056335449e+00</leafValues></_>
        <_>
          <internalNodes>
            0 -1 0 -2.2823391191195697e-05</internalNodes>
          <leafValues>
            -5.7564578056335449e+00 5.7564578056335449e+00</leafValues></_>
        <_>
          <internalNodes>
            0 -1 0 -1.8481479855836369e-05</internalNodes>
          <leafValues>
            5.7564578056335449e+00 -5.7564578056335449e+00</leafValues></_>
        <_>
          <internalNodes>
            0 -1 0 -2.2823391191195697e-05</internalNodes>
          <leafValues>
            -5.7564578056335449e+00 5.7564578056335449e+00</leafValues></_>
        <_>
          <internalNodes>
            0 -1 0 -1.8481479855836369e-05</internalNodes>
          <leafValues>
            5.7564578056335449e+00 -5.7564578056335449e+00</leafValues></_>
        <_>
          <internalNodes>
            0 -1 0 -2.2823391191195697e-05</internalNodes>
          <leafValues>
            -5.7564578056335449e+00 5.7564578056335449e+00</leafValues></_>
        <_>
          <internalNodes>
            0 -1 0 -1.8481479855836369e-05</internalNodes>
          <leafValues>
            5.7564578056335449e+00 -5.7564578056335449e+00</leafValues></_>
        <_>
          <internalNodes>
            0 -1 0 -2.2823391191195697e-05</internalNodes>
          <leafValues>
            -5.7564578056335449e+00 5.7564578056335449e+00</leafValues></_>
        <_>
          <internalNodes>
            0 -1 0 -1.8481479855836369e-05</internalNodes>
          <leafValues>
            5.7564578056335449e+00 -5.7564578056335449e+00</leafValues></_>
        <_>
          <internalNodes>
            0 -1 0 -2.2823391191195697e-05</internalNodes>
          <leafValues>
            -5.7564578056335449e+00 5.7564578056335449e+00</leafValues></_>
        <_>
          <internalNodes>
            0 -1 0 -1.8481479855836369e-05</internalNodes>
          <leafValues>
            5.7564578056335449e+00 -5.7564578056335449e+00</leafValues></_>
        <_>
          <internalNodes>
            0 -1 0 -2.2823391191195697e-05</internalNodes>
          <leafValues>
            -5.7564578056335449e+00 5.7564578056335449e+00</leafValues></_>
        <_>
          <internalNodes>
            0 -1 0 -1.8481479855836369e-05</internalNodes>
          <leafValues>
            5.7564578056335449e+00 -5.7564578056335449e+00</leafValues></_>
        <_>
          <internalNodes>
            0 -1 0 -2.2823391191195697e-05</internalNodes>
          <leafValues>
            -5.7564578056335449e+00 5.7564578056335449e+00</leafValues></_>
        <_>
          <internalNodes>
            0 -1 0 -1.8481479855836369e-05</internalNodes>
          <leafValues>
            5.7564578056335449e+00 -5.7564578056335449e+00</leafValues></_>
        <_>
          <internalNodes>
            0 -1 0 -2.2823391191195697e-05</internalNodes>
          <leafValues>
            -5.7564578056335449e+00 5.7564578056335449e+00</leafValues></_>
        <_>
          <internalNodes>
            0 -1 0 -1.8481479855836369e-05</internalNodes>
          <leafValues>
            5.7564578056335449e+00 -5.7564578056335449e+00</leafValues></_>
        <_>
          <internalNodes>
            0 -1 0 -2.2823391191195697e-05</internalNodes>
          <leafValues>
            -5.7564578056335449e+00 5.7564578056335449e+00</leafValues></_>
        <_>
          <internalNodes>
            0 -1 0 -1.8481479855836369e-05</internalNodes>
          <leafValues>
            5.7564578056335449e+00 -5.7564578056335449e+00</leafValues></_>
        <_>
          <internalNodes>
            0 -1 0 -2.2823391191195697e-05</internalNodes>
          <leafValues>
            -5.7564578056335449e+00 5.7564578056335449e+00</leafValues></_>
        <_>
          <internalNodes>
            0 -1 0 -1.8481479855836369e-05</internalNodes>
          <leafValues>
            5.7564578056335449e+00 -5.7564578056335449e+00</leafValues></_>
        <_>
          <internalNodes>
            0 -1 0 -2.2823391191195697e-05</internalNodes>
          <leafValues>
            -5.7564578056335449e+00 5.7564578056335449e+00</leafValues></_>
        <_>
          <internalNodes>
            0 -1 0 -1.8481479855836369e-05</internalNodes>
          <leafValues>
            5.7564578056335449e+00 -5.7564578056335449e+00</leafValues></_>
        <_>
          <internalNodes>
            0 -1 0 -2.2823391191195697e-05</internalNodes>
          <leafValues>
            -5.7564578056335449e+00 5.7564578056335449e+00</leafValues></_>
        <_>
          <internalNodes>
            0 -1 0 -1.8481479855836369e-05</internalNodes>
          <leafValues>
            5.7564578056335449e+00 -5.7564578056335449e+00</leafValues></_>
        <_>
          <internalNodes>
            0 -1 0 -2.2823391191195697e-05</internalNodes>
          <leafValues>
            -5.7564578056335449e+00 5.7564578056335449e+00</leafValues></_>
        <_>
          <internalNodes>
            0 -1 0 -1.8481479855836369e-05</internalNodes>
          <leafValues>
            5.7564578056335449e+00 -5.7564578056335449e+00</leafValues></_>
        <_>
          <internalNodes>
            0 -1 0 -2.2823391191195697e-05</internalNodes>
          <leafValues>
            -5.7564578056335449e+00 5.7564578056335449e+00</leafValues></_>
        <_>
          <internalNodes>
            0 -1 0 -1.8481479855836369e-05</internalNodes>
          <leafValues>
            5.7564578056335449e+00 -5.7564578056335449e+00</leafValues></_>
        <_>
          <internalNodes>
            0 -1 0 -2.2823391191195697e-05</internalNodes>
          <leafValues>
            -5.7564578056335449e+00 5.7564578056335449e+00</leafValues></_>
        <_>
          <internalNodes>
            0 -1 0 -1.8481479855836369e-05</internalNodes>
          <leafValues>
            5.7564578056335449e+00 -5.7564578056335449e+00</leafValues></_>
        <_>
          <internalNodes>
            0 -1 0 -2.2823391191195697e-05</internalNodes>
          <leafValues>
            -5.7564578056335449e+00 5.7564578056335449e+00</leafValues></_>
        <_>
          <internalNodes>
            0 -1 0 -1.8481479855836369e-05</internalNodes>
          <leafValues>
            5.7564578056335449e+00 -5.7564578056335449e+00</leafValues></_>
        <_>
          <internalNodes>
            0 -1 0 -2.2823391191195697e-05</internalNodes>
          <leafValues>
            -5.7564578056335449e+00 5.7564578056335449e+00</leafValues></_>
        <_>
          <internalNodes>
            0 -1 0 -1.8481479855836369e-05</internalNodes>
          <leafValues>
            5.7564578056335449e+00 -5.7564578056335449e+00</leafValues></_>
        <_>
          <internalNodes>
            0 -1 0 -2.2823391191195697e-05</internalNodes>
          <leafValues>
            -5.7564578056335449e+00 5.7564578056335449e+00</leafValues></_>
        <_>
          <internalNodes>
            0 -1 0 -1.8481479855836369e-05</internalNodes>
          <leafValues>
            5.7564578056335449e+00 -5.7564578056335449e+00</leafValues></_>
        <_>
          <internalNodes>
            0 -1 0 -2.2823391191195697e-05</internalNodes>
          <leafValues>
            -5.7564578056335449e+00 5.7564578056335449e+00</leafValues></_>
        <_>
          <internalNodes>
            0 -1 0 -1.8481479855836369e-05</internalNodes>
          <leafValues>
            5.7564578056335449e+00 -5.7564578056335449e+00</leafValues></_>
        <_>
          <internalNodes>
            0 -1 0 -2.2823391191195697e-05</internalNodes>
          <leafValues>
            -5.7564578056335449e+00 5.7564578056335449e+00</leafValues></_>
        <_>
          <internalNodes>
            0 -1 0 -1.8481479855836369e-05</internalNodes>
          <leafValues>
            5.7564578056335449e+00 -5.7564578056335449e+00</leafValues></_>
        <_>
          <internalNodes>
            0 -1 0 -2.2823391191195697e-05</internalNodes>
          <leafValues>
            -5.7564578056335449e+00 5.7564578056335449e+00</leafValues></_>
        <_>
          <internalNodes>
            0 -1 0 -1.8481479855836369e-05</internalNodes>
          <leafValues>
            5.7564578056335449e+00 -5.7564578056335449e+00</leafValues></_>
        <_>
          <internalNodes>
            0 -1 0 -2.2823391191195697e-05</internalNodes>
          <leafValues>
            -5.7564578056335449e+00 5.7564578056335449e+00</leafValues></_>
        <_>
          <internalNodes>
            0 -1 0 -1.8481479855836369e-05</internalNodes>
          <leafValues>
            5.7564578056335449e+00 -5.7564578056335449e+00</leafValues></_>
        <_>
          <internalNodes>
            0 -1 0 -2.2823391191195697e-05</internalNodes>
          <leafValues>
            -5.7564578056335449e+00 5.7564578056335449e+00</leafValues></_>
        <_>
          <internalNodes>
            0 -1 0 -1.8481479855836369e-05</internalNodes>
          <leafValues>
            5.7564578056335449e+00 -5.7564578056335449e+00</leafValues></_>
        <_>
          <internalNodes>
            0 -1 0 -2.2823391191195697e-05</internalNodes>
          <leafValues>
            -5.7564578056335449e+00 5.7564578056335449e+00</leafValues></_>
        <_>
          <internalNodes>
            0 -1 0 -1.8481479855836369e-05</internalNodes>
          <leafValues>
            5.7564578056335449e+00 -5.7564578056335449e+00</leafValues></_>
        <_>
          <internalNodes>
            0 -1 0 -2.2823391191195697e-05</internalNodes>
          <leafValues>
            -5.7564578056335449e+00 5.7564578056335449e+00</leafValues></_>
        <_>
          <internalNodes>
            0 -1 0 -1.8481479855836369e-05</internalNodes>
          <leafValues>
            5.7564578056335449e+00 -5.7564578056335449e+00</leafValues></_>
        <_>
          <internalNodes>
            0 -1 0 -2.2823391191195697e-05</internalNodes>
          <leafValues>
            -5.7564578056335449e+00 5.7564578056335449e+00</leafValues></_>
        <_>
          <internalNodes>
            0 -1 0 -1.8481479855836369e-05</internalNodes>
          <leafValues>
            5.7564578056335449e+00 -5.7564578056335449e+00</leafValues></_>
        <_>
          <internalNodes>
            0 -1 0 -2.2823391191195697e-05</internalNodes>
          <leafValues>
            -5.7564578056335449e+00 5.7564578056335449e+00</leafValues></_>
        <_>
          <internalNodes>
            0 -1 0 -1.8481479855836369e-05</internalNodes>
          <leafValues>
            5.7564578056335449e+00 -5.7564578056335449e+00</leafValues></_>
        <_>
          <internalNodes>
            0 -1 0 -2.2823391191195697e-05</internalNodes>
          <leafValues>
            -5.7564578056335449e+00 5.7564578056335449e+00</leafValues></_></weakClassifiers></_>
    <!-- stage 7 -->
    <_>
      <maxWeakCount>6</maxWeakCount>
      <stageThreshold>-1.5998309850692749e+00</stageThreshold>
      <weakClassifiers>
        <_>
          <internalNodes>
            0 -1 17 -3.5741654755838681e-06</internalNodes>
          <leafValues>
            -8.8119512796401978e-01 1.7145984172821045e+00</leafValues></_>
        <_>
          <internalNodes>
            0 -1 44 -2.9485096456483006e-04</internalNodes>
          <leafValues>
            -6.8413126468658447e-01 6.3089781999588013e-01</leafValues></_>
        <_>
          <internalNodes>
            0 -1 35 -1.6533333109691739e-05</internalNodes>
          <leafValues>
            -6.1106342077255249e-01 6.8578094244003296e-01</leafValues></_>
        <_>
          <internalNodes>
            0 -1 70 -8.6834399553481489e-05</internalNodes>
          <leafValues>
            -5.9777081012725830e-01 7.6727080345153809e-01</leafValues></_>
        <_>
          <internalNodes>
            0 -1 11 -4.2542655137367547e-05</internalNodes>
          <leafValues>
            -9.3337386846542358e-01 5.6451296806335449e-01</leafValues></_>
        <_>
          <internalNodes>
            0 -1 45 2.2484567016363144e-03</internalNodes>
          <leafValues>
            -4.8808994889259338e-01 1.0093706846237183e+00</leafValues></_></weakClassifiers></_>
    <!-- stage 8 -->
    <_>
      <maxWeakCount>3</maxWeakCount>
      <stageThreshold>-1.4465963840484619e+00</stageThreshold>
      <weakClassifiers>
        <_>
          <internalNodes>
            0 -1 64 5.6813354603946209e-04</internalNodes>
          <leafValues>
            1.5408507585525513e+00 -1.5745929479598999e+00</leafValues></_>
        <_>
          <internalNodes>
            0 -1 39 -4.3035004637204111e-05</internalNodes>
          <leafValues>
            -8.1378775835037231e-01 1.0039037466049194e+00</leafValues></_>
        <_>
          <internalNodes>
            0 -1 46 -1.4056706277187914e-04</internalNodes>
          <leafValues>
            -7.7010774612426758e-01 9.4178426265716553e-01</leafValues></_></weakClassifiers></_>
    <!-- stage 9 -->
    <_>
      <maxWeakCount>9</maxWeakCount>
      <stageThreshold>-1.4572869539260864e+00</stageThreshold>
      <weakClassifiers>
        <_>
          <internalNodes>
            0 -1 99 -5.9487222461029887e-04</internalNodes>
          <leafValues>
            5.7564578056335449e+00 -5.6350588798522949e-01</leafValues></_>
        <_>
          <internalNodes>
            0 -1 10 6.8331195507198572e-04</internalNodes>
          <leafValues>
            -2.2817321121692657e-01 1.5792220830917358e+00</leafValues></_>
        <_>
          <internalNodes>
            0 -1 93 -4.6920453314669430e-04</internalNodes>
          <leafValues>
            -8.6065840721130371e-01 3.2522329688072205e-01</leafValues></_>
        <_>
          <internalNodes>
            0 -1 36 -6.0848216526210308e-04</internalNodes>
          <leafValues>
            -7.7162206172943115e-01 4.9118256568908691e-01</leafValues></_>
        <_>
          <internalNodes>
            0 -1 50 1.3718678383156657e-04</internalNodes>
          <leafValues>
            -4.3697345256805420e-01 8.3959251642227173e-01</leafValues></_>
        <_>
          <internalNodes>
            0 -1 76 -6.4464213210158050e-05</internalNodes>
          <leafValues>
            -8.1280368566513062e-01 4.1219431161880493e-01</leafValues></_>
        <_>
          <internalNodes>
            0 -1 55 1.9956109099439345e-05</internalNodes>
          <leafValues>
            6.5497273206710815e-01 -5.2292734384536743e-01</leafValues></_>
        <_>
          <internalNodes>
            0 -1 75 -1.5670910215703771e-05</internalNodes>
          <leafValues>
            1.1351740360260010e+00 -3.7281256914138794e-01</leafValues></_>
        <_>
          <internalNodes>
            0 -1 79 -9.0320954768685624e-06</internalNodes>
          <leafValues>
            -4.7659015655517578e-01 8.1644290685653687e-01</leafValues></_></weakClassifiers></_>
    <!-- stage 10 -->
    <_>
      <maxWeakCount>7</maxWeakCount>
      <stageThreshold>-2.3949589729309082e+00</stageThreshold>
      <weakClassifiers>
        <_>
          <internalNodes>
            0 -1 82 -1.4489049135590903e-05</internalNodes>
          <leafValues>
            -8.4255677461624146e-01 1.2565560340881348e+00</leafValues></_>
        <_>
          <internalNodes>
            0 -1 26 -3.7437413993757218e-05</internalNodes>
          <leafValues>
            -8.2871830463409424e-01 9.1054290533065796e-01</leafValues></_>
        <_>
          <internalNodes>
            0 -1 29 9.3279108405113220e-03</internalNodes>
          <leafValues>
            8.1822985410690308e-01 -8.5711658000946045e-01</leafValues></_>
        <_>
          <internalNodes>
            0 -1 89 -6.9041816459503025e-06</internalNodes>
          <leafValues>
            -6.1488831043243408e-01 1.1328489780426025e+00</leafValues></_>
        <_>
          <internalNodes>
            0 -1 91 -1.8983145082529518e-06</internalNodes>
          <leafValues>
            9.8711574077606201e-01 -6.5496867895126343e-01</leafValues></_>
        <_>
          <internalNodes>
            0 -1 31 -5.2002072334289551e-03</internalNodes>
          <leafValues>
            -1.3415703773498535e+00 5.6346642971038818e-01</leafValues></_>
        <_>
          <internalNodes>
            0 -1 67 3.6643928615376353e-04</internalNodes>
          <leafValues>
            7.4988138675689697e-01 -8.9943784475326538e-01</leafValues></_></weakClassifiers></_>
    <!-- stage 11 -->
    <_>
      <maxWeakCount>3</maxWeakCount>
      <stageThreshold>-1.3515313863754272e+00</stageThreshold>
      <weakClassifiers>
        <_>
          <internalNodes>
            0 -1 51 3.3867996535263956e-04</internalNodes>
          <leafValues>
            5.7564578056335449e+00 -1.3515313863754272e+00</leafValues></_>
        <_>
          <internalNodes>
            0 -1 18 1.0470159395481460e-05</internalNodes>
          <leafValues>
            5.7564578056335449e+00 -8.5989296436309814e-01</leafValues></_>
        <_>
          <internalNodes>
            0 -1 22 1.3498798944056034e-04</internalNodes>
          <leafValues>
            -5.7564578056335449e+00 5.7564578056335449e+00</leafValues></_></weakClassifiers></_></stages>
  <features>
    <_>
      <rects>
        <_>
          0 0 1 4 -1.</_>
        <_>
          0 2 1 2 2.</_></rects>
      <tilted>0</tilted></_>
    <_>
      <rects>
        <_>
          0 0 1 6 -1.</_>
        <_>
          0 2 1 2 3.</_></rects>
      <tilted>0</tilted></_>
    <_>
      <rects>
        <_>
          0 0 73 24 -1.</_>
        <_>
          0 8 73 8 3.</_></rects>
      <tilted>0</tilted></_>
    <_>
      <rects>
        <_>
          0 2 16 48 -1.</_>
        <_>
          0 2 8 24 2.</_>
        <_>
          8 26 8 24 2.</_></rects>
      <tilted>0</tilted></_>
    <_>
      <rects>
        <_>
          0 2 30 2 -1.</_>
        <_>
          10 2 10 2 3.</_></rects>
      <tilted>0</tilted></_>
    <_>
      <rects>
        <_>
          0 17 30 30 -1.</_>
        <_>
          0 27 30 10 3.</_></rects>
      <tilted>0</tilted></_>
    <_>
      <rects>
        <_>
          0 19 34 27 -1.</_>
        <_>
          0 28 34 9 3.</_></rects>
      <tilted>0</tilted></_>
    <_>
      <rects>
        <_>
          0 47 8 7 -1.</_>
        <_>
          4 47 4 7 2.</_></rects>
      <tilted>0</tilted></_>
    <_>
      <rects>
        <_>
          1 17 51 54 -1.</_>
        <_>
          1 35 51 18 3.</_></rects>
      <tilted>0</tilted></_>
    <_>
      <rects>
        <_>
          1 21 125 45 -1.</_>
        <_>
          1 36 125 15 3.</_></rects>
      <tilted>0</tilted></_>
    <_>
      <rects>
        <_>
          3 0 6 30 -1.</_>
        <_>
          3 0 3 15 2.</_>
        <_>
          6 15 3 15 2.</_></rects>
      <tilted>0</tilted></_>
    <_>
      <rects>
        <_>
          4 36 2 10 -1.</_>
        <_>
          5 36 1 10 2.</_></rects>
      <tilted>0</tilted></_>
    <_>
      <rects>
        <_>
          4 37 116 2 -1.</_>
        <_>
          4 38 116 1 2.</_></rects>
      <tilted>0</tilted></_>
    <_>
      <rects>
        <_>
          4 47 4 24 -1.</_>
        <_>
          4 55 4 8 3.</_></rects>
      <tilted>0</tilted></_>
    <_>
      <rects>
        <_>
          4 52 3 20 -1.</_>
        <_>
          4 62 3 10 2.</_></rects>
      <tilted>0</tilted></_>
    <_>
      <rects>
        <_>
          5 27 122 24 -1.</_>
        <_>
          5 35 122 8 3.</_></rects>
      <tilted>0</tilted></_>
    <_>
      <rects>
        <_>
          7 11 66 34 -1.</_>
        <_>
          7 28 66 17 2.</_></rects>
      <tilted>0</tilted></_>
    <_>
      <rects>
        <_>
          7 27 90 4 -1.</_>
        <_>
          7 27 45 2 2.</_>
        <_>
          52 29 45 2 2.</_></rects>
      <tilted>0</tilted></_>
    <_>
      <rects>
        <_>
          9 16 14 4 -1.</_>
        <_>
          9 16 7 2 2.</_>
        <_>
          16 18 7 2 2.</_></rects>
      <tilted>0</tilted></_>
    <_>
      <rects>
        <_>
          9 27 115 30 -1.</_>
        <_>
          9 42 115 15 2.</_></rects>
      <tilted>0</tilted></_>
    <_>
      <rects>
        <_>
          10 25 106 26 -1.</_>
        <_>
          10 38 106 13 2.</_></rects>
      <tilted>0</tilted></_>
    <_>
      <rects>
        <_>
          11 8 83 63 -1.</_>
        <_>
          11 29 83 21 3.</_></rects>
      <tilted>0</tilted></_>
    <_>
      <rects>
        <_>
          14 15 27 23 -1.</_>
        <_>
          23 15 9 23 3.</_></rects>
      <tilted>0</tilted></_>
    <_>
      <rects>
        <_>
          16 24 95 24 -1.</_>
        <_>
          16 36 95 12 2.</_></rects>
      <tilted>0</tilted></_>
    <_>
      <rects>
        <_>
          18 26 85 16 -1.</_>
        <_>
          18 34 85 8 2.</_></rects>
      <tilted>0</tilted></_>
    <_>
      <rects>
        <_>
          19 22 66 1 -1.</_>
        <_>
          41 22 22 1 3.</_></rects>
      <tilted>0</tilted></_>
    <_>
      <rects>
        <_>
          20 22 4 11 -1.</_>
        <_>
          22 22 2 11 2.</_></rects>
      <tilted>0</tilted></_>
    <_>
      <rects>
        <_>
          22 21 60 2 -1.</_>
        <_>
          22 21 30 1 2.</_>
        <_>
          52 22 30 1 2.</_></rects>
      <tilted>0</tilted></_>
    <_>
      <rects>
        <_>
          23 59 72 6 -1.</_>
        <_>
          23 59 36 3 2.</_>
        <_>
          59 62 36 3 2.</_></rects>
      <tilted>0</tilted></_>
    <_>
      <rects>
        <_>
          24 6 29 30 -1.</_>
        <_>
          24 16 29 10 3.</_></rects>
      <tilted>0</tilted></_>
    <_>
      <rects>
        <_>
          24 13 84 48 -1.</_>
        <_>
          24 29 84 16 3.</_></rects>
      <tilted>0</tilted></_>
    <_>
      <rects>
        <_>
          27 11 21 36 -1.</_>
        <_>
          34 11 7 36 3.</_></rects>
      <tilted>0</tilted></_>
    <_>
      <rects>
        <_>
          27 15 9 29 -1.</_>
        <_>
          30 15 3 29 3.</_></rects>
      <tilted>0</tilted></_>
    <_>
      <rects>
        <_>
          29 17 94 48 -1.</_>
        <_>
          29 33 94 16 3.</_></rects>
      <tilted>0</tilted></_>
    <_>
      <rects>
        <_>
          29 22 54 15 -1.</_>
        <_>
          47 22 18 15 3.</_></rects>
      <tilted>0</tilted></_>
    <_>
      <rects>
        <_>
          29 23 1 21 -1.</_>
        <_>
          29 30 1 7 3.</_></rects>
      <tilted>0</tilted></_>
    <_>
      <rects>
        <_>
          31 11 9 22 -1.</_>
        <_>
          34 11 3 22 3.</_></rects>
      <tilted>0</tilted></_>
    <_>
      <rects>
        <_>
          31 39 9 6 -1.</_>
        <_>
          31 41 9 2 3.</_></rects>
      <tilted>0</tilted></_>
    <_>
      <rects>
        <_>
          33 1 68 8 -1.</_>
        <_>
          33 1 34 4 2.</_>
        <_>
          67 5 34 4 2.</_></rects>
      <tilted>0</tilted></_>
    <_>
      <rects>
        <_>
          34 52 44 2 -1.</_>
        <_>
          34 52 22 1 2.</_>
        <_>
          56 53 22 1 2.</_></rects>
      <tilted>0</tilted></_>
    <_>
      <rects>
        <_>
          35 22 2 2 -1.</_>
        <_>
          35 23 2 1 2.</_></rects>
      <tilted>0</tilted></_>
    <_>
      <rects>
        <_>
          36 12 12 21 -1.</_>
        <_>
          40 12 4 21 3.</_></rects>
      <tilted>0</tilted></_>
    <_>
      <rects>
        <_>
          37 0 76 8 -1.</_>
        <_>
          37 0 38 4 2.</_>
        <_>
          75 4 38 4 2.</_></rects>
      <tilted>0</tilted></_>
    <_>
      <rects>
        <_>
          38 0 2 58 -1.</_>
        <_>
          38 29 2 29 2.</_></rects>
      <tilted>0</tilted></_>
    <_>
      <rects>
        <_>
          38 22 36 16 -1.</_>
        <_>
          50 22 12 16 3.</_></rects>
      <tilted>0</tilted></_>
    <_>
      <rects>
        <_>
          39 1 52 10 -1.</_>
        <_>
          39 1 26 5 2.</_>
        <_>
          65 6 26 5 2.</_></rects>
      <tilted>0</tilted></_>
    <_>
      <rects>
        <_>
          41 0 15 64 -1.</_>
        <_>
          46 0 5 64 3.</_></rects>
      <tilted>0</tilted></_>
    <_>
      <rects>
        <_>
          41 4 42 19 -1.</_>
        <_>
          55 4 14 19 3.</_></rects>
      <tilted>0</tilted></_>
    <_>
      <rects>
        <_>
          41 23 6 9 -1.</_>
        <_>
          41 26 6 3 3.</_></rects>
      <tilted>0</tilted></_>
    <_>
      <rects>
        <_>
          41 34 7 4 -1.</_>
        <_>
          41 36 7 2 2.</_></rects>
      <tilted>0</tilted></_>
    <_>
      <rects>
        <_>
          42 2 18 20 -1.</_>
        <_>
          42 2 9 10 2.</_>
        <_>
          51 12 9 10 2.</_></rects>
      <tilted>0</tilted></_>
    <_>
      <rects>
        <_>
          42 3 1 30 -1.</_>
        <_>
          42 13 1 10 3.</_></rects>
      <tilted>0</tilted></_>
    <_>
      <rects>
        <_>
          43 5 4 48 -1.</_>
        <_>
          43 29 4 24 2.</_></rects>
      <tilted>0</tilted></_>
    <_>
      <rects>
        <_>
          49 3 19 69 -1.</_>
        <_>
          49 26 19 23 3.</_></rects>
      <tilted>0</tilted></_>
    <_>
      <rects>
        <_>
          49 38 28 3 -1.</_>
        <_>
          63 38 14 3 2.</_></rects>
      <tilted>0</tilted></_>
    <_>
      <rects>
        <_>
          49 47 26 3 -1.</_>
        <_>
          62 47 13 3 2.</_></rects>
      <tilted>0</tilted></_>
    <_>
      <rects>
        <_>
          49 64 20 2 -1.</_>
        <_>
          49 64 10 1 2.</_>
        <_>
          59 65 10 1 2.</_></rects>
      <tilted>0</tilted></_>
    <_>
      <rects>
        <_>
          51 39 44 20 -1.</_>
        <_>
          51 39 22 10 2.</_>
        <_>
          73 49 22 10 2.</_></rects>
      <tilted>0</tilted></_>
    <_>
      <rects>
        <_>
          51 44 75 3 -1.</_>
        <_>
          76 44 25 3 3.</_></rects>
      <tilted>0</tilted></_>
    <_>
      <rects>
        <_>
          51 47 14 18 -1.</_>
        <_>
          51 47 7 9 2.</_>
        <_>
          58 56 7 9 2.</_></rects>
      <tilted>0</tilted></_>
    <_>
      <rects>
        <_>
          52 19 30 45 -1.</_>
        <_>
          62 19 10 45 3.</_></rects>
      <tilted>0</tilted></_>
    <_>
      <rects>
        <_>
          52 42 54 9 -1.</_>
        <_>
          79 42 27 9 2.</_></rects>
      <tilted>0</tilted></_>
    <_>
      <rects>
        <_>
          54 9 24 34 -1.</_>
        <_>
          62 9 8 34 3.</_></rects>
      <tilted>0</tilted></_>
    <_>
      <rects>
        <_>
          54 14 2 42 -1.</_>
        <_>
          54 35 2 21 2.</_></rects>
      <tilted>0</tilted></_>
    <_>
      <rects>
        <_>
          54 19 12 7 -1.</_>
        <_>
          60 19 6 7 2.</_></rects>
      <tilted>0</tilted></_>
    <_>
      <rects>
        <_>
          54 61 6 4 -1.</_>
        <_>
          57 61 3 4 2.</_></rects>
      <tilted>0</tilted></_>
    <_>
      <rects>
        <_>
          55 41 66 3 -1.</_>
        <_>
          77 41 22 3 3.</_></rects>
      <tilted>0</tilted></_>
    <_>
      <rects>
        <_>
          57 16 12 19 -1.</_>
        <_>
          63 16 6 19 2.</_></rects>
      <tilted>0</tilted></_>
    <_>
      <rects>
        <_>
          57 42 16 8 -1.</_>
        <_>
          57 42 8 4 2.</_>
        <_>
          65 46 8 4 2.</_></rects>
      <tilted>0</tilted></_>
    <_>
      <rects>
        <_>
          57 63 2 2 -1.</_>
        <_>
          57 63 1 1 2.</_>
        <_>
          58 64 1 1 2.</_></rects>
      <tilted>0</tilted></_>
    <_>
      <rects>
        <_>
          59 64 42 6 -1.</_>
        <_>
          73 64 14 6 3.</_></rects>
      <tilted>0</tilted></_>
    <_>
      <rects>
        <_>
          61 5 16 38 -1.</_>
        <_>
          61 5 8 19 2.</_>
        <_>
          69 24 8 19 2.</_></rects>
      <tilted>0</tilted></_>
    <_>
      <rects>
        <_>
          61 14 28 26 -1.</_>
        <_>
          75 14 14 26 2.</_></rects>
      <tilted>0</tilted></_>
    <_>
      <rects>
        <_>
          62 3 60 4 -1.</_>
        <_>
          62 5 60 2 2.</_></rects>
      <tilted>0</tilted></_>
    <_>
      <rects>
        <_>
          63 6 1 58 -1.</_>
        <_>
          63 35 1 29 2.</_></rects>
      <tilted>0</tilted></_>
    <_>
      <rects>
        <_>
          63 39 2 4 -1.</_>
        <_>
          63 39 1 2 2.</_>
        <_>
          64 41 1 2 2.</_></rects>
      <tilted>0</tilted></_>
    <_>
      <rects>
        <_>
          64 18 6 3 -1.</_>
        <_>
          67 18 3 3 2.</_></rects>
      <tilted>0</tilted></_>
    <_>
      <rects>
        <_>
          68 4 12 35 -1.</_>
        <_>
          74 4 6 35 2.</_></rects>
      <tilted>0</tilted></_>
    <_>
      <rects>
        <_>
          68 12 5 44 -1.</_>
        <_>
          68 34 5 22 2.</_></rects>
      <tilted>0</tilted></_>
    <_>
      <rects>
        <_>
          71 28 13 2 -1.</_>
        <_>
          71 29 13 1 2.</_></rects>
      <tilted>0</tilted></_>
    <_>
      <rects>
        <_>
          71 36 27 12 -1.</_>
        <_>
          71 40 27 4 3.</_></rects>
      <tilted>0</tilted></_>
    <_>
      <rects>
        <_>
          80 60 6 2 -1.</_>
        <_>
          80 61 6 1 2.</_></rects>
      <tilted>0</tilted></_>
    <_>
      <rects>
        <_>
          81 0 4 18 -1.</_>
        <_>
          83 0 2 18 2.</_></rects>
      <tilted>0</tilted></_>
    <_>
      <rects>
        <_>
          82 40 16 6 -1.</_>
        <_>
          82 42 16 2 3.</_></rects>
      <tilted>0</tilted></_>
    <_>
      <rects>
        <_>
          88 18 10 40 -1.</_>
        <_>
          88 18 5 20 2.</_>
        <_>
          93 38 5 20 2.</_></rects>
      <tilted>0</tilted></_>
    <_>
      <rects>
        <_>
          89 33 36 35 -1.</_>
        <_>
          101 33 12 35 3.</_></rects>
      <tilted>0</tilted></_>
    <_>
      <rects>
        <_>
          92 24 12 11 -1.</_>
        <_>
          96 24 4 11 3.</_></rects>
      <tilted>0</tilted></_>
    <_>
      <rects>
        <_>
          92 38 18 1 -1.</_>
        <_>
          101 38 9 1 2.</_></rects>
      <tilted>0</tilted></_>
    <_>
      <rects>
        <_>
          92 48 12 6 -1.</_>
        <_>
          98 48 6 6 2.</_></rects>
      <tilted>0</tilted></_>
    <_>
      <rects>
        <_>
          92 50 6 1 -1.</_>
        <_>
          95 50 3 1 2.</_></rects>
      <tilted>0</tilted></_>
    <_>
      <rects>
        <_>
          93 35 9 1 -1.</_>
        <_>
          96 35 3 1 3.</_></rects>
      <tilted>0</tilted></_>
    <_>
      <rects>
        <_>
          98 5 2 10 -1.</_>
        <_>
          99 5 1 10 2.</_></rects>
      <tilted>0</tilted></_>
    <_>
      <rects>
        <_>
          105 5 12 7 -1.</_>
        <_>
          111 5 6 7 2.</_></rects>
      <tilted>0</tilted></_>
    <_>
      <rects>
        <_>
          108 36 9 14 -1.</_>
        <_>
          111 36 3 14 3.</_></rects>
      <tilted>0</tilted></_>
    <_>
      <rects>
        <_>
          112 19 12 50 -1.</_>
        <_>
          116 19 4 50 3.</_></rects>
      <tilted>0</tilted></_>
    <_>
      <rects>
        <_>
          114 45 12 1 -1.</_>
        <_>
          118 45 4 1 3.</_></rects>
      <tilted>0</tilted></_>
    <_>
      <rects>
        <_>
          115 36 6 1 -1.</_>
        <_>
          117 36 2 1 3.</_></rects>
      <tilted>0</tilted></_>
    <_>
      <rects>
        <_>
          115 49 3 2 -1.</_>
        <_>
          116 49 1 2 3.</_></rects>
      <tilted>0</tilted></_>
    <_>
      <rects>
        <_>
          121 57 4 3 -1.</_>
        <_>
          123 57 2 3 2.</_></rects>
      <tilted>0</tilted></_>
    <_>
      <rects>
        <_>
          124 52 1 18 -1.</_>
        <_>
          124 58 1 6 3.</_></rects>
      <tilted>0</tilted></_></features></cascade>
</opencv_storage>
