<?xml version="1.0"?>
<opencv_storage>
<cascade>
  <stageType>BOOST</stageType>
  <featureType>HOG</featureType>
  <height>35</height>
  <width>50</width>
  <stageParams>
    <boostType>RAB</boostType>
    <minHitRate>9.9900001287460327e-01</minHitRate>
    <maxFalseAlarm>5.0000000000000000e-01</maxFalseAlarm>
    <weightTrimRate>9.4999999999999996e-01</weightTrimRate>
    <maxDepth>1</maxDepth>
    <maxWeakCount>100</maxWeakCount></stageParams>
  <featureParams>
    <maxCatCount>0</maxCatCount>
    <featSize>36</featSize></featureParams>
  <stageNum>20</stageNum>
  <stages>
    <!-- stage 0 -->
    <_>
      <maxWeakCount>19</maxWeakCount>
      <stageThreshold>-1.8148781061172485e+00</stageThreshold>
      <weakClassifiers>
        <_>
          <internalNodes>
            0 -1 592 2.6895422488451004e-02</internalNodes>
          <leafValues>
            -1.4669488370418549e-01 9.8419624567031860e-01</leafValues></_>
        <_>
          <internalNodes>
            0 -1 670 2.9153522104024887e-02</internalNodes>
          <leafValues>
            -3.7796390056610107e-01 7.3086214065551758e-01</leafValues></_>
        <_>
          <internalNodes>
            0 -1 699 3.5317543894052505e-02</internalNodes>
          <leafValues>
            -3.0674847960472107e-01 7.2407037019729614e-01</leafValues></_>
        <_>
          <internalNodes>
            0 -1 760 6.7928016185760498e-02</internalNodes>
          <leafValues>
            -5.1041698455810547e-01 3.1929251551628113e-01</leafValues></_>
        <_>
          <internalNodes>
            0 -1 753 7.6079055666923523e-02</internalNodes>
          <leafValues>
            2.2833357751369476e-01 -6.8419194221496582e-01</leafValues></_>
        <_>
          <internalNodes>
            0 -1 492 4.3877907097339630e-02</internalNodes>
          <leafValues>
            -1.6738578677177429e-01 6.5028285980224609e-01</leafValues></_>
        <_>
          <internalNodes>
            0 -1 29 5.3483046591281891e-02</internalNodes>
          <leafValues>
            -4.2240676283836365e-01 2.6487219333648682e-01</leafValues></_>
        <_>
          <internalNodes>
            0 -1 485 3.7079580128192902e-02</internalNodes>
          <leafValues>
            -1.6326996684074402e-01 6.8128770589828491e-01</leafValues></_>
        <_>
          <internalNodes>
            0 -1 782 2.2913184016942978e-02</internalNodes>
          <leafValues>
            1.3429188728332520e-01 -7.7254593372344971e-01</leafValues></_>
        <_>
          <internalNodes>
            0 -1 748 2.3469641804695129e-02</internalNodes>
          <leafValues>
            -5.4601573944091797e-01 2.1157784759998322e-01</leafValues></_>
        <_>
          <internalNodes>
            0 -1 815 3.8833670318126678e-02</internalNodes>
          <leafValues>
            -1.4957150816917419e-01 8.7143713235855103e-01</leafValues></_>
        <_>
          <internalNodes>
            0 -1 76 3.7674665451049805e-02</internalNodes>
          <leafValues>
            -2.0951545238494873e-01 7.2847861051559448e-01</leafValues></_>
        <_>
          <internalNodes>
            0 -1 757 1.3316592201590538e-02</internalNodes>
          <leafValues>
            -5.0930917263031006e-01 1.9833113253116608e-01</leafValues></_>
        <_>
          <internalNodes>
            0 -1 308 4.3718315660953522e-02</internalNodes>
          <leafValues>
            -4.4848611950874329e-01 2.5608232617378235e-01</leafValues></_>
        <_>
          <internalNodes>
            0 -1 533 4.5468375086784363e-02</internalNodes>
          <leafValues>
            -1.4014784991741180e-01 9.3051844835281372e-01</leafValues></_>
        <_>
          <internalNodes>
            0 -1 609 5.2303902804851532e-02</internalNodes>
          <leafValues>
            -1.3594782352447510e-01 7.4937605857849121e-01</leafValues></_>
        <_>
          <internalNodes>
            0 -1 9 6.7931070923805237e-02</internalNodes>
          <leafValues>
            -2.9994055628776550e-01 3.0989250540733337e-01</leafValues></_>
        <_>
          <internalNodes>
            0 -1 69 1.3779144501313567e-04</internalNodes>
          <leafValues>
            7.5935840606689453e-01 -1.1387740075588226e-01</leafValues></_>
        <_>
          <internalNodes>
            0 -1 726 1.3362506404519081e-02</internalNodes>
          <leafValues>
            -4.3180072307586670e-01 1.8758355081081390e-01</leafValues></_></weakClassifiers></_>
    <!-- stage 1 -->
    <_>
      <maxWeakCount>30</maxWeakCount>
      <stageThreshold>-1.5413841009140015e+00</stageThreshold>
      <weakClassifiers>
        <_>
          <internalNodes>
            0 -1 633 3.0120931565761566e-02</internalNodes>
          <leafValues>
            -7.4315883219242096e-02 8.2764494419097900e-01</leafValues></_>
        <_>
          <internalNodes>
            0 -1 755 2.5202631950378418e-02</internalNodes>
          <leafValues>
            -3.1935292482376099e-01 4.6763825416564941e-01</leafValues></_>
        <_>
          <internalNodes>
            0 -1 544 4.3723151087760925e-02</internalNodes>
          <leafValues>
            -1.8147926032543182e-01 6.8324565887451172e-01</leafValues></_>
        <_>
          <internalNodes>
            0 -1 648 5.2423931658267975e-02</internalNodes>
          <leafValues>
            -2.0895549654960632e-01 6.9057118892669678e-01</leafValues></_>
        <_>
          <internalNodes>
            0 -1 308 4.7969289124011993e-02</internalNodes>
          <leafValues>
            -5.8803790807723999e-01 2.9110676050186157e-01</leafValues></_>
        <_>
          <internalNodes>
            0 -1 548 2.4404007941484451e-02</internalNodes>
          <leafValues>
            2.0575292408466339e-01 -5.5876004695892334e-01</leafValues></_>
        <_>
          <internalNodes>
            0 -1 641 3.2214637845754623e-02</internalNodes>
          <leafValues>
            -1.9728527963161469e-01 6.1029732227325439e-01</leafValues></_>
        <_>
          <internalNodes>
            0 -1 461 2.5916550308465958e-02</internalNodes>
          <leafValues>
            -4.2722046375274658e-01 2.5064072012901306e-01</leafValues></_>
        <_>
          <internalNodes>
            0 -1 399 8.3749890327453613e-02</internalNodes>
          <leafValues>
            -2.4478277564048767e-01 3.8524845242500305e-01</leafValues></_>
        <_>
          <internalNodes>
            0 -1 758 4.3530404567718506e-02</internalNodes>
          <leafValues>
            -1.6714231669902802e-01 7.7214473485946655e-01</leafValues></_>
        <_>
          <internalNodes>
            0 -1 608 7.9301588237285614e-02</internalNodes>
          <leafValues>
            -1.3216815888881683e-01 9.8017877340316772e-01</leafValues></_>
        <_>
          <internalNodes>
            0 -1 396 2.5582145899534225e-02</internalNodes>
          <leafValues>
            -2.7638745307922363e-01 3.2040527462959290e-01</leafValues></_>
        <_>
          <internalNodes>
            0 -1 425 2.1622536703944206e-02</internalNodes>
          <leafValues>
            -5.6761407852172852e-01 1.9966796040534973e-01</leafValues></_>
        <_>
          <internalNodes>
            0 -1 479 1.8118411302566528e-02</internalNodes>
          <leafValues>
            -2.8671306371688843e-01 2.3714862763881683e-01</leafValues></_>
        <_>
          <internalNodes>
            0 -1 525 1.8203221261501312e-02</internalNodes>
          <leafValues>
            1.6725806891918182e-01 -4.9394387006759644e-01</leafValues></_>
        <_>
          <internalNodes>
            0 -1 616 2.2363752126693726e-02</internalNodes>
          <leafValues>
            -2.4961994588375092e-01 3.3907851576805115e-01</leafValues></_>
        <_>
          <internalNodes>
            0 -1 518 2.9425207525491714e-02</internalNodes>
          <leafValues>
            1.1694054305553436e-01 -7.0224291086196899e-01</leafValues></_>
        <_>
          <internalNodes>
            0 -1 699 4.0384259074926376e-02</internalNodes>
          <leafValues>
            -1.5262427926063538e-01 4.5741888880729675e-01</leafValues></_>
        <_>
          <internalNodes>
            0 -1 816 2.5851048529148102e-02</internalNodes>
          <leafValues>
            -8.7748324871063232e-01 9.8087534308433533e-02</leafValues></_>
        <_>
          <internalNodes>
            0 -1 726 1.6392897814512253e-02</internalNodes>
          <leafValues>
            -3.8547074794769287e-01 2.0680059492588043e-01</leafValues></_>
        <_>
          <internalNodes>
            0 -1 753 8.7959431111812592e-02</internalNodes>
          <leafValues>
            1.0377861559391022e-01 -7.4806040525436401e-01</leafValues></_>
        <_>
          <internalNodes>
            0 -1 102 3.9583627134561539e-02</internalNodes>
          <leafValues>
            -4.1362619400024414e-01 1.6722345352172852e-01</leafValues></_>
        <_>
          <internalNodes>
            0 -1 5 3.6003820598125458e-02</internalNodes>
          <leafValues>
            -1.4176851511001587e-01 4.6971419453620911e-01</leafValues></_>
        <_>
          <internalNodes>
            0 -1 756 2.6918988674879074e-02</internalNodes>
          <leafValues>
            1.1078258603811264e-01 -6.4925330877304077e-01</leafValues></_>
        <_>
          <internalNodes>
            0 -1 431 1.4169346541166306e-02</internalNodes>
          <leafValues>
            -3.1143856048583984e-01 1.9500336050987244e-01</leafValues></_>
        <_>
          <internalNodes>
            0 -1 796 2.6383616030216217e-02</internalNodes>
          <leafValues>
            8.6628265678882599e-02 -7.3202234506607056e-01</leafValues></_>
        <_>
          <internalNodes>
            0 -1 298 1.4613874256610870e-02</internalNodes>
          <leafValues>
            -5.6146413087844849e-01 1.1045162379741669e-01</leafValues></_>
        <_>
          <internalNodes>
            0 -1 787 5.8346383273601532e-02</internalNodes>
          <leafValues>
            1.0755871236324310e-01 -5.8247447013854980e-01</leafValues></_>
        <_>
          <internalNodes>
            0 -1 460 5.0600938498973846e-02</internalNodes>
          <leafValues>
            -7.3701433837413788e-02 8.5954242944717407e-01</leafValues></_>
        <_>
          <internalNodes>
            0 -1 492 3.4498862922191620e-02</internalNodes>
          <leafValues>
            -1.6667659580707550e-01 3.4469267725944519e-01</leafValues></_></weakClassifiers></_>
    <!-- stage 2 -->
    <_>
      <maxWeakCount>33</maxWeakCount>
      <stageThreshold>-1.6078661680221558e+00</stageThreshold>
      <weakClassifiers>
        <_>
          <internalNodes>
            0 -1 592 3.6953389644622803e-02</internalNodes>
          <leafValues>
            -4.5599637087434530e-04 8.8819569349288940e-01</leafValues></_>
        <_>
          <internalNodes>
            0 -1 775 3.0835539102554321e-02</internalNodes>
          <leafValues>
            -2.5775769352912903e-01 5.5659562349319458e-01</leafValues></_>
        <_>
          <internalNodes>
            0 -1 297 4.0902018547058105e-02</internalNodes>
          <leafValues>
            -1.7299370467662811e-01 5.1113969087600708e-01</leafValues></_>
        <_>
          <internalNodes>
            0 -1 359 5.7610057294368744e-02</internalNodes>
          <leafValues>
            -3.4352591633796692e-01 2.8666254878044128e-01</leafValues></_>
        <_>
          <internalNodes>
            0 -1 694 2.3807195946574211e-02</internalNodes>
          <leafValues>
            -2.7311596274375916e-01 3.2519704103469849e-01</leafValues></_>
        <_>
          <internalNodes>
            0 -1 754 4.0881760418415070e-02</internalNodes>
          <leafValues>
            1.0719233006238937e-01 -7.2342967987060547e-01</leafValues></_>
        <_>
          <internalNodes>
            0 -1 689 8.2223206758499146e-02</internalNodes>
          <leafValues>
            -9.7759291529655457e-02 8.1613218784332275e-01</leafValues></_>
        <_>
          <internalNodes>
            0 -1 407 4.5548196882009506e-02</internalNodes>
          <leafValues>
            -1.1067792773246765e-01 8.5437440872192383e-01</leafValues></_>
        <_>
          <internalNodes>
            0 -1 408 4.8932887613773346e-02</internalNodes>
          <leafValues>
            -5.9342432022094727e-01 1.6886074841022491e-01</leafValues></_>
        <_>
          <internalNodes>
            0 -1 592 7.2803944349288940e-03</internalNodes>
          <leafValues>
            -7.6298612356185913e-01 1.1879652738571167e-01</leafValues></_>
        <_>
          <internalNodes>
            0 -1 544 5.8704838156700134e-02</internalNodes>
          <leafValues>
            -8.8225394487380981e-02 8.3879548311233521e-01</leafValues></_>
        <_>
          <internalNodes>
            0 -1 757 1.7987802624702454e-02</internalNodes>
          <leafValues>
            -3.4449103474617004e-01 2.0577353239059448e-01</leafValues></_>
        <_>
          <internalNodes>
            0 -1 751 1.6190409660339355e-02</internalNodes>
          <leafValues>
            2.0992323756217957e-01 -4.0779271721839905e-01</leafValues></_>
        <_>
          <internalNodes>
            0 -1 485 3.6255821585655212e-02</internalNodes>
          <leafValues>
            -1.1568138003349304e-01 5.8057516813278198e-01</leafValues></_>
        <_>
          <internalNodes>
            0 -1 769 2.1664984524250031e-02</internalNodes>
          <leafValues>
            -5.3713470697402954e-01 1.3664709031581879e-01</leafValues></_>
        <_>
          <internalNodes>
            0 -1 446 2.3535531014204025e-02</internalNodes>
          <leafValues>
            1.4861649274826050e-01 -5.5724507570266724e-01</leafValues></_>
        <_>
          <internalNodes>
            0 -1 737 3.5663336515426636e-02</internalNodes>
          <leafValues>
            7.2336561977863312e-02 -7.6335620880126953e-01</leafValues></_>
        <_>
          <internalNodes>
            0 -1 466 1.1970403790473938e-01</internalNodes>
          <leafValues>
            5.8385938405990601e-02 -1.7389053106307983e+00</leafValues></_>
        <_>
          <internalNodes>
            0 -1 477 1.6351856291294098e-02</internalNodes>
          <leafValues>
            2.9556989669799805e-01 -1.9186744093894958e-01</leafValues></_>
        <_>
          <internalNodes>
            0 -1 505 2.9283098876476288e-02</internalNodes>
          <leafValues>
            -2.0109191536903381e-01 3.3131575584411621e-01</leafValues></_>
        <_>
          <internalNodes>
            0 -1 573 1.6464140266180038e-02</internalNodes>
          <leafValues>
            1.2700594961643219e-01 -4.7164535522460938e-01</leafValues></_>
        <_>
          <internalNodes>
            0 -1 475 9.1396048665046692e-02</internalNodes>
          <leafValues>
            1.0488790273666382e-01 -6.0194522142410278e-01</leafValues></_>
        <_>
          <internalNodes>
            0 -1 667 2.4742547422647476e-02</internalNodes>
          <leafValues>
            9.5037557184696198e-02 -7.9793328046798706e-01</leafValues></_>
        <_>
          <internalNodes>
            0 -1 489 2.0358841866254807e-02</internalNodes>
          <leafValues>
            -2.9214772582054138e-01 1.9449165463447571e-01</leafValues></_>
        <_>
          <internalNodes>
            0 -1 490 6.3276574015617371e-02</internalNodes>
          <leafValues>
            -7.3118664324283600e-02 7.2426658868789673e-01</leafValues></_>
        <_>
          <internalNodes>
            0 -1 386 1.9250873476266861e-02</internalNodes>
          <leafValues>
            -4.9812027812004089e-01 1.0863333940505981e-01</leafValues></_>
        <_>
          <internalNodes>
            0 -1 139 2.1337180805858225e-04</internalNodes>
          <leafValues>
            6.2974542379379272e-01 -8.5463866591453552e-02</leafValues></_>
        <_>
          <internalNodes>
            0 -1 492 2.1519308909773827e-02</internalNodes>
          <leafValues>
            -2.5212663412094116e-01 2.4895304441452026e-01</leafValues></_>
        <_>
          <internalNodes>
            0 -1 198 1.4493159949779510e-02</internalNodes>
          <leafValues>
            -6.5516054630279541e-01 7.9052902758121490e-02</leafValues></_>
        <_>
          <internalNodes>
            0 -1 423 4.3101049959659576e-02</internalNodes>
          <leafValues>
            -1.1077720671892166e-01 4.6406829357147217e-01</leafValues></_>
        <_>
          <internalNodes>
            0 -1 585 9.3306660652160645e-02</internalNodes>
          <leafValues>
            -1.2050878256559372e-01 4.1392984986305237e-01</leafValues></_>
        <_>
          <internalNodes>
            0 -1 691 5.0502493977546692e-02</internalNodes>
          <leafValues>
            -1.1985548585653305e-01 4.5415797829627991e-01</leafValues></_>
        <_>
          <internalNodes>
            0 -1 310 2.4448677897453308e-02</internalNodes>
          <leafValues>
            -4.8382118344306946e-01 1.0839926451444626e-01</leafValues></_></weakClassifiers></_>
    <!-- stage 3 -->
    <_>
      <maxWeakCount>50</maxWeakCount>
      <stageThreshold>-1.6583000421524048e+00</stageThreshold>
      <weakClassifiers>
        <_>
          <internalNodes>
            0 -1 714 3.5989612340927124e-02</internalNodes>
          <leafValues>
            2.1996365860104561e-02 8.4019052982330322e-01</leafValues></_>
        <_>
          <internalNodes>
            0 -1 591 4.4394321739673615e-02</internalNodes>
          <leafValues>
            -1.7765228450298309e-01 7.8480315208435059e-01</leafValues></_>
        <_>
          <internalNodes>
            0 -1 789 4.2597420513629913e-02</internalNodes>
          <leafValues>
            -1.3078241050243378e-01 7.7780169248580933e-01</leafValues></_>
        <_>
          <internalNodes>
            0 -1 469 4.7942958772182465e-02</internalNodes>
          <leafValues>
            -6.6929817199707031e-01 1.0309093445539474e-01</leafValues></_>
        <_>
          <internalNodes>
            0 -1 545 1.0321076959371567e-02</internalNodes>
          <leafValues>
            -4.3943396210670471e-01 1.6020755469799042e-01</leafValues></_>
        <_>
          <internalNodes>
            0 -1 141 3.3012515632435679e-04</internalNodes>
          <leafValues>
            5.2754139900207520e-01 -1.1165490746498108e-01</leafValues></_>
        <_>
          <internalNodes>
            0 -1 769 1.4640895649790764e-02</internalNodes>
          <leafValues>
            -8.4169948101043701e-01 8.7496712803840637e-02</leafValues></_>
        <_>
          <internalNodes>
            0 -1 562 4.0072023868560791e-02</internalNodes>
          <leafValues>
            -1.3366331160068512e-01 5.0706261396408081e-01</leafValues></_>
        <_>
          <internalNodes>
            0 -1 210 6.2847763299942017e-02</internalNodes>
          <leafValues>
            -1.2873154878616333e-01 5.0767356157302856e-01</leafValues></_>
        <_>
          <internalNodes>
            0 -1 87 7.3733791708946228e-02</internalNodes>
          <leafValues>
            -2.1709656715393066e-01 2.3358254134654999e-01</leafValues></_>
        <_>
          <internalNodes>
            0 -1 396 3.7261951714754105e-02</internalNodes>
          <leafValues>
            -1.8434910476207733e-01 3.5870897769927979e-01</leafValues></_>
        <_>
          <internalNodes>
            0 -1 485 3.0010502785444260e-02</internalNodes>
          <leafValues>
            -1.2273348122835159e-01 3.9645135402679443e-01</leafValues></_>
        <_>
          <internalNodes>
            0 -1 544 4.2017340660095215e-02</internalNodes>
          <leafValues>
            -1.3900369405746460e-01 4.1322919726371765e-01</leafValues></_>
        <_>
          <internalNodes>
            0 -1 592 2.2631399333477020e-02</internalNodes>
          <leafValues>
            -2.6381364464759827e-01 2.3036116361618042e-01</leafValues></_>
        <_>
          <internalNodes>
            0 -1 760 9.2118486762046814e-02</internalNodes>
          <leafValues>
            -1.8468311429023743e-01 3.1280693411827087e-01</leafValues></_>
        <_>
          <internalNodes>
            0 -1 282 1.2993979267776012e-02</internalNodes>
          <leafValues>
            -2.6130291819572449e-01 1.7435958981513977e-01</leafValues></_>
        <_>
          <internalNodes>
            0 -1 755 1.8045412376523018e-02</internalNodes>
          <leafValues>
            -2.5113210082054138e-01 1.8362241983413696e-01</leafValues></_>
        <_>
          <internalNodes>
            0 -1 751 2.7396468445658684e-02</internalNodes>
          <leafValues>
            8.0259390175342560e-02 -7.3162162303924561e-01</leafValues></_>
        <_>
          <internalNodes>
            0 -1 574 2.2737838327884674e-02</internalNodes>
          <leafValues>
            8.9849419891834259e-02 -4.7876346111297607e-01</leafValues></_>
        <_>
          <internalNodes>
            0 -1 820 2.7919698506593704e-02</internalNodes>
          <leafValues>
            -1.4988368749618530e-01 2.8395283222198486e-01</leafValues></_>
        <_>
          <internalNodes>
            0 -1 474 2.4444211274385452e-02</internalNodes>
          <leafValues>
            1.7784328758716583e-01 -2.4882096052169800e-01</leafValues></_>
        <_>
          <internalNodes>
            0 -1 593 2.1661549806594849e-02</internalNodes>
          <leafValues>
            -5.8486998081207275e-01 8.0206163227558136e-02</leafValues></_>
        <_>
          <internalNodes>
            0 -1 708 6.8146891891956329e-02</internalNodes>
          <leafValues>
            8.1447869539260864e-02 -5.7643562555313110e-01</leafValues></_>
        <_>
          <internalNodes>
            0 -1 528 3.3657778054475784e-02</internalNodes>
          <leafValues>
            7.7410623431205750e-02 -5.3352046012878418e-01</leafValues></_>
        <_>
          <internalNodes>
            0 -1 519 8.0564990639686584e-02</internalNodes>
          <leafValues>
            4.8664677888154984e-02 -9.7523170709609985e-01</leafValues></_>
        <_>
          <internalNodes>
            0 -1 9 6.9604970514774323e-02</internalNodes>
          <leafValues>
            -2.1631678938865662e-01 1.8383926153182983e-01</leafValues></_>
        <_>
          <internalNodes>
            0 -1 233 3.1027486547827721e-02</internalNodes>
          <leafValues>
            -1.2917071580886841e-01 3.5389387607574463e-01</leafValues></_>
        <_>
          <internalNodes>
            0 -1 631 1.4000275172293186e-02</internalNodes>
          <leafValues>
            -2.5848951935768127e-01 1.7243787646293640e-01</leafValues></_>
        <_>
          <internalNodes>
            0 -1 752 1.6029557213187218e-02</internalNodes>
          <leafValues>
            2.8938612341880798e-01 -1.5541251003742218e-01</leafValues></_>
        <_>
          <internalNodes>
            0 -1 802 3.1250409781932831e-02</internalNodes>
          <leafValues>
            5.8306027203798294e-02 -8.7494671344757080e-01</leafValues></_>
        <_>
          <internalNodes>
            0 -1 691 6.1864741146564484e-02</internalNodes>
          <leafValues>
            -8.6305372416973114e-02 4.6968522667884827e-01</leafValues></_>
        <_>
          <internalNodes>
            0 -1 679 4.0009595453739166e-02</internalNodes>
          <leafValues>
            5.0148110836744308e-02 -1.0192975997924805e+00</leafValues></_>
        <_>
          <internalNodes>
            0 -1 607 1.3784368056803942e-03</internalNodes>
          <leafValues>
            1.7902868986129761e+00 -3.8062635809183121e-02</leafValues></_>
        <_>
          <internalNodes>
            0 -1 654 3.8864858448505402e-02</internalNodes>
          <leafValues>
            1.0474179685115814e-01 -4.7390016913414001e-01</leafValues></_>
        <_>
          <internalNodes>
            0 -1 285 2.7225553989410400e-02</internalNodes>
          <leafValues>
            -1.5133926272392273e-01 3.0052646994590759e-01</leafValues></_>
        <_>
          <internalNodes>
            0 -1 398 1.6405709087848663e-02</internalNodes>
          <leafValues>
            -7.5479120016098022e-01 6.8017326295375824e-02</leafValues></_>
        <_>
          <internalNodes>
            0 -1 426 1.7717771232128143e-02</internalNodes>
          <leafValues>
            -1.4794065058231354e-01 2.6756414771080017e-01</leafValues></_>
        <_>
          <internalNodes>
            0 -1 220 1.1045719293178990e-04</internalNodes>
          <leafValues>
            6.6116923093795776e-01 -6.4232252538204193e-02</leafValues></_>
        <_>
          <internalNodes>
            0 -1 598 7.5733989477157593e-02</internalNodes>
          <leafValues>
            6.9053389132022858e-02 -5.0164723396301270e-01</leafValues></_>
        <_>
          <internalNodes>
            0 -1 736 2.2537643089890480e-02</internalNodes>
          <leafValues>
            7.5808309018611908e-02 -5.0809210538864136e-01</leafValues></_>
        <_>
          <internalNodes>
            0 -1 34 1.5180078335106373e-02</internalNodes>
          <leafValues>
            1.8073062598705292e-01 -1.9016920030117035e-01</leafValues></_>
        <_>
          <internalNodes>
            0 -1 488 4.7651939094066620e-02</internalNodes>
          <leafValues>
            -9.9782407283782959e-02 3.6575099825859070e-01</leafValues></_>
        <_>
          <internalNodes>
            0 -1 765 3.5309202969074249e-02</internalNodes>
          <leafValues>
            9.1176770627498627e-02 -5.0898838043212891e-01</leafValues></_>
        <_>
          <internalNodes>
            0 -1 568 4.5399472583085299e-05</internalNodes>
          <leafValues>
            -1.0189675092697144e+00 5.4722119122743607e-02</leafValues></_>
        <_>
          <internalNodes>
            0 -1 126 5.4194196127355099e-03</internalNodes>
          <leafValues>
            4.5326057076454163e-01 -8.1471763551235199e-02</leafValues></_>
        <_>
          <internalNodes>
            0 -1 687 1.1554872989654541e-01</internalNodes>
          <leafValues>
            6.4013369381427765e-02 -5.9161424636840820e-01</leafValues></_>
        <_>
          <internalNodes>
            0 -1 164 4.3276857584714890e-02</internalNodes>
          <leafValues>
            -3.2496887445449829e-01 1.1626799404621124e-01</leafValues></_>
        <_>
          <internalNodes>
            0 -1 246 2.7350179851055145e-02</internalNodes>
          <leafValues>
            -9.9058821797370911e-02 3.6945950984954834e-01</leafValues></_>
        <_>
          <internalNodes>
            0 -1 602 2.0582824945449829e-02</internalNodes>
          <leafValues>
            1.5072853863239288e-01 -2.7293312549591064e-01</leafValues></_>
        <_>
          <internalNodes>
            0 -1 750 2.4200279731303453e-03</internalNodes>
          <leafValues>
            -5.9812033176422119e-01 6.1508588492870331e-02</leafValues></_></weakClassifiers></_>
    <!-- stage 4 -->
    <_>
      <maxWeakCount>55</maxWeakCount>
      <stageThreshold>-1.5360113382339478e+00</stageThreshold>
      <weakClassifiers>
        <_>
          <internalNodes>
            0 -1 755 3.0674135312438011e-02</internalNodes>
          <leafValues>
            1.0304814204573631e-02 7.8036260604858398e-01</leafValues></_>
        <_>
          <internalNodes>
            0 -1 609 6.5141789615154266e-02</internalNodes>
          <leafValues>
            -1.6462367773056030e-01 7.4705421924591064e-01</leafValues></_>
        <_>
          <internalNodes>
            0 -1 492 5.8439947664737701e-02</internalNodes>
          <leafValues>
            -1.3916014134883881e-01 5.8032065629959106e-01</leafValues></_>
        <_>
          <internalNodes>
            0 -1 820 2.4478498846292496e-02</internalNodes>
          <leafValues>
            -2.2321024537086487e-01 2.5598230957984924e-01</leafValues></_>
        <_>
          <internalNodes>
            0 -1 640 1.8036771565675735e-02</internalNodes>
          <leafValues>
            2.0757630467414856e-01 -3.5758116841316223e-01</leafValues></_>
        <_>
          <internalNodes>
            0 -1 500 3.9682336151599884e-02</internalNodes>
          <leafValues>
            -2.4570420384407043e-01 2.4843177199363708e-01</leafValues></_>
        <_>
          <internalNodes>
            0 -1 599 1.9303366541862488e-02</internalNodes>
          <leafValues>
            1.0330685228109360e-01 -6.0859340429306030e-01</leafValues></_>
        <_>
          <internalNodes>
            0 -1 723 5.7177789509296417e-02</internalNodes>
          <leafValues>
            -7.3736920952796936e-02 6.5693330764770508e-01</leafValues></_>
        <_>
          <internalNodes>
            0 -1 516 2.6741068810224533e-02</internalNodes>
          <leafValues>
            -2.5368034839630127e-01 2.6774179935455322e-01</leafValues></_>
        <_>
          <internalNodes>
            0 -1 224 3.8007654249668121e-02</internalNodes>
          <leafValues>
            -4.6545171737670898e-01 1.3870842754840851e-01</leafValues></_>
        <_>
          <internalNodes>
            0 -1 757 1.3732776977121830e-02</internalNodes>
          <leafValues>
            -3.8604784011840820e-01 1.4656203985214233e-01</leafValues></_>
        <_>
          <internalNodes>
            0 -1 37 5.8773890137672424e-02</internalNodes>
          <leafValues>
            -9.6029937267303467e-02 5.4180920124053955e-01</leafValues></_>
        <_>
          <internalNodes>
            0 -1 64 1.6450058319605887e-04</internalNodes>
          <leafValues>
            7.2316348552703857e-01 -8.4404885768890381e-02</leafValues></_>
        <_>
          <internalNodes>
            0 -1 179 9.6043851226568222e-03</internalNodes>
          <leafValues>
            -3.0368795990943909e-01 1.9242948293685913e-01</leafValues></_>
        <_>
          <internalNodes>
            0 -1 164 6.4366273581981659e-02</internalNodes>
          <leafValues>
            -2.6029673218727112e-01 1.8360340595245361e-01</leafValues></_>
        <_>
          <internalNodes>
            0 -1 548 2.2577209398150444e-02</internalNodes>
          <leafValues>
            9.8712489008903503e-02 -4.0668123960494995e-01</leafValues></_>
        <_>
          <internalNodes>
            0 -1 527 6.1328597366809845e-02</internalNodes>
          <leafValues>
            1.1634994298219681e-01 -3.8699299097061157e-01</leafValues></_>
        <_>
          <internalNodes>
            0 -1 593 1.0623234324157238e-02</internalNodes>
          <leafValues>
            -1.0828776359558105e+00 5.0845880061388016e-02</leafValues></_>
        <_>
          <internalNodes>
            0 -1 517 1.4477462507784367e-02</internalNodes>
          <leafValues>
            1.4914648234844208e-01 -3.0543774366378784e-01</leafValues></_>
        <_>
          <internalNodes>
            0 -1 485 1.6984574496746063e-02</internalNodes>
          <leafValues>
            -2.1511417627334595e-01 2.0680247247219086e-01</leafValues></_>
        <_>
          <internalNodes>
            0 -1 367 4.6885982155799866e-02</internalNodes>
          <leafValues>
            -1.0967587679624557e-01 3.6125016212463379e-01</leafValues></_>
        <_>
          <internalNodes>
            0 -1 752 2.6153512299060822e-02</internalNodes>
          <leafValues>
            1.5501841902732849e-01 -3.3165332674980164e-01</leafValues></_>
        <_>
          <internalNodes>
            0 -1 746 3.1555753666907549e-03</internalNodes>
          <leafValues>
            -5.4660159349441528e-01 7.5395926833152771e-02</leafValues></_>
        <_>
          <internalNodes>
            0 -1 745 2.0439248532056808e-02</internalNodes>
          <leafValues>
            1.1363867670297623e-01 -4.6138975024223328e-01</leafValues></_>
        <_>
          <internalNodes>
            0 -1 561 8.2556962966918945e-02</internalNodes>
          <leafValues>
            -7.2712160646915436e-02 6.5793794393539429e-01</leafValues></_>
        <_>
          <internalNodes>
            0 -1 339 1.7213361337780952e-02</internalNodes>
          <leafValues>
            -4.0932801365852356e-01 1.0662142187356949e-01</leafValues></_>
        <_>
          <internalNodes>
            0 -1 574 2.1886287257075310e-02</internalNodes>
          <leafValues>
            9.2092156410217285e-02 -4.6561291813850403e-01</leafValues></_>
        <_>
          <internalNodes>
            0 -1 460 4.0624961256980896e-02</internalNodes>
          <leafValues>
            -9.5520474016666412e-02 5.1786005496978760e-01</leafValues></_>
        <_>
          <internalNodes>
            0 -1 232 2.5975707918405533e-02</internalNodes>
          <leafValues>
            -4.3712136149406433e-01 8.4847658872604370e-02</leafValues></_>
        <_>
          <internalNodes>
            0 -1 519 6.5777584910392761e-02</internalNodes>
          <leafValues>
            6.0999214649200439e-02 -6.6584867238998413e-01</leafValues></_>
        <_>
          <internalNodes>
            0 -1 495 5.4448910057544708e-02</internalNodes>
          <leafValues>
            4.6496458351612091e-02 -9.2605561017990112e-01</leafValues></_>
        <_>
          <internalNodes>
            0 -1 563 2.3891817778348923e-02</internalNodes>
          <leafValues>
            -1.7554692924022675e-01 2.1094566583633423e-01</leafValues></_>
        <_>
          <internalNodes>
            0 -1 260 2.0985078066587448e-02</internalNodes>
          <leafValues>
            -2.0275005698204041e-01 1.7554362118244171e-01</leafValues></_>
        <_>
          <internalNodes>
            0 -1 583 1.5515942126512527e-02</internalNodes>
          <leafValues>
            1.2750822305679321e-01 -2.9020532965660095e-01</leafValues></_>
        <_>
          <internalNodes>
            0 -1 506 2.5213096290826797e-02</internalNodes>
          <leafValues>
            -1.9873769581317902e-01 1.8558169901371002e-01</leafValues></_>
        <_>
          <internalNodes>
            0 -1 355 2.5624632835388184e-02</internalNodes>
          <leafValues>
            -1.3154374063014984e-01 2.6870048046112061e-01</leafValues></_>
        <_>
          <internalNodes>
            0 -1 814 2.8304092586040497e-02</internalNodes>
          <leafValues>
            4.7664280980825424e-02 -8.8593596220016479e-01</leafValues></_>
        <_>
          <internalNodes>
            0 -1 761 6.0889326035976410e-02</internalNodes>
          <leafValues>
            -5.1517009735107422e-02 6.9877332448959351e-01</leafValues></_>
        <_>
          <internalNodes>
            0 -1 715 4.7565232962369919e-03</internalNodes>
          <leafValues>
            -8.0804258584976196e-01 4.8718106001615524e-02</leafValues></_>
        <_>
          <internalNodes>
            0 -1 347 3.5289283841848373e-02</internalNodes>
          <leafValues>
            1.0137682408094406e-01 -3.5431122779846191e-01</leafValues></_>
        <_>
          <internalNodes>
            0 -1 143 3.4724595025181770e-04</internalNodes>
          <leafValues>
            4.8166072368621826e-01 -7.0826634764671326e-02</leafValues></_>
        <_>
          <internalNodes>
            0 -1 577 9.3193352222442627e-03</internalNodes>
          <leafValues>
            -9.0756052732467651e-01 4.2801558971405029e-02</leafValues></_>
        <_>
          <internalNodes>
            0 -1 397 5.1852893084287643e-02</internalNodes>
          <leafValues>
            -5.4604876786470413e-02 6.2899672985076904e-01</leafValues></_>
        <_>
          <internalNodes>
            0 -1 293 2.1330997347831726e-02</internalNodes>
          <leafValues>
            -1.6151462495326996e-01 1.9555535912513733e-01</leafValues></_>
        <_>
          <internalNodes>
            0 -1 729 7.5953111052513123e-02</internalNodes>
          <leafValues>
            -1.5123955905437469e-01 2.6921799778938293e-01</leafValues></_>
        <_>
          <internalNodes>
            0 -1 470 6.7598715424537659e-02</internalNodes>
          <leafValues>
            -4.4840902090072632e-02 8.6437916755676270e-01</leafValues></_>
        <_>
          <internalNodes>
            0 -1 813 1.2912195175886154e-02</internalNodes>
          <leafValues>
            -1.5713152289390564e-01 1.9117027521133423e-01</leafValues></_>
        <_>
          <internalNodes>
            0 -1 666 1.9868135452270508e-02</internalNodes>
          <leafValues>
            1.5558066964149475e-01 -2.4055925011634827e-01</leafValues></_>
        <_>
          <internalNodes>
            0 -1 451 1.4599620772060007e-04</internalNodes>
          <leafValues>
            -1.0461299419403076e+00 3.8394805043935776e-02</leafValues></_>
        <_>
          <internalNodes>
            0 -1 175 7.4285792652517557e-04</internalNodes>
          <leafValues>
            4.3451282382011414e-01 -7.5154349207878113e-02</leafValues></_>
        <_>
          <internalNodes>
            0 -1 791 1.1145569384098053e-02</internalNodes>
          <leafValues>
            -3.5547563433647156e-01 8.8496871292591095e-02</leafValues></_>
        <_>
          <internalNodes>
            0 -1 435 3.6523681133985519e-02</internalNodes>
          <leafValues>
            6.2747932970523834e-02 -5.1747500896453857e-01</leafValues></_>
        <_>
          <internalNodes>
            0 -1 215 2.9894974082708359e-02</internalNodes>
          <leafValues>
            -1.4973601698875427e-01 2.1522007882595062e-01</leafValues></_>
        <_>
          <internalNodes>
            0 -1 367 3.1631305813789368e-02</internalNodes>
          <leafValues>
            -1.3665615022182465e-01 2.1802055835723877e-01</leafValues></_>
        <_>
          <internalNodes>
            0 -1 468 3.2988376915454865e-02</internalNodes>
          <leafValues>
            -3.5942250490188599e-01 8.9932963252067566e-02</leafValues></_></weakClassifiers></_>
    <!-- stage 5 -->
    <_>
      <maxWeakCount>61</maxWeakCount>
      <stageThreshold>-1.5837273597717285e+00</stageThreshold>
      <weakClassifiers>
        <_>
          <internalNodes>
            0 -1 723 4.3852370232343674e-02</internalNodes>
          <leafValues>
            6.7347653210163116e-02 8.7689226865768433e-01</leafValues></_>
        <_>
          <internalNodes>
            0 -1 755 2.2069521248340607e-02</internalNodes>
          <leafValues>
            -3.2486304640769958e-01 3.0284833908081055e-01</leafValues></_>
        <_>
          <internalNodes>
            0 -1 533 3.5295456647872925e-02</internalNodes>
          <leafValues>
            -2.0801705121994019e-01 4.1706305742263794e-01</leafValues></_>
        <_>
          <internalNodes>
            0 -1 756 2.0642559975385666e-02</internalNodes>
          <leafValues>
            1.9030989706516266e-01 -3.7496548891067505e-01</leafValues></_>
        <_>
          <internalNodes>
            0 -1 176 2.4551706155762076e-04</internalNodes>
          <leafValues>
            5.0633090734481812e-01 -1.4057570695877075e-01</leafValues></_>
        <_>
          <internalNodes>
            0 -1 42 3.7224169820547104e-02</internalNodes>
          <leafValues>
            -1.2231209129095078e-01 3.7947019934654236e-01</leafValues></_>
        <_>
          <internalNodes>
            0 -1 563 4.1368223726749420e-02</internalNodes>
          <leafValues>
            -1.4839646220207214e-01 3.7226998805999756e-01</leafValues></_>
        <_>
          <internalNodes>
            0 -1 49 4.7034155577421188e-02</internalNodes>
          <leafValues>
            -3.2902288436889648e-01 1.6964629292488098e-01</leafValues></_>
        <_>
          <internalNodes>
            0 -1 297 5.7401545345783234e-02</internalNodes>
          <leafValues>
            -1.0501997172832489e-01 7.0848685503005981e-01</leafValues></_>
        <_>
          <internalNodes>
            0 -1 370 2.8481647372245789e-02</internalNodes>
          <leafValues>
            -5.5054885149002075e-01 8.4327153861522675e-02</leafValues></_>
        <_>
          <internalNodes>
            0 -1 447 2.3069571703672409e-02</internalNodes>
          <leafValues>
            7.9885594546794891e-02 -7.3512619733810425e-01</leafValues></_>
        <_>
          <internalNodes>
            0 -1 142 6.9496065378189087e-02</internalNodes>
          <leafValues>
            7.4527218937873840e-02 -8.0701357126235962e-01</leafValues></_>
        <_>
          <internalNodes>
            0 -1 403 2.5980737060308456e-02</internalNodes>
          <leafValues>
            -3.6329042911529541e-01 1.2497455626726151e-01</leafValues></_>
        <_>
          <internalNodes>
            0 -1 605 4.0142081677913666e-02</internalNodes>
          <leafValues>
            -9.6223272383213043e-02 5.0977557897567749e-01</leafValues></_>
        <_>
          <internalNodes>
            0 -1 78 1.3312308583408594e-03</internalNodes>
          <leafValues>
            1.4102277755737305e+00 -5.2040386945009232e-02</leafValues></_>
        <_>
          <internalNodes>
            0 -1 96 2.8020437806844711e-02</internalNodes>
          <leafValues>
            -1.9702889025211334e-01 2.1269971132278442e-01</leafValues></_>
        <_>
          <internalNodes>
            0 -1 145 1.7660621553659439e-02</internalNodes>
          <leafValues>
            -5.5497944355010986e-01 9.1165319085121155e-02</leafValues></_>
        <_>
          <internalNodes>
            0 -1 700 1.2762005627155304e-01</internalNodes>
          <leafValues>
            5.7217344641685486e-02 -8.3944106101989746e-01</leafValues></_>
        <_>
          <internalNodes>
            0 -1 76 6.3024237751960754e-02</internalNodes>
          <leafValues>
            -6.5154157578945160e-02 6.6740775108337402e-01</leafValues></_>
        <_>
          <internalNodes>
            0 -1 350 4.3783229775726795e-03</internalNodes>
          <leafValues>
            4.4639545679092407e-01 -1.0672816634178162e-01</leafValues></_>
        <_>
          <internalNodes>
            0 -1 523 8.7589640170335770e-03</internalNodes>
          <leafValues>
            -4.0071237087249756e-01 1.1169403791427612e-01</leafValues></_>
        <_>
          <internalNodes>
            0 -1 415 3.6845244467258453e-02</internalNodes>
          <leafValues>
            -6.2143260240554810e-01 8.9375495910644531e-02</leafValues></_>
        <_>
          <internalNodes>
            0 -1 648 6.8629726767539978e-02</internalNodes>
          <leafValues>
            -8.2025893032550812e-02 5.0697678327560425e-01</leafValues></_>
        <_>
          <internalNodes>
            0 -1 702 2.8807535767555237e-02</internalNodes>
          <leafValues>
            -1.3281936943531036e-01 3.0988103151321411e-01</leafValues></_>
        <_>
          <internalNodes>
            0 -1 540 1.8723212182521820e-02</internalNodes>
          <leafValues>
            -2.2145670652389526e-01 1.6559316217899323e-01</leafValues></_>
        <_>
          <internalNodes>
            0 -1 40 5.8797830715775490e-03</internalNodes>
          <leafValues>
            3.4824606776237488e-01 -1.0765344649553299e-01</leafValues></_>
        <_>
          <internalNodes>
            0 -1 743 3.0917496769689023e-04</internalNodes>
          <leafValues>
            -1.3347282409667969e+00 3.9410330355167389e-02</leafValues></_>
        <_>
          <internalNodes>
            0 -1 34 2.8041239827871323e-02</internalNodes>
          <leafValues>
            1.0544949024915695e-01 -3.1654354929924011e-01</leafValues></_>
        <_>
          <internalNodes>
            0 -1 824 4.4682405889034271e-02</internalNodes>
          <leafValues>
            -5.9806983917951584e-02 6.0442620515823364e-01</leafValues></_>
        <_>
          <internalNodes>
            0 -1 713 2.2310018539428711e-02</internalNodes>
          <leafValues>
            1.5653984248638153e-01 -2.2246794402599335e-01</leafValues></_>
        <_>
          <internalNodes>
            0 -1 373 2.1911522373557091e-02</internalNodes>
          <leafValues>
            -3.8063645362854004e-01 9.2581577599048615e-02</leafValues></_>
        <_>
          <internalNodes>
            0 -1 820 1.5494145452976227e-02</internalNodes>
          <leafValues>
            -2.9195684194564819e-01 1.2161870300769806e-01</leafValues></_>
        <_>
          <internalNodes>
            0 -1 507 1.3135981746017933e-02</internalNodes>
          <leafValues>
            1.2201897054910660e-01 -2.8711217641830444e-01</leafValues></_>
        <_>
          <internalNodes>
            0 -1 97 3.5260260105133057e-02</internalNodes>
          <leafValues>
            -1.2781991064548492e-01 2.4212262034416199e-01</leafValues></_>
        <_>
          <internalNodes>
            0 -1 391 7.0373684167861938e-02</internalNodes>
          <leafValues>
            1.1138450354337692e-01 -3.3475801348686218e-01</leafValues></_>
        <_>
          <internalNodes>
            0 -1 389 2.2978380322456360e-02</internalNodes>
          <leafValues>
            1.0014466941356659e-01 -3.4440162777900696e-01</leafValues></_>
        <_>
          <internalNodes>
            0 -1 518 3.7405047565698624e-02</internalNodes>
          <leafValues>
            3.8209114223718643e-02 -1.1124867200851440e+00</leafValues></_>
        <_>
          <internalNodes>
            0 -1 744 1.0243791341781616e-01</internalNodes>
          <leafValues>
            5.4982554167509079e-02 -6.5404921770095825e-01</leafValues></_>
        <_>
          <internalNodes>
            0 -1 59 1.0177013278007507e-01</internalNodes>
          <leafValues>
            -1.4385406672954559e-01 2.2312112152576447e-01</leafValues></_>
        <_>
          <internalNodes>
            0 -1 131 4.9976515583693981e-04</internalNodes>
          <leafValues>
            2.5207195281982422e+00 -3.3217985183000565e-02</leafValues></_>
        <_>
          <internalNodes>
            0 -1 404 3.0078908428549767e-02</internalNodes>
          <leafValues>
            -1.0076944530010223e-01 3.5824841260910034e-01</leafValues></_>
        <_>
          <internalNodes>
            0 -1 497 2.2887852042913437e-02</internalNodes>
          <leafValues>
            7.8835174441337585e-02 -4.6443611383438110e-01</leafValues></_>
        <_>
          <internalNodes>
            0 -1 696 3.9146845228970051e-03</internalNodes>
          <leafValues>
            -4.7371715307235718e-01 7.4950814247131348e-02</leafValues></_>
        <_>
          <internalNodes>
            0 -1 259 2.9696658253669739e-02</internalNodes>
          <leafValues>
            6.9778159260749817e-02 -5.6622165441513062e-01</leafValues></_>
        <_>
          <internalNodes>
            0 -1 636 4.8980101943016052e-02</internalNodes>
          <leafValues>
            -5.8978877961635590e-02 6.5055412054061890e-01</leafValues></_>
        <_>
          <internalNodes>
            0 -1 280 9.1373980045318604e-02</internalNodes>
          <leafValues>
            -1.5156136453151703e-01 2.2805072367191315e-01</leafValues></_>
        <_>
          <internalNodes>
            0 -1 474 4.9396745860576630e-02</internalNodes>
          <leafValues>
            5.5089883506298065e-02 -7.5178480148315430e-01</leafValues></_>
        <_>
          <internalNodes>
            0 -1 251 2.5585958734154701e-02</internalNodes>
          <leafValues>
            -1.2630058825016022e-01 2.7389651536941528e-01</leafValues></_>
        <_>
          <internalNodes>
            0 -1 820 3.4548375755548477e-02</internalNodes>
          <leafValues>
            -8.9657232165336609e-02 3.3454194664955139e-01</leafValues></_>
        <_>
          <internalNodes>
            0 -1 272 1.7928959801793098e-02</internalNodes>
          <leafValues>
            -1.9780673086643219e-01 1.4499014616012573e-01</leafValues></_>
        <_>
          <internalNodes>
            0 -1 205 7.0255482569336891e-03</internalNodes>
          <leafValues>
            3.6646276712417603e-01 -8.2240864634513855e-02</leafValues></_>
        <_>
          <internalNodes>
            0 -1 365 1.2289736187085509e-03</internalNodes>
          <leafValues>
            4.4448471069335938e-01 -7.2569757699966431e-02</leafValues></_>
        <_>
          <internalNodes>
            0 -1 554 1.5163824427872896e-03</internalNodes>
          <leafValues>
            -2.8376385569572449e-01 1.2346029281616211e-01</leafValues></_>
        <_>
          <internalNodes>
            0 -1 782 2.6407675817608833e-02</internalNodes>
          <leafValues>
            5.0972614437341690e-02 -6.3441222906112671e-01</leafValues></_>
        <_>
          <internalNodes>
            0 -1 657 2.1451290696859360e-02</internalNodes>
          <leafValues>
            -1.2938712537288666e-01 2.2972473502159119e-01</leafValues></_>
        <_>
          <internalNodes>
            0 -1 290 5.7885650545358658e-02</internalNodes>
          <leafValues>
            -2.4118988215923309e-01 1.5969114005565643e-01</leafValues></_>
        <_>
          <internalNodes>
            0 -1 429 5.0679970532655716e-02</internalNodes>
          <leafValues>
            2.9887380078434944e-02 -1.5098500251770020e+00</leafValues></_>
        <_>
          <internalNodes>
            0 -1 695 2.6935376226902008e-02</internalNodes>
          <leafValues>
            -1.6590052843093872e-01 1.7262235283851624e-01</leafValues></_>
        <_>
          <internalNodes>
            0 -1 640 3.5870380699634552e-02</internalNodes>
          <leafValues>
            5.5955164134502411e-02 -4.8713618516921997e-01</leafValues></_>
        <_>
          <internalNodes>
            0 -1 486 1.0945554077625275e-01</internalNodes>
          <leafValues>
            4.7892946749925613e-02 -5.8269655704498291e-01</leafValues></_>
        <_>
          <internalNodes>
            0 -1 723 5.8847151696681976e-02</internalNodes>
          <leafValues>
            -5.2800502628087997e-02 5.1665461063385010e-01</leafValues></_></weakClassifiers></_>
    <!-- stage 6 -->
    <_>
      <maxWeakCount>63</maxWeakCount>
      <stageThreshold>-1.4142528772354126e+00</stageThreshold>
      <weakClassifiers>
        <_>
          <internalNodes>
            0 -1 691 5.5510945618152618e-02</internalNodes>
          <leafValues>
            6.3104353845119476e-02 7.9717040061950684e-01</leafValues></_>
        <_>
          <internalNodes>
            0 -1 794 4.0170039981603622e-02</internalNodes>
          <leafValues>
            -1.5810813009738922e-01 6.5735435485839844e-01</leafValues></_>
        <_>
          <internalNodes>
            0 -1 367 5.7664625346660614e-02</internalNodes>
          <leafValues>
            -1.3878652453422546e-01 5.1430857181549072e-01</leafValues></_>
        <_>
          <internalNodes>
            0 -1 689 5.6784018874168396e-02</internalNodes>
          <leafValues>
            -1.1091443151235580e-01 4.8833760619163513e-01</leafValues></_>
        <_>
          <internalNodes>
            0 -1 258 9.8703771072905511e-05</internalNodes>
          <leafValues>
            6.4453387260437012e-01 -1.4889742434024811e-01</leafValues></_>
        <_>
          <internalNodes>
            0 -1 298 2.2247552871704102e-02</internalNodes>
          <leafValues>
            -4.6375182271003723e-01 1.4595393836498260e-01</leafValues></_>
        <_>
          <internalNodes>
            0 -1 396 3.0465304851531982e-02</internalNodes>
          <leafValues>
            -1.7457269132137299e-01 2.6983428001403809e-01</leafValues></_>
        <_>
          <internalNodes>
            0 -1 50 5.1009137183427811e-02</internalNodes>
          <leafValues>
            -1.3384538888931274e-01 4.1575905680656433e-01</leafValues></_>
        <_>
          <internalNodes>
            0 -1 490 6.2042288482189178e-02</internalNodes>
          <leafValues>
            -1.0329409688711166e-01 6.0010415315628052e-01</leafValues></_>
        <_>
          <internalNodes>
            0 -1 302 4.6351402997970581e-02</internalNodes>
          <leafValues>
            -3.5183763504028320e-01 1.8715922534465790e-01</leafValues></_>
        <_>
          <internalNodes>
            0 -1 386 3.6126308143138885e-02</internalNodes>
          <leafValues>
            -2.9253667593002319e-01 1.7828142642974854e-01</leafValues></_>
        <_>
          <internalNodes>
            0 -1 531 3.7777103483676910e-02</internalNodes>
          <leafValues>
            -1.1871779710054398e-01 3.9789086580276489e-01</leafValues></_>
        <_>
          <internalNodes>
            0 -1 733 4.3841078877449036e-02</internalNodes>
          <leafValues>
            7.9646684229373932e-02 -8.0274707078933716e-01</leafValues></_>
        <_>
          <internalNodes>
            0 -1 816 2.2775717079639435e-02</internalNodes>
          <leafValues>
            -9.2713427543640137e-01 4.7417081892490387e-02</leafValues></_>
        <_>
          <internalNodes>
            0 -1 46 3.4797370433807373e-02</internalNodes>
          <leafValues>
            -1.0448640584945679e-01 3.5924488306045532e-01</leafValues></_>
        <_>
          <internalNodes>
            0 -1 25 1.4940055087208748e-02</internalNodes>
          <leafValues>
            2.1980279684066772e-01 -1.6253776848316193e-01</leafValues></_>
        <_>
          <internalNodes>
            0 -1 718 7.0858113467693329e-03</internalNodes>
          <leafValues>
            -3.8163229823112488e-01 9.2949062585830688e-02</leafValues></_>
        <_>
          <internalNodes>
            0 -1 195 3.9616100490093231e-02</internalNodes>
          <leafValues>
            -1.0556012392044067e-01 3.4925383329391479e-01</leafValues></_>
        <_>
          <internalNodes>
            0 -1 14 4.6579584479331970e-02</internalNodes>
          <leafValues>
            -7.2378121316432953e-02 5.3046470880508423e-01</leafValues></_>
        <_>
          <internalNodes>
            0 -1 350 1.5223272144794464e-02</internalNodes>
          <leafValues>
            1.6997835040092468e-01 -1.8818187713623047e-01</leafValues></_>
        <_>
          <internalNodes>
            0 -1 693 8.4489837288856506e-02</internalNodes>
          <leafValues>
            -1.4335185289382935e-01 2.3026819527149200e-01</leafValues></_>
        <_>
          <internalNodes>
            0 -1 569 1.5399010851979256e-02</internalNodes>
          <leafValues>
            -1.2999846041202545e-01 2.7311709523200989e-01</leafValues></_>
        <_>
          <internalNodes>
            0 -1 724 5.9557501226663589e-02</internalNodes>
          <leafValues>
            -5.9903178364038467e-02 5.9246325492858887e-01</leafValues></_>
        <_>
          <internalNodes>
            0 -1 44 1.8654895946383476e-02</internalNodes>
          <leafValues>
            9.8707817494869232e-02 -3.0080437660217285e-01</leafValues></_>
        <_>
          <internalNodes>
            0 -1 732 2.8461858630180359e-02</internalNodes>
          <leafValues>
            5.1851261407136917e-02 -6.0840445756912231e-01</leafValues></_>
        <_>
          <internalNodes>
            0 -1 818 1.2375196442008018e-02</internalNodes>
          <leafValues>
            -3.3950692415237427e-01 9.6593953669071198e-02</leafValues></_>
        <_>
          <internalNodes>
            0 -1 673 4.0525089949369431e-02</internalNodes>
          <leafValues>
            4.4237241148948669e-02 -7.7143269777297974e-01</leafValues></_>
        <_>
          <internalNodes>
            0 -1 10 4.6018190681934357e-02</internalNodes>
          <leafValues>
            -9.8001882433891296e-02 3.3203440904617310e-01</leafValues></_>
        <_>
          <internalNodes>
            0 -1 106 2.2501021157950163e-04</internalNodes>
          <leafValues>
            5.8885973691940308e-01 -6.1381608247756958e-02</leafValues></_>
        <_>
          <internalNodes>
            0 -1 757 1.1757578700780869e-02</internalNodes>
          <leafValues>
            -3.5790151357650757e-01 9.1445691883563995e-02</leafValues></_>
        <_>
          <internalNodes>
            0 -1 546 1.4662383124232292e-02</internalNodes>
          <leafValues>
            1.1299227178096771e-01 -2.9651886224746704e-01</leafValues></_>
        <_>
          <internalNodes>
            0 -1 794 6.6784828901290894e-02</internalNodes>
          <leafValues>
            -4.0961600840091705e-02 8.9435625076293945e-01</leafValues></_>
        <_>
          <internalNodes>
            0 -1 633 6.4083207398653030e-03</internalNodes>
          <leafValues>
            -6.3121104240417480e-01 5.4088674485683441e-02</leafValues></_>
        <_>
          <internalNodes>
            0 -1 825 3.3632345497608185e-02</internalNodes>
          <leafValues>
            4.8509266227483749e-02 -7.1063303947448730e-01</leafValues></_>
        <_>
          <internalNodes>
            0 -1 209 6.2826380133628845e-02</internalNodes>
          <leafValues>
            -2.0861457288265228e-01 1.4288644492626190e-01</leafValues></_>
        <_>
          <internalNodes>
            0 -1 648 4.2113997042179108e-02</internalNodes>
          <leafValues>
            -1.1649201065301895e-01 2.8197690844535828e-01</leafValues></_>
        <_>
          <internalNodes>
            0 -1 810 3.7801541388034821e-02</internalNodes>
          <leafValues>
            4.3797828257083893e-02 -9.7793525457382202e-01</leafValues></_>
        <_>
          <internalNodes>
            0 -1 384 1.0154807940125465e-02</internalNodes>
          <leafValues>
            -2.4515609443187714e-01 1.2314423173666000e-01</leafValues></_>
        <_>
          <internalNodes>
            0 -1 185 9.4782516360282898e-02</internalNodes>
          <leafValues>
            5.0007104873657227e-02 -6.8422579765319824e-01</leafValues></_>
        <_>
          <internalNodes>
            0 -1 822 1.1223241686820984e-02</internalNodes>
          <leafValues>
            -1.0063076019287109e+00 3.8005605340003967e-02</leafValues></_>
        <_>
          <internalNodes>
            0 -1 549 3.0272604897618294e-02</internalNodes>
          <leafValues>
            -5.4730083793401718e-02 5.2902191877365112e-01</leafValues></_>
        <_>
          <internalNodes>
            0 -1 74 3.7392295897006989e-02</internalNodes>
          <leafValues>
            -3.5973182320594788e-01 7.4551634490489960e-02</leafValues></_>
        <_>
          <internalNodes>
            0 -1 636 3.9415903389453888e-02</internalNodes>
          <leafValues>
            -5.8308824896812439e-02 5.7063645124435425e-01</leafValues></_>
        <_>
          <internalNodes>
            0 -1 182 2.0242376253008842e-02</internalNodes>
          <leafValues>
            -1.6290843486785889e-01 1.7782853543758392e-01</leafValues></_>
        <_>
          <internalNodes>
            0 -1 249 4.9614738672971725e-03</internalNodes>
          <leafValues>
            2.8990370035171509e-01 -8.9986912906169891e-02</leafValues></_>
        <_>
          <internalNodes>
            0 -1 542 6.1591430567204952e-03</internalNodes>
          <leafValues>
            -1.7510833740234375e+00 3.0758120119571686e-02</leafValues></_>
        <_>
          <internalNodes>
            0 -1 328 8.7223965674638748e-03</internalNodes>
          <leafValues>
            -1.9629593193531036e-01 1.5932872891426086e-01</leafValues></_>
        <_>
          <internalNodes>
            0 -1 13 5.2082287147641182e-03</internalNodes>
          <leafValues>
            2.4423867464065552e-01 -1.1357244849205017e-01</leafValues></_>
        <_>
          <internalNodes>
            0 -1 770 8.3699956303462386e-04</internalNodes>
          <leafValues>
            -5.5005538463592529e-01 4.5586507767438889e-02</leafValues></_>
        <_>
          <internalNodes>
            0 -1 307 5.9425277868285775e-04</internalNodes>
          <leafValues>
            5.9479230642318726e-01 -4.6002842485904694e-02</leafValues></_>
        <_>
          <internalNodes>
            0 -1 236 2.6953475549817085e-02</internalNodes>
          <leafValues>
            -9.5427975058555603e-02 2.7636417746543884e-01</leafValues></_>
        <_>
          <internalNodes>
            0 -1 759 3.5062845796346664e-02</internalNodes>
          <leafValues>
            -4.0761128067970276e-01 7.1629054844379425e-02</leafValues></_>
        <_>
          <internalNodes>
            0 -1 671 4.5939527451992035e-02</internalNodes>
          <leafValues>
            -6.4998559653759003e-02 3.9738887548446655e-01</leafValues></_>
        <_>
          <internalNodes>
            0 -1 390 3.6556690931320190e-02</internalNodes>
          <leafValues>
            6.3993796706199646e-02 -3.9119932055473328e-01</leafValues></_>
        <_>
          <internalNodes>
            0 -1 627 8.4914239123463631e-03</internalNodes>
          <leafValues>
            -3.0375370383262634e-01 9.3053892254829407e-02</leafValues></_>
        <_>
          <internalNodes>
            0 -1 71 7.6303019886836410e-04</internalNodes>
          <leafValues>
            4.1122347116470337e-01 -6.6194236278533936e-02</leafValues></_>
        <_>
          <internalNodes>
            0 -1 238 6.0967989265918732e-02</internalNodes>
          <leafValues>
            -1.8939466774463654e-01 1.5532974898815155e-01</leafValues></_>
        <_>
          <internalNodes>
            0 -1 603 6.3568249344825745e-02</internalNodes>
          <leafValues>
            -3.4072723239660263e-02 1.1581022739410400e+00</leafValues></_>
        <_>
          <internalNodes>
            0 -1 396 1.4603925868868828e-02</internalNodes>
          <leafValues>
            -2.3151206970214844e-01 1.2336375564336777e-01</leafValues></_>
        <_>
          <internalNodes>
            0 -1 158 1.3679535128176212e-02</internalNodes>
          <leafValues>
            2.3207120597362518e-01 -1.0731092840433121e-01</leafValues></_>
        <_>
          <internalNodes>
            0 -1 3 6.5644127316772938e-03</internalNodes>
          <leafValues>
            -2.3043718934059143e-01 1.2663026154041290e-01</leafValues></_>
        <_>
          <internalNodes>
            0 -1 417 7.7162019908428192e-02</internalNodes>
          <leafValues>
            3.7500414997339249e-02 -8.8711452484130859e-01</leafValues></_>
        <_>
          <internalNodes>
            0 -1 338 1.4819768071174622e-01</internalNodes>
          <leafValues>
            2.8042532503604889e-02 -2.1718986034393311e+00</leafValues></_></weakClassifiers></_>
    <!-- stage 7 -->
    <_>
      <maxWeakCount>76</maxWeakCount>
      <stageThreshold>-1.6150226593017578e+00</stageThreshold>
      <weakClassifiers>
        <_>
          <internalNodes>
            0 -1 755 2.0613420754671097e-02</internalNodes>
          <leafValues>
            -9.1358840465545654e-02 5.1117068529129028e-01</leafValues></_>
        <_>
          <internalNodes>
            0 -1 714 5.2605785429477692e-02</internalNodes>
          <leafValues>
            -1.2229552865028381e-01 5.7184040546417236e-01</leafValues></_>
        <_>
          <internalNodes>
            0 -1 544 4.1796304285526276e-02</internalNodes>
          <leafValues>
            -2.1050232648849487e-01 4.4253808259963989e-01</leafValues></_>
        <_>
          <internalNodes>
            0 -1 720 1.4949936419725418e-02</internalNodes>
          <leafValues>
            2.2747369110584259e-01 -2.8524634242057800e-01</leafValues></_>
        <_>
          <internalNodes>
            0 -1 141 2.8657176881097257e-04</internalNodes>
          <leafValues>
            5.3802365064620972e-01 -1.4081719517707825e-01</leafValues></_>
        <_>
          <internalNodes>
            0 -1 754 4.6579547226428986e-02</internalNodes>
          <leafValues>
            7.2162888944149017e-02 -9.5764249563217163e-01</leafValues></_>
        <_>
          <internalNodes>
            0 -1 644 2.7106009423732758e-02</internalNodes>
          <leafValues>
            -1.8099008500576019e-01 3.1367513537406921e-01</leafValues></_>
        <_>
          <internalNodes>
            0 -1 781 1.4132127165794373e-02</internalNodes>
          <leafValues>
            1.1362873762845993e-01 -4.3495449423789978e-01</leafValues></_>
        <_>
          <internalNodes>
            0 -1 489 2.9383331537246704e-02</internalNodes>
          <leafValues>
            -2.0041356980800629e-01 2.2783453762531281e-01</leafValues></_>
        <_>
          <internalNodes>
            0 -1 756 2.8015049174427986e-02</internalNodes>
          <leafValues>
            6.3809432089328766e-02 -6.4062958955764771e-01</leafValues></_>
        <_>
          <internalNodes>
            0 -1 492 3.9670802652835846e-02</internalNodes>
          <leafValues>
            -1.1630588769912720e-01 3.1611132621765137e-01</leafValues></_>
        <_>
          <internalNodes>
            0 -1 810 4.7499693930149078e-02</internalNodes>
          <leafValues>
            3.8755182176828384e-02 -1.6601411104202271e+00</leafValues></_>
        <_>
          <internalNodes>
            0 -1 460 3.5714861005544662e-02</internalNodes>
          <leafValues>
            -1.1948534101247787e-01 4.1680681705474854e-01</leafValues></_>
        <_>
          <internalNodes>
            0 -1 811 6.1055237893015146e-04</internalNodes>
          <leafValues>
            -1.2532007694244385e+00 3.5978391766548157e-02</leafValues></_>
        <_>
          <internalNodes>
            0 -1 221 8.4859540220350027e-04</internalNodes>
          <leafValues>
            5.0409591197967529e-01 -7.7271915972232819e-02</leafValues></_>
        <_>
          <internalNodes>
            0 -1 396 2.3308051750063896e-02</internalNodes>
          <leafValues>
            -2.1798697113990784e-01 1.8335166573524475e-01</leafValues></_>
        <_>
          <internalNodes>
            0 -1 10 6.3124388456344604e-02</internalNodes>
          <leafValues>
            -7.1661621332168579e-02 4.7118109464645386e-01</leafValues></_>
        <_>
          <internalNodes>
            0 -1 658 3.5406187176704407e-02</internalNodes>
          <leafValues>
            -2.0664016902446747e-01 1.5483170747756958e-01</leafValues></_>
        <_>
          <internalNodes>
            0 -1 367 3.9053618907928467e-02</internalNodes>
          <leafValues>
            -1.3625253736972809e-01 2.7370226383209229e-01</leafValues></_>
        <_>
          <internalNodes>
            0 -1 458 3.0015153810381889e-02</internalNodes>
          <leafValues>
            -4.6902605891227722e-01 7.4310630559921265e-02</leafValues></_>
        <_>
          <internalNodes>
            0 -1 596 8.6276372894644737e-03</internalNodes>
          <leafValues>
            -3.9247658848762512e-01 8.4174975752830505e-02</leafValues></_>
        <_>
          <internalNodes>
            0 -1 723 7.3300838470458984e-02</internalNodes>
          <leafValues>
            -5.0038833171129227e-02 6.4910954236984253e-01</leafValues></_>
        <_>
          <internalNodes>
            0 -1 434 3.5641338676214218e-02</internalNodes>
          <leafValues>
            -5.3390932083129883e-01 8.1277951598167419e-02</leafValues></_>
        <_>
          <internalNodes>
            0 -1 752 3.2007914036512375e-02</internalNodes>
          <leafValues>
            8.7213635444641113e-02 -3.6856758594512939e-01</leafValues></_>
        <_>
          <internalNodes>
            0 -1 691 4.1044548153877258e-02</internalNodes>
          <leafValues>
            -1.1357206106185913e-01 2.4449528753757477e-01</leafValues></_>
        <_>
          <internalNodes>
            0 -1 251 4.1607849299907684e-02</internalNodes>
          <leafValues>
            -9.4245083630084991e-02 3.7358167767524719e-01</leafValues></_>
        <_>
          <internalNodes>
            0 -1 816 1.0709394700825214e-02</internalNodes>
          <leafValues>
            -2.2636144161224365e+00 2.6049720123410225e-02</leafValues></_>
        <_>
          <internalNodes>
            0 -1 364 6.9490550085902214e-03</internalNodes>
          <leafValues>
            2.6667919754981995e-01 -1.1790859699249268e-01</leafValues></_>
        <_>
          <internalNodes>
            0 -1 641 4.3440658599138260e-02</internalNodes>
          <leafValues>
            -6.1434552073478699e-02 6.0503226518630981e-01</leafValues></_>
        <_>
          <internalNodes>
            0 -1 638 2.9552886262536049e-02</internalNodes>
          <leafValues>
            7.2071343660354614e-02 -5.2114838361740112e-01</leafValues></_>
        <_>
          <internalNodes>
            0 -1 230 2.5622120127081871e-02</internalNodes>
          <leafValues>
            -1.2988504767417908e-01 2.2827254235744476e-01</leafValues></_>
        <_>
          <internalNodes>
            0 -1 425 1.2625297531485558e-02</internalNodes>
          <leafValues>
            -5.4592865705490112e-01 5.4273076355457306e-02</leafValues></_>
        <_>
          <internalNodes>
            0 -1 645 5.6902788579463959e-02</internalNodes>
          <leafValues>
            4.4796712696552277e-02 -8.6304432153701782e-01</leafValues></_>
        <_>
          <internalNodes>
            0 -1 481 1.6839340329170227e-02</internalNodes>
          <leafValues>
            2.8880038857460022e-01 -1.0722277313470840e-01</leafValues></_>
        <_>
          <internalNodes>
            0 -1 516 1.0432719253003597e-02</internalNodes>
          <leafValues>
            -4.1866600513458252e-01 7.8646257519721985e-02</leafValues></_>
        <_>
          <internalNodes>
            0 -1 218 5.5192591389641166e-04</internalNodes>
          <leafValues>
            1.3639197349548340e+00 -2.9916133731603622e-02</leafValues></_>
        <_>
          <internalNodes>
            0 -1 17 4.3659090995788574e-02</internalNodes>
          <leafValues>
            -2.9226583242416382e-01 1.1010080575942993e-01</leafValues></_>
        <_>
          <internalNodes>
            0 -1 33 7.6971516013145447e-02</internalNodes>
          <leafValues>
            4.8514749854803085e-02 -6.1487996578216553e-01</leafValues></_>
        <_>
          <internalNodes>
            0 -1 696 1.9745338708162308e-02</internalNodes>
          <leafValues>
            -1.8860849738121033e-01 1.5731629729270935e-01</leafValues></_>
        <_>
          <internalNodes>
            0 -1 288 4.1706105694174767e-03</internalNodes>
          <leafValues>
            2.8711405396461487e-01 -1.0250090807676315e-01</leafValues></_>
        <_>
          <internalNodes>
            0 -1 330 2.1798763424158096e-02</internalNodes>
          <leafValues>
            -1.5576280653476715e-01 1.8283751606941223e-01</leafValues></_>
        <_>
          <internalNodes>
            0 -1 766 4.8007532954216003e-02</internalNodes>
          <leafValues>
            -4.7004446387290955e-02 6.0508018732070923e-01</leafValues></_>
        <_>
          <internalNodes>
            0 -1 94 2.3631339892745018e-02</internalNodes>
          <leafValues>
            -1.5886209905147552e-01 1.7420600354671478e-01</leafValues></_>
        <_>
          <internalNodes>
            0 -1 630 8.1382043659687042e-02</internalNodes>
          <leafValues>
            -1.2237208336591721e-01 2.5567349791526794e-01</leafValues></_>
        <_>
          <internalNodes>
            0 -1 703 4.0775235742330551e-02</internalNodes>
          <leafValues>
            3.9810825139284134e-02 -7.0942884683609009e-01</leafValues></_>
        <_>
          <internalNodes>
            0 -1 300 2.2453915327787399e-02</internalNodes>
          <leafValues>
            -1.4099031686782837e-01 1.9939807057380676e-01</leafValues></_>
        <_>
          <internalNodes>
            0 -1 609 9.7259804606437683e-02</internalNodes>
          <leafValues>
            -4.4424626976251602e-02 6.0144954919815063e-01</leafValues></_>
        <_>
          <internalNodes>
            0 -1 681 1.7254894599318504e-02</internalNodes>
          <leafValues>
            1.2489987164735794e-01 -2.3660899698734283e-01</leafValues></_>
        <_>
          <internalNodes>
            0 -1 731 8.9277133345603943e-02</internalNodes>
          <leafValues>
            2.7370724827051163e-02 -1.4526337385177612e+00</leafValues></_>
        <_>
          <internalNodes>
            0 -1 527 6.9036722183227539e-02</internalNodes>
          <leafValues>
            6.5686188638210297e-02 -3.7940919399261475e-01</leafValues></_>
        <_>
          <internalNodes>
            0 -1 806 5.5545512586832047e-02</internalNodes>
          <leafValues>
            5.9071876108646393e-02 -4.1778352856636047e-01</leafValues></_>
        <_>
          <internalNodes>
            0 -1 49 3.9110511541366577e-02</internalNodes>
          <leafValues>
            -3.1110918521881104e-01 8.7466500699520111e-02</leafValues></_>
        <_>
          <internalNodes>
            0 -1 487 2.6134896278381348e-01</internalNodes>
          <leafValues>
            4.1496578603982925e-02 -7.9853749275207520e-01</leafValues></_>
        <_>
          <internalNodes>
            0 -1 202 4.3756598606705666e-03</internalNodes>
          <leafValues>
            2.8455623984336853e-01 -9.2771373689174652e-02</leafValues></_>
        <_>
          <internalNodes>
            0 -1 409 2.2798035293817520e-02</internalNodes>
          <leafValues>
            -1.4555995166301727e-01 1.8255662918090820e-01</leafValues></_>
        <_>
          <internalNodes>
            0 -1 468 2.6069216430187225e-02</internalNodes>
          <leafValues>
            -4.6859994530677795e-01 6.2064830213785172e-02</leafValues></_>
        <_>
          <internalNodes>
            0 -1 535 3.1289629638195038e-02</internalNodes>
          <leafValues>
            4.6024799346923828e-02 -6.6380745172500610e-01</leafValues></_>
        <_>
          <internalNodes>
            0 -1 474 4.9281902611255646e-02</internalNodes>
          <leafValues>
            3.8479216396808624e-02 -6.1932408809661865e-01</leafValues></_>
        <_>
          <internalNodes>
            0 -1 485 3.2902345061302185e-02</internalNodes>
          <leafValues>
            -8.8209703564643860e-02 2.8148049116134644e-01</leafValues></_>
        <_>
          <internalNodes>
            0 -1 76 3.4545399248600006e-02</internalNodes>
          <leafValues>
            -8.6033433675765991e-02 2.9013183712959290e-01</leafValues></_>
        <_>
          <internalNodes>
            0 -1 19 3.7590228021144867e-02</internalNodes>
          <leafValues>
            6.8165570497512817e-02 -4.4068774580955505e-01</leafValues></_>
        <_>
          <internalNodes>
            0 -1 508 1.6700955107808113e-02</internalNodes>
          <leafValues>
            9.8004758358001709e-02 -2.5515425205230713e-01</leafValues></_>
        <_>
          <internalNodes>
            0 -1 11 3.9899372495710850e-03</internalNodes>
          <leafValues>
            -3.0653175711631775e-01 7.7460736036300659e-02</leafValues></_>
        <_>
          <internalNodes>
            0 -1 104 1.7663884500507265e-04</internalNodes>
          <leafValues>
            5.0434768199920654e-01 -4.8865210264921188e-02</leafValues></_>
        <_>
          <internalNodes>
            0 -1 241 3.5746984183788300e-02</internalNodes>
          <leafValues>
            4.0133383125066757e-02 -6.7962676286697388e-01</leafValues></_>
        <_>
          <internalNodes>
            0 -1 132 4.4900968670845032e-02</internalNodes>
          <leafValues>
            -9.1120377182960510e-02 2.8107768297195435e-01</leafValues></_>
        <_>
          <internalNodes>
            0 -1 367 7.2773933410644531e-02</internalNodes>
          <leafValues>
            -6.0346361249685287e-02 5.2765446901321411e-01</leafValues></_>
        <_>
          <internalNodes>
            0 -1 463 4.7082614153623581e-02</internalNodes>
          <leafValues>
            3.1260419636964798e-02 -1.0218188762664795e+00</leafValues></_>
        <_>
          <internalNodes>
            0 -1 353 4.1744522750377655e-02</internalNodes>
          <leafValues>
            -8.9558430016040802e-02 2.5604447722434998e-01</leafValues></_>
        <_>
          <internalNodes>
            0 -1 233 2.5089249014854431e-02</internalNodes>
          <leafValues>
            -1.1255701631307602e-01 2.3605589568614960e-01</leafValues></_>
        <_>
          <internalNodes>
            0 -1 693 1.1186876893043518e-01</internalNodes>
          <leafValues>
            -9.4125352799892426e-02 2.6887667179107666e-01</leafValues></_>
        <_>
          <internalNodes>
            0 -1 136 9.0143848210573196e-03</internalNodes>
          <leafValues>
            -2.2268071770668030e-01 1.0043857246637344e-01</leafValues></_>
        <_>
          <internalNodes>
            0 -1 657 2.7371354401111603e-02</internalNodes>
          <leafValues>
            -1.0154101997613907e-01 2.5262805819511414e-01</leafValues></_>
        <_>
          <internalNodes>
            0 -1 427 2.1917957812547684e-02</internalNodes>
          <leafValues>
            5.7395964860916138e-02 -4.1172933578491211e-01</leafValues></_>
        <_>
          <internalNodes>
            0 -1 169 3.2457530498504639e-02</internalNodes>
          <leafValues>
            -9.9259011447429657e-02 2.3550161719322205e-01</leafValues></_>
        <_>
          <internalNodes>
            0 -1 21 2.8669729828834534e-02</internalNodes>
          <leafValues>
            -2.7568587660789490e-01 9.4160616397857666e-02</leafValues></_></weakClassifiers></_>
    <!-- stage 8 -->
    <_>
      <maxWeakCount>82</maxWeakCount>
      <stageThreshold>-1.3590884208679199e+00</stageThreshold>
      <weakClassifiers>
        <_>
          <internalNodes>
            0 -1 755 2.9019726440310478e-02</internalNodes>
          <leafValues>
            1.7972068861126900e-02 6.3372522592544556e-01</leafValues></_>
        <_>
          <internalNodes>
            0 -1 758 4.5813873410224915e-02</internalNodes>
          <leafValues>
            -1.5663626790046692e-01 5.5776935815811157e-01</leafValues></_>
        <_>
          <internalNodes>
            0 -1 544 6.8906843662261963e-02</internalNodes>
          <leafValues>
            -1.1582666635513306e-01 8.1696158647537231e-01</leafValues></_>
        <_>
          <internalNodes>
            0 -1 575 9.1742351651191711e-03</internalNodes>
          <leafValues>
            2.2262866795063019e-01 -2.2269302606582642e-01</leafValues></_>
        <_>
          <internalNodes>
            0 -1 550 2.2968104109168053e-02</internalNodes>
          <leafValues>
            3.8532759994268417e-02 -7.0886319875717163e-01</leafValues></_>
        <_>
          <internalNodes>
            0 -1 764 4.3259886297164485e-05</internalNodes>
          <leafValues>
            -1.3877626657485962e+00 5.3317710757255554e-02</leafValues></_>
        <_>
          <internalNodes>
            0 -1 485 4.0618836879730225e-02</internalNodes>
          <leafValues>
            -9.4647876918315887e-02 4.5778334140777588e-01</leafValues></_>
        <_>
          <internalNodes>
            0 -1 7 2.8561295941472054e-02</internalNodes>
          <leafValues>
            -2.0083530247211456e-01 1.9812951982021332e-01</leafValues></_>
        <_>
          <internalNodes>
            0 -1 32 1.7298992723226547e-02</internalNodes>
          <leafValues>
            1.1251984536647797e-01 -3.0379787087440491e-01</leafValues></_>
        <_>
          <internalNodes>
            0 -1 798 4.2052924633026123e-02</internalNodes>
          <leafValues>
            -7.0332102477550507e-02 5.2677494287490845e-01</leafValues></_>
        <_>
          <internalNodes>
            0 -1 757 1.8488628789782524e-02</internalNodes>
          <leafValues>
            -2.8448280692100525e-01 1.5512326359748840e-01</leafValues></_>
        <_>
          <internalNodes>
            0 -1 399 4.5391574501991272e-02</internalNodes>
          <leafValues>
            -4.1430932283401489e-01 1.0864190012216568e-01</leafValues></_>
        <_>
          <internalNodes>
            0 -1 675 1.2690598145127296e-02</internalNodes>
          <leafValues>
            1.8026603758335114e-01 -1.9049212336540222e-01</leafValues></_>
        <_>
          <internalNodes>
            0 -1 820 2.8330834582448006e-02</internalNodes>
          <leafValues>
            -1.5059536695480347e-01 2.8061023354530334e-01</leafValues></_>
        <_>
          <internalNodes>
            0 -1 670 1.4831081032752991e-02</internalNodes>
          <leafValues>
            -3.0615061521530151e-01 1.0800251364707947e-01</leafValues></_>
        <_>
          <internalNodes>
            0 -1 460 6.5676145255565643e-02</internalNodes>
          <leafValues>
            -5.4020289331674576e-02 7.1710509061813354e-01</leafValues></_>
        <_>
          <internalNodes>
            0 -1 411 3.0202107504010201e-02</internalNodes>
          <leafValues>
            -2.9330569505691528e-01 1.2456559389829636e-01</leafValues></_>
        <_>
          <internalNodes>
            0 -1 70 1.3580262020695955e-04</internalNodes>
          <leafValues>
            1.4894189834594727e+00 -3.0215540900826454e-02</leafValues></_>
        <_>
          <internalNodes>
            0 -1 222 1.0176124051213264e-02</internalNodes>
          <leafValues>
            -8.3785474300384521e-01 5.3094848990440369e-02</leafValues></_>
        <_>
          <internalNodes>
            0 -1 470 5.4344028234481812e-02</internalNodes>
          <leafValues>
            -6.4924553036689758e-02 5.7584440708160400e-01</leafValues></_>
        <_>
          <internalNodes>
            0 -1 705 4.2589060962200165e-02</internalNodes>
          <leafValues>
            4.9182157963514328e-02 -7.9274904727935791e-01</leafValues></_>
        <_>
          <internalNodes>
            0 -1 80 2.5112744420766830e-02</internalNodes>
          <leafValues>
            -1.3745227456092834e-01 2.2026370465755463e-01</leafValues></_>
        <_>
          <internalNodes>
            0 -1 366 1.6125545371323824e-03</internalNodes>
          <leafValues>
            3.2951873540878296e-01 -8.9343994855880737e-02</leafValues></_>
        <_>
          <internalNodes>
            0 -1 372 1.0343182086944580e-01</internalNodes>
          <leafValues>
            5.1783788949251175e-02 -5.5365926027297974e-01</leafValues></_>
        <_>
          <internalNodes>
            0 -1 735 2.6309296488761902e-02</internalNodes>
          <leafValues>
            5.1894728094339371e-02 -5.7500147819519043e-01</leafValues></_>
        <_>
          <internalNodes>
            0 -1 394 5.5093467235565186e-03</internalNodes>
          <leafValues>
            -3.7772676348686218e-01 6.9703362882137299e-02</leafValues></_>
        <_>
          <internalNodes>
            0 -1 754 2.2025516256690025e-02</internalNodes>
          <leafValues>
            1.8549260497093201e-01 -1.9318512082099915e-01</leafValues></_>
        <_>
          <internalNodes>
            0 -1 10 6.9372341036796570e-02</internalNodes>
          <leafValues>
            -6.7311517894268036e-02 3.9654439687728882e-01</leafValues></_>
        <_>
          <internalNodes>
            0 -1 312 1.0412620380520821e-02</internalNodes>
          <leafValues>
            -4.2342373728752136e-01 6.4713492989540100e-02</leafValues></_>
        <_>
          <internalNodes>
            0 -1 648 5.4739870131015778e-02</internalNodes>
          <leafValues>
            -9.4325654208660126e-02 2.8267979621887207e-01</leafValues></_>
        <_>
          <internalNodes>
            0 -1 370 3.8990691304206848e-02</internalNodes>
          <leafValues>
            -3.3831229805946350e-01 9.3684434890747070e-02</leafValues></_>
        <_>
          <internalNodes>
            0 -1 722 1.9343223422765732e-02</internalNodes>
          <leafValues>
            -1.5226307511329651e-01 2.1898575127124786e-01</leafValues></_>
        <_>
          <internalNodes>
            0 -1 667 2.6314660906791687e-02</internalNodes>
          <leafValues>
            4.7856312245130539e-02 -5.7134389877319336e-01</leafValues></_>
        <_>
          <internalNodes>
            0 -1 492 2.0428374409675598e-02</internalNodes>
          <leafValues>
            -1.7928990721702576e-01 1.4553414285182953e-01</leafValues></_>
        <_>
          <internalNodes>
            0 -1 79 7.0470516220666468e-05</internalNodes>
          <leafValues>
            5.8646744489669800e-01 -5.9916455298662186e-02</leafValues></_>
        <_>
          <internalNodes>
            0 -1 605 2.5299027562141418e-02</internalNodes>
          <leafValues>
            -1.2493424117565155e-01 2.1381174027919769e-01</leafValues></_>
        <_>
          <internalNodes>
            0 -1 194 4.5674204826354980e-02</internalNodes>
          <leafValues>
            -2.2997881472110748e-01 1.0962709039449692e-01</leafValues></_>
        <_>
          <internalNodes>
            0 -1 711 2.5571815669536591e-02</internalNodes>
          <leafValues>
            -1.4483579993247986e-01 1.6407075524330139e-01</leafValues></_>
        <_>
          <internalNodes>
            0 -1 801 4.8852525651454926e-05</internalNodes>
          <leafValues>
            -1.4973808526992798e+00 2.5734990835189819e-02</leafValues></_>
        <_>
          <internalNodes>
            0 -1 255 3.6227639764547348e-02</internalNodes>
          <leafValues>
            -6.0899600386619568e-02 5.1467901468276978e-01</leafValues></_>
        <_>
          <internalNodes>
            0 -1 679 3.2217696309089661e-02</internalNodes>
          <leafValues>
            4.4555146247148514e-02 -5.6987392902374268e-01</leafValues></_>
        <_>
          <internalNodes>
            0 -1 713 1.8201231956481934e-02</internalNodes>
          <leafValues>
            1.5506671369075775e-01 -1.5582515299320221e-01</leafValues></_>
        <_>
          <internalNodes>
            0 -1 130 9.1827534139156342e-02</internalNodes>
          <leafValues>
            7.5167402625083923e-02 -3.7999063730239868e-01</leafValues></_>
        <_>
          <internalNodes>
            0 -1 456 4.2657136917114258e-02</internalNodes>
          <leafValues>
            3.0957808718085289e-02 -1.0942193269729614e+00</leafValues></_>
        <_>
          <internalNodes>
            0 -1 755 1.1343928053975105e-02</internalNodes>
          <leafValues>
            -2.9272741079330444e-01 8.3011835813522339e-02</leafValues></_>
        <_>
          <internalNodes>
            0 -1 23 6.9095948711037636e-03</internalNodes>
          <leafValues>
            2.1998605132102966e-01 -9.7651481628417969e-02</leafValues></_>
        <_>
          <internalNodes>
            0 -1 349 1.9530931115150452e-01</internalNodes>
          <leafValues>
            2.4456862360239029e-02 -1.3506441116333008e+00</leafValues></_>
        <_>
          <internalNodes>
            0 -1 9 7.2230547666549683e-02</internalNodes>
          <leafValues>
            -1.8345697224140167e-01 1.3553650677204132e-01</leafValues></_>
        <_>
          <internalNodes>
            0 -1 28 4.1314385831356049e-02</internalNodes>
          <leafValues>
            -6.5076716244220734e-02 3.2974934577941895e-01</leafValues></_>
        <_>
          <internalNodes>
            0 -1 594 3.1402148306369781e-03</internalNodes>
          <leafValues>
            -1.0391963720321655e+00 2.8168123215436935e-02</leafValues></_>
        <_>
          <internalNodes>
            0 -1 137 2.3656463599763811e-04</internalNodes>
          <leafValues>
            3.9867383241653442e-01 -5.8205455541610718e-02</leafValues></_>
        <_>
          <internalNodes>
            0 -1 785 1.6461566556245089e-03</internalNodes>
          <leafValues>
            -5.9055125713348389e-01 4.7592598944902420e-02</leafValues></_>
        <_>
          <internalNodes>
            0 -1 351 3.2413250301033258e-04</internalNodes>
          <leafValues>
            5.0202304124832153e-01 -4.5964632183313370e-02</leafValues></_>
        <_>
          <internalNodes>
            0 -1 368 5.2354328334331512e-02</internalNodes>
          <leafValues>
            -7.6807223260402679e-02 2.9247704148292542e-01</leafValues></_>
        <_>
          <internalNodes>
            0 -1 442 4.0249954909086227e-02</internalNodes>
          <leafValues>
            -8.2368224859237671e-02 2.9601481556892395e-01</leafValues></_>
        <_>
          <internalNodes>
            0 -1 373 4.8003129661083221e-02</internalNodes>
          <leafValues>
            -1.9989044964313507e-01 1.4467130601406097e-01</leafValues></_>
        <_>
          <internalNodes>
            0 -1 754 5.6407153606414795e-02</internalNodes>
          <leafValues>
            3.1667504459619522e-02 -1.1108475923538208e+00</leafValues></_>
        <_>
          <internalNodes>
            0 -1 396 7.0145288482308388e-03</internalNodes>
          <leafValues>
            -3.6773183941841125e-01 6.8043321371078491e-02</leafValues></_>
        <_>
          <internalNodes>
            0 -1 22 4.5996587723493576e-03</internalNodes>
          <leafValues>
            2.3576472699642181e-01 -9.7514331340789795e-02</leafValues></_>
        <_>
          <internalNodes>
            0 -1 723 9.1138616204261780e-02</internalNodes>
          <leafValues>
            -3.1556386500597000e-02 1.0032410621643066e+00</leafValues></_>
        <_>
          <internalNodes>
            0 -1 76 3.7696182727813721e-02</internalNodes>
          <leafValues>
            -8.5214562714099884e-02 2.8068828582763672e-01</leafValues></_>
        <_>
          <internalNodes>
            0 -1 223 1.0287791490554810e-02</internalNodes>
          <leafValues>
            -6.4005511999130249e-01 4.0604542940855026e-02</leafValues></_>
        <_>
          <internalNodes>
            0 -1 99 3.0906393658369780e-04</internalNodes>
          <leafValues>
            4.6106696128845215e-01 -5.4759301245212555e-02</leafValues></_>
        <_>
          <internalNodes>
            0 -1 122 1.8573611974716187e-02</internalNodes>
          <leafValues>
            -1.7267563939094543e-01 1.4251202344894409e-01</leafValues></_>
        <_>
          <internalNodes>
            0 -1 524 5.8143071830272675e-02</internalNodes>
          <leafValues>
            4.2535491287708282e-02 -6.4994198083877563e-01</leafValues></_>
        <_>
          <internalNodes>
            0 -1 493 5.2023261785507202e-02</internalNodes>
          <leafValues>
            -7.7227219939231873e-02 2.9022166132926941e-01</leafValues></_>
        <_>
          <internalNodes>
            0 -1 213 2.2855598479509354e-02</internalNodes>
          <leafValues>
            -1.3234098255634308e-01 1.8158546090126038e-01</leafValues></_>
        <_>
          <internalNodes>
            0 -1 689 1.0881309211254120e-01</internalNodes>
          <leafValues>
            -4.0248177945613861e-02 7.1980935335159302e-01</leafValues></_>
        <_>
          <internalNodes>
            0 -1 613 2.9708173125982285e-02</internalNodes>
          <leafValues>
            -7.7978104352951050e-02 3.5726085305213928e-01</leafValues></_>
        <_>
          <internalNodes>
            0 -1 704 2.9073745012283325e-02</internalNodes>
          <leafValues>
            6.5497249364852905e-02 -4.4089877605438232e-01</leafValues></_>
        <_>
          <internalNodes>
            0 -1 29 2.8670648112893105e-02</internalNodes>
          <leafValues>
            -4.0480202436447144e-01 6.0791876167058945e-02</leafValues></_>
        <_>
          <internalNodes>
            0 -1 309 1.7458287999033928e-02</internalNodes>
          <leafValues>
            -1.6765107214450836e-01 1.2582235038280487e-01</leafValues></_>
        <_>
          <internalNodes>
            0 -1 356 3.4670352935791016e-02</internalNodes>
          <leafValues>
            7.8158341348171234e-02 -2.7721211314201355e-01</leafValues></_>
        <_>
          <internalNodes>
            0 -1 63 1.9295325037091970e-03</internalNodes>
          <leafValues>
            1.4989306926727295e+00 -2.2973708808422089e-02</leafValues></_>
        <_>
          <internalNodes>
            0 -1 181 1.2181658297777176e-02</internalNodes>
          <leafValues>
            -3.9104571938514709e-01 7.2816468775272369e-02</leafValues></_>
        <_>
          <internalNodes>
            0 -1 668 5.4189048707485199e-02</internalNodes>
          <leafValues>
            -4.0922202169895172e-02 7.6192760467529297e-01</leafValues></_>
        <_>
          <internalNodes>
            0 -1 551 3.0393291264772415e-02</internalNodes>
          <leafValues>
            6.2095507979393005e-02 -4.0193104743957520e-01</leafValues></_>
        <_>
          <internalNodes>
            0 -1 527 5.9664718806743622e-02</internalNodes>
          <leafValues>
            8.4081962704658508e-02 -3.0748638510704041e-01</leafValues></_>
        <_>
          <internalNodes>
            0 -1 491 3.1166680157184601e-02</internalNodes>
          <leafValues>
            -4.3268135190010071e-01 5.3984738886356354e-02</leafValues></_>
        <_>
          <internalNodes>
            0 -1 691 3.0276700854301453e-02</internalNodes>
          <leafValues>
            -1.2344516813755035e-01 1.8783210217952728e-01</leafValues></_>
        <_>
          <internalNodes>
            0 -1 336 6.6259235609322786e-04</internalNodes>
          <leafValues>
            3.7230712175369263e-01 -7.3231227695941925e-02</leafValues></_>
        <_>
          <internalNodes>
            0 -1 60 1.0593228042125702e-02</internalNodes>
          <leafValues>
            -1.4443576335906982e-01 1.7817142605781555e-01</leafValues></_></weakClassifiers></_>
    <!-- stage 9 -->
    <_>
      <maxWeakCount>87</maxWeakCount>
      <stageThreshold>-1.5102535486221313e+00</stageThreshold>
      <weakClassifiers>
        <_>
          <internalNodes>
            0 -1 176 4.7264419845305383e-04</internalNodes>
          <leafValues>
            8.6730051040649414e-01 1.0231633484363556e-01</leafValues></_>
        <_>
          <internalNodes>
            0 -1 755 3.5895787179470062e-02</internalNodes>
          <leafValues>
            -1.3826262950897217e-01 4.5033183693885803e-01</leafValues></_>
        <_>
          <internalNodes>
            0 -1 723 6.0249380767345428e-02</internalNodes>
          <leafValues>
            -1.2558595836162567e-01 6.1544311046600342e-01</leafValues></_>
        <_>
          <internalNodes>
            0 -1 697 2.4731846526265144e-02</internalNodes>
          <leafValues>
            -1.7127634584903717e-01 4.1381466388702393e-01</leafValues></_>
        <_>
          <internalNodes>
            0 -1 756 1.7829228192567825e-02</internalNodes>
          <leafValues>
            1.6021308302879333e-01 -3.0403739213943481e-01</leafValues></_>
        <_>
          <internalNodes>
            0 -1 396 3.5915419459342957e-02</internalNodes>
          <leafValues>
            -1.4868094027042389e-01 2.9157042503356934e-01</leafValues></_>
        <_>
          <internalNodes>
            0 -1 608 7.9056359827518463e-02</internalNodes>
          <leafValues>
            -1.0201475024223328e-01 5.5332505702972412e-01</leafValues></_>
        <_>
          <internalNodes>
            0 -1 408 4.3253187090158463e-02</internalNodes>
          <leafValues>
            -5.2070742845535278e-01 9.7025647759437561e-02</leafValues></_>
        <_>
          <internalNodes>
            0 -1 129 2.7512518689036369e-02</internalNodes>
          <leafValues>
            -1.7690005898475647e-01 2.9767072200775146e-01</leafValues></_>
        <_>
          <internalNodes>
            0 -1 303 3.4332534414716065e-04</internalNodes>
          <leafValues>
            5.0302845239639282e-01 -7.6301589608192444e-02</leafValues></_>
        <_>
          <internalNodes>
            0 -1 727 4.1917607188224792e-02</internalNodes>
          <leafValues>
            -9.4375610351562500e-02 3.7146648764610291e-01</leafValues></_>
        <_>
          <internalNodes>
            0 -1 641 4.1124068200588226e-02</internalNodes>
          <leafValues>
            -7.1827322244644165e-02 6.4707016944885254e-01</leafValues></_>
        <_>
          <internalNodes>
            0 -1 693 1.0005871206521988e-01</internalNodes>
          <leafValues>
            -1.3031432032585144e-01 2.6655572652816772e-01</leafValues></_>
        <_>
          <internalNodes>
            0 -1 279 4.0030520409345627e-02</internalNodes>
          <leafValues>
            -1.3066504895687103e-01 2.5578138232231140e-01</leafValues></_>
        <_>
          <internalNodes>
            0 -1 670 3.5818122327327728e-02</internalNodes>
          <leafValues>
            -1.2167315185070038e-01 2.9225471615791321e-01</leafValues></_>
        <_>
          <internalNodes>
            0 -1 198 1.7143402248620987e-02</internalNodes>
          <leafValues>
            -5.4667288064956665e-01 5.9330273419618607e-02</leafValues></_>
        <_>
          <internalNodes>
            0 -1 795 1.7464432865381241e-02</internalNodes>
          <leafValues>
            -2.0307037234306335e-01 1.5167520940303802e-01</leafValues></_>
        <_>
          <internalNodes>
            0 -1 819 3.0832927674055099e-02</internalNodes>
          <leafValues>
            6.7763850092887878e-02 -5.3149986267089844e-01</leafValues></_>
        <_>
          <internalNodes>
            0 -1 467 3.3307109028100967e-02</internalNodes>
          <leafValues>
            -9.3504212796688080e-02 2.9859417676925659e-01</leafValues></_>
        <_>
          <internalNodes>
            0 -1 814 1.9901953637599945e-02</internalNodes>
          <leafValues>
            6.3426181674003601e-02 -4.1833454370498657e-01</leafValues></_>
        <_>
          <internalNodes>
            0 -1 570 4.9000468105077744e-02</internalNodes>
          <leafValues>
            4.7278609126806259e-02 -6.4705121517181396e-01</leafValues></_>
        <_>
          <internalNodes>
            0 -1 477 2.6313669979572296e-02</internalNodes>
          <leafValues>
            1.1223876476287842e-01 -2.5065404176712036e-01</leafValues></_>
        <_>
          <internalNodes>
            0 -1 296 3.0336739495396614e-02</internalNodes>
          <leafValues>
            4.7481760382652283e-02 -5.4587060213088989e-01</leafValues></_>
        <_>
          <internalNodes>
            0 -1 728 1.0094756633043289e-01</internalNodes>
          <leafValues>
            4.9883231520652771e-02 -5.8518320322036743e-01</leafValues></_>
        <_>
          <internalNodes>
            0 -1 732 2.1442089229822159e-02</internalNodes>
          <leafValues>
            7.0429265499114990e-02 -3.6385798454284668e-01</leafValues></_>
        <_>
          <internalNodes>
            0 -1 196 1.3331750407814980e-02</internalNodes>
          <leafValues>
            -2.4577854573726654e-01 8.9348502457141876e-02</leafValues></_>
        <_>
          <internalNodes>
            0 -1 251 4.3704144656658173e-02</internalNodes>
          <leafValues>
            -7.6039075851440430e-02 3.0274647474288940e-01</leafValues></_>
        <_>
